{"dense_1_kernel": [[-0.12193387001752853, 0.10352659970521927, -0.05752470716834068, 0.1396818906068802, 0.007754496764391661, -0.06322120875120163, 0.0630379244685173, -0.005535332951694727, -0.1192166656255722, -0.11942078173160553, -0.001841941149905324, -0.021347472444176674, -0.04028758779168129, 0.11376160383224487, -0.012718535028398037, -0.06647197157144547, 0.12303487956523895, -0.14428633451461792, -0.125367671251297, 0.004264616873115301, -0.015433158725500107, 0.14057213068008423, -0.2264978438615799, 0.08011385798454285, 0.16932828724384308, -0.04819522425532341, 0.032470449805259705, -0.1615144908428192, -0.01323988102376461, 0.05723416805267334, 0.016712555661797523, 0.04605358466506004, -0.04868714138865471, -0.14195403456687927, -0.031592655926942825, 0.12646543979644775, -0.039398811757564545, 0.09722054749727249, -0.028992680832743645, -0.09334857761859894, 0.07227297872304916, 0.012192629277706146, 0.030599724501371384, -0.011310562491416931, 0.13058489561080933, -0.0940716341137886, -0.06731446832418442, -0.11940105259418488, 0.11051316559314728, 0.029322730377316475, -0.09576009213924408, 0.09091153740882874, 0.039962880313396454, -0.014272110536694527, -0.05743822827935219, 0.0726075991988182, 0.16784276068210602, -0.0146261565387249, -0.05438563600182533, -0.0732334554195404, 0.10645134747028351, -0.28892815113067627, -0.08882082998752594, 0.16818729043006897], [-0.12100452929735184, -0.05510859191417694, 0.05169334262609482, -0.0698966234922409, -0.07194776087999344, 0.026261603459715843, -0.16924944519996643, -0.028814958408474922, -0.12092765420675278, 0.08361459523439407, 0.13446563482284546, -0.09813432395458221, 0.15561527013778687, -0.02856062911450863, -0.09424006193876266, -0.05230221524834633, 0.1539832055568695, -0.08819811046123505, -0.03542483597993851, -0.08027290552854538, -0.1850108802318573, -0.002578433370217681, -0.22296923398971558, 0.03458667919039726, -0.030354255810379982, 0.12647418677806854, -0.05926038324832916, 0.1452786773443222, 0.03689407929778099, 0.07408925890922546, -0.011224497109651566, 0.04851321130990982, 0.07306121289730072, -0.09628058969974518, 0.03852250054478645, 0.2312021702528, -0.025450754910707474, 0.10083452612161636, -0.046591755002737045, -0.22496677935123444, -0.06365400552749634, -0.07270077615976334, 0.11709689348936081, 0.0038215932436287403, 0.041067544370889664, 0.014854657463729382, -0.002639142796397209, -0.048243239521980286, -0.007092643994837999, -0.16597840189933777, 0.05275487154722214, 0.1577913761138916, 0.007202074863016605, 0.0021376358345150948, -0.10072264075279236, -0.042538177222013474, 0.0673813447356224, 0.10971727967262268, 0.04518631473183632, -0.06472032517194748, 0.11612299084663391, -0.011272689327597618, 0.007139756344258785, 0.04496856778860092], [-0.024770069867372513, -0.11064963787794113, -0.04962686076760292, -0.026754893362522125, -0.01280228141695261, -0.05856816843152046, 0.19881142675876617, 0.1459342986345291, 0.16314852237701416, -0.0798681452870369, 0.06241244822740555, 0.016886185854673386, -0.04187185689806938, -0.004963907413184643, -0.025490382686257362, -0.13969214260578156, -0.07566428184509277, 0.001999983098357916, -0.17696243524551392, 0.16343636810779572, 0.1758258193731308, -0.16894786059856415, -0.07797415554523468, 0.09365775436162949, -0.19035488367080688, -0.12093554437160492, 0.044669538736343384, -0.04658278822898865, 0.044777777045965195, -0.012812911532819271, -0.12929946184158325, -0.018413960933685303, 0.022127114236354828, 0.00896579958498478, -0.12617400288581848, -0.030764931812882423, -0.10494188219308853, 0.00232962635345757, 0.015234333463013172, -0.010058827698230743, -0.06692688912153244, 0.10181928426027298, -0.04335177317261696, 0.001467228983528912, 0.17573685944080353, 0.017095739021897316, -0.039918046444654465, 0.10047048330307007, 0.08450634777545929, 0.03449748456478119, 0.05083061009645462, -0.13715484738349915, 0.07895531505346298, 0.1374286264181137, -0.0006797082023695111, 0.01032536756247282, -0.02045557089149952, -0.07993364334106445, 0.02965211682021618, -0.007518747355788946, 0.08945625275373459, -0.06161970645189285, 0.05322645604610443, -0.11503531783819199], [0.10282023996114731, -0.09329833090305328, -0.06898944079875946, -0.08403362333774567, -0.14895550906658173, 0.0036134449765086174, 0.12082257866859436, -0.12766288220882416, 0.15705454349517822, -0.04997721314430237, -0.12449673563241959, 0.09659937769174576, 0.052277904003858566, 0.12488017976284027, 0.034593306481838226, -0.06058192253112793, -0.17765888571739197, -0.04210619255900383, -0.030522266402840614, -0.018790127709507942, 0.01783752255141735, -0.04072079807519913, -0.02967962622642517, 0.12915977835655212, 0.059868503361940384, -0.020235253497958183, 0.190490260720253, -0.003953980747610331, -0.05930522084236145, 0.13175344467163086, -0.06877458840608597, -0.13736623525619507, 0.16071131825447083, -0.010302157141268253, 0.0766960084438324, 0.001652338425628841, -0.01333724893629551, 0.10719814896583557, 0.08158444613218307, -0.11164271831512451, 0.18036897480487823, 0.06229173019528389, 0.042744506150484085, 0.14247308671474457, -0.015712128952145576, -0.11700209975242615, 0.16280023753643036, 0.024784453213214874, -0.07827039808034897, -0.00886322557926178, -0.03467636555433273, -0.024808688089251518, 0.02161542698740959, 0.07955188304185867, 0.0692557692527771, 0.003940926399081945, 0.08676668256521225, 0.16867142915725708, -0.21973654627799988, 0.12131708115339279, -0.00840316154062748, 0.19194035232067108, 0.05516666918992996, 0.04734872654080391], [0.09579566866159439, 0.1297302395105362, 0.0985335037112236, -0.04471486806869507, 0.039037495851516724, 0.08802091330289841, -0.10441797971725464, -0.04926235228776932, 0.10910157859325409, 0.02442997321486473, 0.12638796865940094, -0.20533451437950134, -0.11836718022823334, -0.04284198209643364, 0.008499113842844963, 0.10634444653987885, 0.04106336086988449, 0.09896879643201828, -0.08024094998836517, 0.07766954600811005, 0.1808631420135498, 0.09600874781608582, -0.09822854399681091, 0.11160869896411896, -0.04455079138278961, -0.025498025119304657, -0.13159480690956116, 0.09864936769008636, -0.028205355629324913, 0.008953097276389599, -0.013092420995235443, 0.0775500237941742, -0.050207287073135376, 0.024089951068162918, -0.03727081045508385, 0.06290792673826218, -0.01757076196372509, -0.004605582449585199, 0.0022197654470801353, 0.014699039980769157, -0.13006362318992615, -0.0878305584192276, 0.08353207260370255, -0.09461198002099991, -0.00310790678486228, 0.11791770905256271, 0.2578158676624298, -0.07398560643196106, -0.09430338442325592, -0.07026052474975586, -0.012854627333581448, -0.07027257233858109, -0.07125144451856613, -0.0226907879114151, -0.05525605380535126, -0.005921794101595879, -0.04353463277220726, 0.01715228334069252, -0.022606680169701576, -0.04502376168966293, -0.04772128537297249, -0.08557460457086563, -0.1529349535703659, 0.15292535722255707], [0.027399685233831406, -0.06311998516321182, 0.15704919397830963, -0.10162132233381271, -0.0020162540022283792, -0.0007240344421006739, 0.007236049510538578, 0.022414954379200935, 0.03745430335402489, -0.001921504270285368, -0.12134752422571182, 0.0845271572470665, -0.08557664602994919, -0.19878892600536346, 0.02374228462576866, -0.10605260729789734, -0.08726230263710022, -0.05133561044931412, 0.06052073463797569, 0.07153056561946869, 0.024604633450508118, 0.0697270855307579, 0.14560440182685852, -0.13156487047672272, 0.005103051196783781, -0.15670032799243927, 0.2743789851665497, -0.07746680825948715, 0.02480321004986763, 0.025991074740886688, 0.29628074169158936, -0.14104418456554413, 0.11102540791034698, -0.22472237050533295, 0.1428288221359253, 0.2723027169704437, 0.022719960659742355, -0.10894850641489029, -0.04721512272953987, -0.012831774540245533, 0.12188464403152466, 0.08679399639368057, 0.07067406177520752, -0.07289312034845352, 0.2421807050704956, -0.07624540477991104, -0.01643589325249195, -0.012772575952112675, 0.14282295107841492, 0.0034104858059436083, 0.2706868648529053, 0.11621490865945816, 0.10429415851831436, 0.09119724482297897, 0.09071196615695953, -0.058315299451351166, 0.1705724000930786, -0.18567237257957458, 0.2274322509765625, -0.03103902004659176, 0.07861024141311646, -0.060108255594968796, 0.21271073818206787, -0.10006122291088104], [0.12625980377197266, 0.1697542667388916, 0.013557033613324165, -0.0820949375629425, -0.013645011000335217, 0.009705665521323681, 0.11780358850955963, -0.030374376103281975, 0.045375313609838486, -0.05003814771771431, -0.028805574402213097, -0.03457782790064812, -0.07761935144662857, -0.11471644788980484, -0.03927645832300186, 0.19784092903137207, 0.11668774485588074, -0.11790964007377625, -0.17075245082378387, 0.06393381208181381, -0.1573508232831955, 0.010522134602069855, 0.006299994885921478, -0.003257101634517312, 0.1531374305486679, 0.004537493921816349, -0.15838010609149933, 0.10930386185646057, 0.22841963171958923, 0.04983697086572647, -0.025980863720178604, 0.11449983716011047, 0.04022500291466713, -0.029493505135178566, -0.04477110132575035, 0.01699306070804596, -0.023396702483296394, -0.10247333347797394, -0.06687192618846893, -0.006118990480899811, 0.030604923143982887, -0.07562959939241409, -0.09710471332073212, -0.19474920630455017, -0.049955856055021286, 0.16740235686302185, -0.22028930485248566, -0.056488364934921265, 0.07117024064064026, 0.11092565208673477, -0.15606717765331268, 0.17036962509155273, -0.20077669620513916, -0.07938230782747269, 0.05982591584324837, 0.11381728947162628, -0.0336090549826622, -0.1309177279472351, -0.16156624257564545, -0.0924791470170021, 0.019417662173509598, -0.10214761644601822, -0.20633754134178162, 0.09377903491258621], [0.17196597158908844, -0.07921115309000015, -0.005208020098507404, 0.020210901275277138, -0.1036512702703476, -0.04400695487856865, 0.03648518770933151, -0.13630439341068268, -0.05397982522845268, -0.06747030466794968, 0.10741309821605682, 0.14173182845115662, 0.08593814820051193, 0.011282683350145817, -0.06315655261278152, -0.1718948781490326, 0.1340869814157486, 0.03950115665793419, 0.045831747353076935, -0.23966191709041595, 0.09340878576040268, 0.1337243914604187, -0.22746728360652924, -0.1718835085630417, 0.19256384670734406, 0.0444035604596138, -0.05879976972937584, -0.10144765675067902, 0.062464818358421326, -0.049774784594774246, 0.007235912140458822, -0.19863788783550262, -0.08699603378772736, -0.14798706769943237, -0.06410261243581772, 0.009715144522488117, 0.16314440965652466, -0.039814647287130356, -0.031220335513353348, 0.035719383507966995, 0.09165148437023163, 0.15292328596115112, 0.039075035601854324, 0.06398621201515198, -0.007862740196287632, 0.025804121047258377, 0.18437820672988892, -0.05536717176437378, -0.12051490694284439, 0.21816544234752655, -0.031120523810386658, 0.06051236018538475, 0.040045518428087234, 0.010789716616272926, 0.038090795278549194, -0.19955915212631226, -0.0684039294719696, -0.004521731752902269, -0.052182406187057495, -0.018082790076732635, -0.08021686971187592, 0.12574489414691925, 0.059642959386110306, 0.02353917807340622], [0.09389497339725494, -0.06170827895402908, 0.027864394709467888, -0.005979670211672783, -0.1335630863904953, -0.21611590683460236, -0.2763145864009857, 0.13983765244483948, 0.07587357610464096, -0.11946026980876923, -0.08670530468225479, -0.14078979194164276, -0.10605225712060928, -0.24391067028045654, -0.01408717967569828, -0.13918527960777283, -0.12949518859386444, 0.06024255231022835, -0.059511978179216385, 0.14932388067245483, -0.0897747054696083, -0.09769203513860703, 0.13831140100955963, -0.14963704347610474, 0.059713851660490036, 0.037712983787059784, 0.29188650846481323, 0.04304749518632889, -0.022025827318429947, -0.04465079680085182, -0.03769117221236229, 0.11283188313245773, -0.028863981366157532, 0.0350688099861145, 0.09053697437047958, 0.17425751686096191, 0.10766057670116425, 0.152707040309906, 0.05717282369732857, 0.06319095939397812, -0.17076614499092102, -0.1445968598127365, 0.06006024032831192, 0.05227441340684891, 0.27986809611320496, 0.07595045864582062, -0.10062903165817261, -0.1763673573732376, 0.09592185169458389, 0.06001919507980347, 0.05505719035863876, -0.15395820140838623, 0.11878446489572525, 0.06654109805822372, -0.029129326343536377, -5.3401516197482124e-05, 0.07142782211303711, -0.02373625338077545, 0.04559072107076645, -0.05076444521546364, -0.03873962163925171, 0.1409628689289093, 0.10747261345386505, -0.061263617128133774], [0.1318170726299286, -0.2590280771255493, -0.0368279404938221, 0.17944395542144775, -0.0324106365442276, -0.08940275013446808, 0.03914281353354454, 0.20536090433597565, 0.06876889616250992, 0.17073222994804382, 0.13825282454490662, 0.1000278890132904, -0.012223289348185062, -0.1489904671907425, -0.03769943118095398, 0.05986316129565239, -0.07263291627168655, -0.2605942189693451, 0.041477885097265244, -0.07804415374994278, 0.2916867136955261, 0.12787172198295593, -0.08216021209955215, -0.18097005784511566, 0.050150029361248016, 0.12202552706003189, -0.2352035641670227, 0.19359713792800903, 0.07565578073263168, 0.022619573399424553, 0.3899974524974823, -0.2583944797515869, -0.1918725222349167, -0.047140467911958694, 0.31454598903656006, -0.07362990826368332, -0.06979640573263168, -0.06187492236495018, -0.013994087465107441, -0.03358054906129837, -0.15758997201919556, -0.10706603527069092, 0.13628141582012177, -0.010035146959125996, -0.06144462525844574, 0.17232918739318848, 0.010219071060419083, 0.21104787290096283, -0.2750699818134308, 0.03200206160545349, -0.04566174000501633, 0.04721112549304962, -0.09973811358213425, 0.1636074036359787, 0.04544755071401596, -0.002530826721340418, -0.18789927661418915, -0.12756232917308807, -0.00953927543014288, -0.20256875455379486, -0.08021371811628342, -0.006751389242708683, 0.016927748918533325, 0.040959637612104416], [-0.18246795237064362, 0.003680950729176402, -0.011435380205512047, 0.13126656413078308, 0.09374337643384933, -0.005850782617926598, -0.2504953444004059, 0.06502661108970642, 0.029215482994914055, 0.08281364291906357, 0.01173897460103035, 0.14556139707565308, 0.06420442461967468, 0.00538903521373868, -0.16728106141090393, -0.11863259971141815, 0.1495109647512436, -0.17128047347068787, 0.018116187304258347, -0.0857323706150055, -0.17828717827796936, -0.07284391671419144, 0.09269139170646667, -0.032589204609394073, -0.17814308404922485, -0.07007404416799545, -0.16371846199035645, -0.009806501679122448, -0.007368624676018953, -0.14658650755882263, 0.1628231704235077, -0.13276977837085724, -0.1407298743724823, 0.008854861371219158, 0.0010912474244832993, 0.02893565036356449, -0.019656142219901085, 0.38231736421585083, 0.0474892258644104, 0.019103683531284332, -0.027319137006998062, 0.01967601105570793, 0.25184038281440735, -0.12911094725131989, -0.013851896859705448, -0.13110236823558807, -0.0065722838044166565, 0.12049897015094757, 0.03658861666917801, -0.07780871540307999, 0.1627446413040161, 0.018674278631806374, 0.010155712254345417, -0.0195411816239357, 0.010126829147338867, -0.04022500291466713, 0.02322213537991047, -0.08820469677448273, 0.1950639933347702, 0.02362881787121296, -0.1535104364156723, -0.13979604840278625, -0.07591330260038376, -0.09821126610040665], [0.06211429461836815, 0.05000312998890877, -0.06394215673208237, -0.007572439033538103, -0.2080039381980896, -0.32322490215301514, 0.01337065827101469, -0.16956108808517456, -0.01029823999851942, -0.1293879598379135, 0.00827177707105875, -0.2693600356578827, -0.0697413980960846, 0.014697480946779251, -0.10342973470687866, 0.1482274830341339, -0.13946382701396942, -0.016341419890522957, 0.12525832653045654, 0.18250291049480438, -0.014461004175245762, -0.09903668612241745, 0.12126948684453964, -0.08691408485174179, 0.13364219665527344, -0.08255600184202194, 0.10759533196687698, -0.051874324679374695, 0.08423454314470291, 0.03319734334945679, -0.03527345135807991, 0.03607265651226044, 0.13336710631847382, -0.1096508577466011, -0.06284090131521225, 0.02477880008518696, -0.039177071303129196, 0.01303636934608221, -0.17664076387882233, -0.14409729838371277, -0.021893173456192017, -0.04274280369281769, 0.1984352469444275, 0.0612969808280468, 0.0292985700070858, 0.03948673978447914, -0.028279216960072517, 0.012421226128935814, 0.022493870928883553, -0.04260091856122017, -0.1399531364440918, 0.0812457799911499, 0.019961941987276077, -0.04417042434215546, -0.06370723247528076, 0.002223438583314419, 0.11384586989879608, 0.05637655034661293, 0.002966134110465646, 0.12488318979740143, 0.015738096088171005, 0.06293410062789917, -0.06544129550457001, -0.1690247654914856], [-0.0661332830786705, -0.04042138159275055, 0.08387282490730286, 0.11091681569814682, 0.07630261778831482, -0.04542021080851555, 0.3559196889400482, 0.01155784260481596, 0.03190561383962631, -0.22052811086177826, -0.13987480103969574, 0.034282904118299484, 0.12009149044752121, -0.10641729831695557, 0.05777337774634361, -0.02798568457365036, 0.11014977097511292, -0.08896616846323013, -0.13634684681892395, -0.09770944714546204, -0.03233145549893379, 0.14511363208293915, -0.1786651909351349, -0.17464973032474518, -0.03299739956855774, -0.11754628270864487, -0.2756267786026001, 0.05236581712961197, 0.12429738789796829, -0.18552526831626892, 0.18603041768074036, 0.2179890275001526, 0.030359474942088127, 0.10202513635158539, -0.251971036195755, -0.006399067118763924, -0.1845981925725937, -0.06692977994680405, -0.28668636083602905, -0.04946206137537956, 0.03627781942486763, -0.001430870033800602, -0.07612085342407227, 0.033117130398750305, -0.012006055563688278, -0.05098016932606697, 0.023190297186374664, -0.03076629526913166, -0.12800142168998718, 0.016371984034776688, 0.17288582026958466, -0.07833743095397949, 0.0915631651878357, 0.044728633016347885, -0.18637830018997192, -0.09958384186029434, -0.032394442707300186, -0.07781350612640381, -0.10325881093740463, 0.0933699831366539, 0.008039671927690506, -0.09550563246011734, -0.11262008547782898, 0.23753778636455536], [-0.1235363781452179, -0.20711122453212738, 0.11412595212459564, -0.12630079686641693, 0.11071264743804932, -0.2233734130859375, -0.05199063941836357, -0.08256299048662186, -0.19399943947792053, 0.04483811929821968, -0.10294569283723831, -0.18987466394901276, -0.002893374301493168, -0.012706106528639793, 0.06258095800876617, -0.006814384367316961, -0.05925939977169037, -0.2956317067146301, -0.09649337083101273, 0.007833459414541721, 0.12827950716018677, 0.09442541748285294, 0.1978609561920166, -0.21917976438999176, 0.28961390256881714, 0.1737011969089508, 0.02490452118217945, 0.08866614103317261, 0.2341061532497406, -0.0487789586186409, -0.20201720297336578, -0.05261443182826042, -0.13995884358882904, -0.13604778051376343, -0.16073428094387054, 0.19806978106498718, -0.00625929469242692, -0.24221938848495483, 0.09830918163061142, -0.15363425016403198, 0.1813882440328598, -0.11497440189123154, 0.015090875327587128, -0.07768318802118301, 0.05491587519645691, 0.24234557151794434, 0.04247376695275307, 0.0058999997563660145, 0.11067689955234528, -0.11511777341365814, -0.20918488502502441, -0.09983130544424057, -0.21843379735946655, -0.09991784393787384, 0.021214617416262627, 0.12841254472732544, 0.1228700801730156, -0.11111371964216232, -0.09045062959194183, 0.007153560407459736, 0.19179600477218628, -0.23816275596618652, -0.14675875008106232, 0.41995054483413696], [-0.2255823016166687, -0.026359258219599724, -0.04694546014070511, 0.12539996206760406, -0.04991869255900383, 0.02111135981976986, -0.014811146073043346, -0.10856182128190994, -0.034179188311100006, -0.01661587879061699, -0.09308462589979172, 0.16292470693588257, 0.10781252384185791, -0.2380019873380661, 0.06364453583955765, -0.003333436092361808, -0.06902722269296646, -0.1039491519331932, -0.03309378772974014, 0.02381964400410652, -0.12628164887428284, -0.1346343606710434, 0.12395798414945602, -0.08128457516431808, 0.09843499213457108, -0.12156552076339722, -0.17264029383659363, 0.03292224556207657, 0.18792733550071716, -0.19946610927581787, 0.20627503097057343, -0.1935083270072937, -0.0055728270672261715, 0.00839958991855383, -0.08355776965618134, 0.15362249314785004, -0.03008655086159706, 0.08299342542886734, -0.021867819130420685, -0.024455476552248, 0.16147087514400482, -0.12941144406795502, -0.0009614043519832194, -0.11395226418972015, -0.06699221581220627, -0.09799891710281372, -0.06569956243038177, -0.03713233768939972, 0.09092764556407928, 0.07905641198158264, 0.2749035060405731, -0.08319060504436493, 0.06785460561513901, -0.0861302986741066, 0.007265138439834118, 0.032414402812719345, 0.027274368330836296, -0.09676319360733032, -0.01933181844651699, 0.061215538531541824, -0.00017592321091797203, 0.20418809354305267, 0.19260524213314056, -0.06306327879428864], [0.019613342359662056, 0.118246890604496, 0.0891764760017395, 0.16834557056427002, 0.05079928785562515, -0.0527622289955616, 0.19347868859767914, -0.25914084911346436, -0.18037936091423035, -0.11788974702358246, 0.10078282654285431, 0.10870417207479477, -0.07644973695278168, -0.0923040434718132, -0.13149051368236542, 0.1837690770626068, -0.26291364431381226, 0.0012492670211941004, -0.08761301636695862, -0.062297165393829346, 0.08987269550561905, -0.0421968437731266, -0.17493028938770294, -0.0010610349709168077, -0.0725274458527565, -0.1940942406654358, -0.04038672894239426, 0.09521737694740295, 0.1623689979314804, -0.02253003977239132, -0.09456717222929001, 0.20470598340034485, -0.04470854625105858, -0.07072365283966064, -0.10057538002729416, 0.09444110840559006, -0.15718261897563934, 0.09884069114923477, 0.04729267954826355, 0.22304151952266693, 0.03969637677073479, -0.24162881076335907, -0.12033208459615707, -0.1309908926486969, 0.024772899225354195, 0.01241106167435646, -0.021775761619210243, -0.0007652108324691653, 0.14809665083885193, -0.023633696138858795, -0.06909096986055374, 0.007714503910392523, -0.028477979823946953, 0.03808341175317764, 0.0006623159279115498, 0.051016148179769516, -0.07982351630926132, -0.09957269579172134, -0.30614057183265686, 0.08617618680000305, -0.003093274310231209, -0.07803051918745041, 0.0048171780072152615, 0.09449462592601776], [-0.06049586459994316, 0.07978042215108871, 0.04462851956486702, -0.06402875483036041, -0.07046770304441452, 0.20444726943969727, 0.0037474287673830986, 0.05379938334226608, -0.10022144764661789, -0.020983653143048286, 0.12066527456045151, 0.15814118087291718, 0.1270611733198166, 0.12544181942939758, 0.09589311480522156, -0.02203517220914364, -0.0010383693734183908, -0.24259284138679504, 0.12102086842060089, -0.10599645972251892, -0.03180455416440964, -0.06639768183231354, -0.0008519168477505445, -0.07011445611715317, -0.12345752120018005, 0.04268781840801239, -0.08300555497407913, -0.15131543576717377, 0.03867391124367714, -0.0581062026321888, -0.014292244799435139, -0.05806815251708031, 0.10928235203027725, 0.026795770972967148, -0.06630053371191025, -0.052164942026138306, -0.1066143736243248, 0.05959037318825722, 0.08027413487434387, -0.026627834886312485, 0.02370411902666092, -0.16627170145511627, 0.05911476910114288, 0.09811265766620636, -0.09584978967905045, 0.08406946063041687, -0.001482899533584714, -0.06182923540472984, -0.06674633175134659, 0.17441843450069427, -0.07981045544147491, -0.024711892008781433, 0.1646563559770584, 0.18702194094657898, -0.09380955249071121, 0.021003203466534615, -0.010771218687295914, 0.023438403382897377, -0.05632934719324112, 0.13878026604652405, 0.1136232540011406, 0.12054680287837982, 0.12417439371347427, 0.07367075979709625], [0.034590478986501694, -0.06603983789682388, 0.112749382853508, 0.05883461982011795, -0.10118340700864792, -0.10060573369264603, 0.043002065271139145, -0.020124640315771103, 0.04204786196351051, 0.18093447387218475, 0.009086910635232925, -0.015549522824585438, 0.06028259918093681, -0.002242610789835453, 0.1750418096780777, 0.06465034931898117, -0.03748535364866257, -0.15811772644519806, -0.09420786052942276, -0.15332943201065063, 0.004601766355335712, -0.03425585478544235, 0.05196577310562134, -0.10035333037376404, 0.002239047782495618, -0.05888941511511803, 0.028999248519539833, -0.03881765156984329, 0.05044599995017052, -0.10588447004556656, 0.06315655261278152, 0.04313814267516136, 0.026436837390065193, -0.16328300535678864, -0.009967515245079994, -0.007624262012541294, -0.026381822302937508, 0.12626206874847412, -0.045192182064056396, -0.02348289266228676, -0.005874491762369871, 0.1979670524597168, 0.10266318917274475, 0.17737679183483124, 0.043632324784994125, -0.10972518473863602, 0.007494106888771057, -0.11990874260663986, -0.035133861005306244, -0.01544229220598936, 0.12963664531707764, -0.051902562379837036, -0.12020321935415268, 0.13512171804904938, 0.214253768324852, -0.0293898805975914, -0.023834938183426857, 0.0774725005030632, -0.06923630088567734, -0.05970289558172226, -0.21198588609695435, 0.03509866073727608, 0.0047502415254712105, 0.02471729926764965], [-0.13034293055534363, -0.17269915342330933, 0.16522859036922455, 0.09390145540237427, 0.1251416802406311, -0.0035325561184436083, 0.08091537654399872, -0.17391648888587952, 0.04016610607504845, -0.1902521252632141, 0.002275928156450391, -0.017370130866765976, 0.08079113066196442, 0.009038074873387814, 0.025984376668930054, -0.07403796166181564, -0.009873716160655022, 0.15149767696857452, -0.09761614352464676, -0.10045050829648972, 0.014491379261016846, 0.008212349377572536, -0.04517557471990585, 0.11907541006803513, -0.10914388298988342, -0.14496253430843353, 0.04420362040400505, 0.03806082159280777, 0.07605847716331482, 0.061649762094020844, 0.07591340690851212, 0.02887934073805809, -0.03774849325418472, -0.14253510534763336, -0.0853620320558548, 0.20900052785873413, 0.21838878095149994, -0.06584765762090683, -0.04518651217222214, -0.06686356663703918, 0.020254382863640785, -0.13785839080810547, 0.049710292369127274, -0.08792177587747574, -0.05470065027475357, -0.022192705422639847, 0.15052415430545807, 0.08267810940742493, 0.07292938977479935, -0.10047309845685959, -0.15181003510951996, -0.19555068016052246, 0.003581062890589237, -0.004554359242320061, 0.03828630596399307, -0.039533909410238266, 0.12378466874361038, 0.09364354610443115, 0.07943969964981079, -0.17715851962566376, -0.13768860697746277, -0.012737401761114597, -0.04206134378910065, -0.18816222250461578], [0.09945137798786163, 0.0867321640253067, -0.059973396360874176, 0.10381234437227249, 0.11469682306051254, 0.11437903344631195, 0.047150783240795135, -0.06498400121927261, 0.11186881363391876, 0.12049645930528641, -0.038280829787254333, 0.13882100582122803, 0.0864022821187973, -0.09451126307249069, 0.015197723172605038, 0.02759106457233429, -0.19804807007312775, 0.13976670801639557, 0.03015163354575634, 0.041768383234739304, 0.06087852269411087, 0.24300599098205566, 0.04872743785381317, -0.04915982112288475, 0.15095283091068268, -0.008646611124277115, 0.009916854090988636, 0.0010329813230782747, 0.09369669109582901, 0.011841763742268085, 0.09210354089736938, -0.11688688397407532, 0.11376669257879257, -0.010836045257747173, 0.11985969543457031, 0.021520815789699554, 0.051683131605386734, 0.09884609282016754, -0.20510783791542053, -0.07284621894359589, 0.1332484781742096, -0.041140634566545486, 0.027109120041131973, 0.09540072083473206, 0.008774003945291042, -0.0788298174738884, 0.058387741446495056, -0.032635461539030075, -0.07688003778457642, 0.007447403855621815, -0.13746820390224457, -0.08852271735668182, -0.016369931399822235, -0.038167376071214676, -0.047885019332170486, 0.01633448339998722, -0.13357695937156677, 0.179581418633461, -0.09797839820384979, 0.058447644114494324, 0.09828147292137146, 0.04930515214800835, -0.07094412297010422, 0.030500758439302444], [0.0532824881374836, -0.05013222247362137, 0.06274984031915665, -0.15447522699832916, 0.07627595216035843, 0.0590352937579155, -0.08434507250785828, 0.04354920610785484, -0.028674684464931488, -0.019709357991814613, 0.04715787246823311, -0.24792151153087616, 0.09738201647996902, -0.03821759298443794, 0.00792084913700819, -0.06757104396820068, -0.09650156646966934, -0.0341828353703022, -0.023212280124425888, -0.17578983306884766, 0.06567142903804779, -0.12506480515003204, 0.09758327156305313, -0.1428971141576767, -0.2047274112701416, 0.02929508313536644, -0.009436934255063534, 0.0724489763379097, 0.1263909935951233, -0.22838611900806427, 0.038707487285137177, 0.04819008708000183, 0.17443610727787018, 0.11577558517456055, -0.07422833144664764, -0.0741036906838417, 0.0641525536775589, -0.11023727059364319, 0.21729689836502075, 0.05929093435406685, -0.11218579858541489, 0.013620573095977306, -0.11493667215108871, -0.03927281126379967, 0.04288538917899132, -0.011879725381731987, 0.12253056466579437, 0.29103225469589233, 0.14655248820781708, 0.083921417593956, 0.030847908928990364, -0.02212201990187168, 0.011866321787238121, -0.08376362174749374, 0.0008994134259410203, -0.04003548622131348, 0.029079725965857506, 0.030759716406464577, 0.007990107871592045, 0.1843147575855255, 0.17230579257011414, -0.005863389000296593, -0.01606081984937191, 0.09598423540592194], [-0.05734941363334656, -0.1418539434671402, 0.2798558473587036, 0.031010178849101067, 0.04442514851689339, 0.20534422993659973, 0.062461450695991516, -0.135811910033226, -0.0851912796497345, 0.04009150341153145, -0.07748203724622726, 0.12284650653600693, -0.1549849808216095, -0.1604224294424057, 0.015400469303131104, -0.04808080568909645, -0.04033616557717323, -0.04557034373283386, -0.34120580554008484, 0.003993036691099405, -0.028169097378849983, -0.1212950125336647, -0.11975400894880295, -0.1189676970243454, -0.0826512947678566, -0.09388549625873566, -0.07428811490535736, -0.11906379461288452, -0.1749405413866043, -0.002756652655079961, 0.04605022072792053, 0.07282289862632751, 0.05721433460712433, 0.09224963188171387, 0.08584188669919968, -0.2410726398229599, -0.13985489308834076, 0.1489684283733368, -0.1796507090330124, 0.08278483897447586, 0.01948465220630169, -0.14249290525913239, 0.14892439544200897, 0.13107085227966309, -0.02391211688518524, -0.1377585381269455, 0.059755269438028336, 0.10365022718906403, 0.10714347660541534, 0.08689926564693451, -0.04405664652585983, 0.1171995997428894, -0.0019595162011682987, 0.11732140183448792, 0.08590249717235565, 0.18885330855846405, -0.3027097284793854, 0.3117270767688751, -0.13564711809158325, 0.041839540004730225, 0.07490037381649017, 0.17337162792682648, -0.03953966870903969, -0.11741145700216293], [-0.12422318011522293, 0.3242732584476471, 0.133494034409523, -0.02406608685851097, -0.08038096129894257, -0.08692768961191177, 0.017704134806990623, -0.0011372438166290522, -0.02094878815114498, -0.10699616372585297, -0.0024511797819286585, -0.130767822265625, -0.12377866357564926, -0.046941474080085754, 0.00307487859390676, 0.07609985023736954, 0.20229999721050262, -0.0025336667895317078, -0.07022133469581604, -0.01493912935256958, -0.13094379007816315, -0.20287348330020905, 0.01606425829231739, -0.22216087579727173, 0.1478041112422943, -0.10917505621910095, 0.045850444585084915, 0.03437737375497818, 0.17819736897945404, -0.02531818486750126, -0.30161845684051514, 0.02116931416094303, 0.05663857236504555, 0.17676891386508942, -0.09752465039491653, -0.104790098965168, -0.053468167781829834, 0.01822481118142605, 0.021783562377095222, 0.15450574457645416, 0.06194310635328293, -0.36263132095336914, 0.012814299203455448, -0.02553609013557434, -0.05531715974211693, 0.09687204658985138, 0.09523327648639679, -0.0707511156797409, 0.0010778671130537987, -0.0017582717118784785, 0.04674733057618141, 0.002087209839373827, 0.279800683259964, 0.15458475053310394, -0.034004442393779755, 0.09464696049690247, -0.0641351044178009, 0.030452178791165352, -0.012032650411128998, 0.10716835409402847, -0.009651876986026764, 0.0018379358807578683, 0.1158236414194107, -0.009795622900128365], [0.11944026499986649, 0.24654348194599152, -0.06444255262613297, 0.03431018814444542, 0.027824709191918373, 0.21574780344963074, 0.1929912269115448, -0.013143548741936684, -0.1297803670167923, -0.08193985372781754, 0.08563625067472458, 0.11995016038417816, -0.06100677326321602, -0.07029109448194504, 0.02634187787771225, -0.015736881643533707, -0.05533695966005325, -0.07726360112428665, 0.03892260789871216, -0.04439959675073624, 0.0659983828663826, -0.07278227806091309, -0.06242598220705986, -0.19743411242961884, 0.03519262373447418, 0.09074259549379349, -0.050911158323287964, 0.12895077466964722, -0.07601162791252136, 0.14415012300014496, -0.017308704555034637, -0.22745200991630554, 0.06808348745107651, -0.07250496745109558, 0.20352692902088165, 0.02332606539130211, -0.19609086215496063, 0.007136926520615816, 0.18109755218029022, 0.12513944506645203, -0.12531645596027374, 0.24355410039424896, 0.08642908930778503, 0.20537033677101135, -0.016287632286548615, 0.1322914958000183, -0.15873757004737854, -0.004143066238611937, 0.18120141327381134, 0.0717732235789299, 0.002635100856423378, -0.1503755748271942, 0.12120803445577621, 0.09244722872972488, 0.11184044927358627, -0.05547093227505684, -0.12789390981197357, 0.07319080084562302, 0.19069525599479675, -0.057244110852479935, -0.09305599331855774, -0.06318292766809464, 0.0335419625043869, -0.0890972837805748], [-0.18623575568199158, 0.09436813741922379, -0.03586956858634949, 0.06153182312846184, 0.07420755922794342, -0.08338281512260437, 0.027632076293230057, -0.02947409264743328, -0.19961072504520416, -0.08910523355007172, -0.07608845084905624, -0.0873468741774559, -0.024133242666721344, -0.13282977044582367, 0.16680486500263214, -0.023827996104955673, 0.31575194001197815, 0.02640308253467083, 0.03787589073181152, 0.015266412869095802, 0.1227174699306488, -0.30241501331329346, -0.0878058448433876, 0.10137155652046204, -0.052614957094192505, -0.051671020686626434, -0.07102256268262863, -0.07181042432785034, -0.1056959331035614, 0.13607607781887054, -0.060418128967285156, 0.04637017846107483, 0.21977531909942627, -0.05667063593864441, 0.08506862819194794, -0.12742745876312256, -0.26311448216438293, 0.0035461564548313618, -0.23908497393131256, 0.06612193584442139, 0.015690023079514503, -0.007461424916982651, -0.04708589240908623, 0.27659979462623596, 0.02555445209145546, -0.05881238356232643, 0.040064383298158646, -0.11247732490301132, -0.10300774872303009, -0.07799118757247925, -0.17657972872257233, -0.050488732755184174, 0.023151949048042297, -0.09888279438018799, 0.06313077360391617, 0.2713797986507416, -0.01624089851975441, -0.16949152946472168, -0.03804900124669075, 0.08371023088693619, 0.29013851284980774, -0.08995246887207031, -0.11283739656209946, 0.042755305767059326], [0.09662929177284241, -0.07349729537963867, -0.1279834508895874, -0.05346972495317459, -0.025717927142977715, 0.15026907622814178, -0.30633437633514404, 0.02682182565331459, 0.018523192033171654, -0.029815731570124626, 0.1006816029548645, 0.0023589758202433586, 0.1944018453359604, 0.0513763464987278, 0.22740328311920166, 0.08942852169275284, 0.08441536128520966, 0.2329317182302475, -0.015858890488743782, -0.08465534448623657, -0.07113894075155258, -0.2572307586669922, -0.19041764736175537, 0.14086301624774933, 0.046927716583013535, -0.08381328731775284, -0.009723094291985035, -0.07958432286977768, 0.027739427983760834, 0.08260514587163925, 0.12021343410015106, 0.08083523064851761, -0.11346177011728287, 0.022350529208779335, -0.1764707714319229, 0.3062545657157898, -0.0760708600282669, -0.23215383291244507, -0.10361102223396301, 0.00994019489735365, 0.1370871216058731, -0.13782963156700134, -0.01279667392373085, -0.096209816634655, -0.07053235918283463, -0.00961638055741787, 0.022711776196956635, -0.05781631916761398, -0.033924393355846405, 0.0190560482442379, -0.09473097324371338, -0.09006603807210922, 0.05268983915448189, -0.07731346786022186, 0.037393711507320404, 0.17019829154014587, 0.04715612903237343, -0.07068837434053421, 0.16366639733314514, -0.1673915535211563, 0.05918334797024727, 0.1146422028541565, -0.05602726712822914, 0.020257025957107544], [0.04062669724225998, -0.04044929891824722, 0.22402572631835938, -0.07148987054824829, -0.021297208964824677, 0.005501655396074057, -0.02002134919166565, -0.026163538917899132, -0.022181443870067596, 0.012471375986933708, -0.0011271692346781492, 0.0005979227717034519, 0.075046107172966, 0.17980331182479858, 0.039973609149456024, -0.05779663100838661, -0.21435049176216125, 0.13038693368434906, 0.1929004043340683, 0.24690395593643188, -0.026386167854070663, 0.07281698286533356, -0.02819913625717163, -0.011744054034352303, -0.09175695478916168, 0.17502781748771667, -0.040229182690382004, -0.10290320217609406, -0.03356966748833656, 0.1588778793811798, -0.15493369102478027, 0.006921322084963322, -0.04160493612289429, 0.038478996604681015, -0.01587948203086853, -0.02761123515665531, -0.059263262897729874, -0.02163146436214447, -0.141014963388443, 0.23442277312278748, 0.029294328764081, -0.22031757235527039, 0.16316881775856018, 0.030731240287423134, 0.14616307616233826, 0.04822240397334099, -0.0013882872881367803, -0.09920226782560349, -0.12803825736045837, 0.11178690195083618, -0.16589204967021942, 0.12293747812509537, 0.10836534202098846, 0.10698210448026657, -0.08478938788175583, 0.29339709877967834, -0.0018598990282043815, 0.00809595175087452, -0.04944643750786781, 0.29375046491622925, -0.1428193747997284, -0.10861386358737946, 0.13061083853244781, -0.09139364957809448], [-0.05950738117098808, -0.04337336868047714, 0.015802811831235886, -0.007300612982362509, -0.13481244444847107, -0.017164554446935654, -0.06281830370426178, 0.04563768953084946, -0.07699387520551682, -0.06785321235656738, 0.05384477972984314, -0.003154004691168666, 0.0722600594162941, -0.04946405440568924, 0.15899673104286194, -0.2566583752632141, -0.06792841106653214, -0.23930193483829498, -0.10178112238645554, -0.14433501660823822, -0.12782827019691467, -0.08222764730453491, 0.14028334617614746, -0.11871284246444702, 0.03227918967604637, 0.01659507490694523, 0.24522392451763153, -0.09085344523191452, 0.17105133831501007, -0.045043136924505234, -0.06583563983440399, 0.14543260633945465, 0.059718869626522064, 0.040127210319042206, 0.18118388950824738, 0.08851352334022522, 0.021227480843663216, -0.10631036758422852, 0.046989548951387405, -0.031169919297099113, 0.0003382324939593673, -0.04199136793613434, 0.20184430480003357, -0.015487856231629848, 0.04284331947565079, 0.2810054123401642, -0.027911564335227013, -0.01108359545469284, 0.025256413966417313, -0.021174566820263863, 0.12788811326026917, -0.06723053008317947, -0.2228582203388214, -0.06519488990306854, -0.0006377482204698026, 0.006266841199249029, -0.03493151813745499, 0.020233120769262314, -0.13090471923351288, -0.11139079928398132, 0.04908398911356926, -0.12369805574417114, -0.029154200106859207, 0.03803424537181854], [0.03477255627512932, -0.05251171812415123, -0.14083705842494965, -0.08307730406522751, 0.10970219224691391, 0.1729026734828949, 0.042786095291376114, 0.07030656188726425, -0.22563546895980835, -0.07711240649223328, 0.18401549756526947, -0.11509780585765839, 0.10162974894046783, 0.04299401491880417, -0.027113264426589012, 0.015440263785421848, -0.01100019458681345, -0.0006501128082163632, 0.028154848143458366, 0.09605497866868973, -0.003577638417482376, 0.034343548119068146, -0.05946914106607437, -0.11476067453622818, 0.01744060404598713, -0.0552399568259716, -0.003079486545175314, 0.009916003793478012, 0.03481641039252281, -0.023582162335515022, -0.2443336397409439, 0.009954426437616348, 0.05745938420295715, -0.1424533724784851, -0.16222649812698364, -0.05338129773736, 0.11404626816511154, 0.021963106468319893, -0.03989909589290619, -0.2944474220275879, -0.048703283071517944, 0.23317161202430725, -0.05683618783950806, -0.17089802026748657, 0.007097356487065554, -0.06515984982252121, -0.06414858996868134, -0.29423701763153076, -0.04436659812927246, -0.2175467163324356, 0.07262194156646729, 0.055043675005435944, -0.05243832990527153, 0.17416784167289734, -0.0015617386670783162, -0.20336203277111053, 0.09912443161010742, 0.08041153103113174, 0.02293146587908268, 0.06084078177809715, -0.04019620269536972, -0.0439956933259964, 0.014086652547121048, 0.019558919593691826], [-0.021905414760112762, 0.20349451899528503, 0.044756218791007996, 0.14241911470890045, 0.06757546216249466, -0.09089255332946777, 0.06060255318880081, -0.058748044073581696, 0.03728589043021202, -0.07779797911643982, -0.07757420092821121, 0.28725147247314453, -0.18223826587200165, -0.2292480617761612, 0.012196434661746025, 0.044866181910037994, 0.15107087790966034, -0.1256161481142044, -0.19450430572032928, -0.047100961208343506, -0.046986643224954605, 0.012860981747508049, -0.05266890302300453, -0.11947214603424072, -0.059562645852565765, -0.18682612478733063, 0.14382216334342957, 0.14243945479393005, 0.17245247960090637, 0.05606449022889137, 0.03717534616589546, -0.003569819964468479, -0.014999519102275372, -0.09380857646465302, -0.03691714629530907, -0.0760175958275795, -0.040147360414266586, 0.05879783257842064, 0.09179248660802841, -0.2249792367219925, 0.03382923826575279, 0.05780406296253204, -0.01396644115447998, 0.051788799464702606, -0.011839593760669231, -0.055220767855644226, 0.09376264363527298, 0.1441238522529602, -0.10383466631174088, -0.024045191705226898, 0.1056532934308052, -0.004627300892025232, -0.12272928655147552, -0.12169598042964935, 0.08508116751909256, -0.14017106592655182, -0.09774807095527649, -0.05775558948516846, -0.1587807536125183, -0.08606229722499847, 0.05197553336620331, -0.06359589844942093, -0.03463666886091232, 0.05619042366743088], [0.004992030095309019, 0.0262131467461586, 0.09712688624858856, 0.18572275340557098, -0.07131926715373993, 0.07088534533977509, -0.12996061146259308, 0.06516611576080322, -0.24497930705547333, 0.12155941128730774, -0.11002810299396515, -0.00814185943454504, 0.17953930795192719, -0.15756253898143768, 0.10026168078184128, 0.13367915153503418, 0.023698953911662102, -0.17980463802814484, 0.2378731071949005, -0.1585465669631958, -0.0008039698004722595, 0.05983748286962509, -0.04200895130634308, -0.019576508551836014, 0.08834320306777954, -0.1681951880455017, 0.0467400997877121, 0.07054604589939117, -0.21113011240959167, 0.19305476546287537, -0.12043679505586624, 0.10040213167667389, -0.05434970185160637, 0.0759439542889595, 0.009199258871376514, 0.13880053162574768, -0.1423189789056778, 0.06347594410181046, 0.2422529011964798, 0.20606344938278198, 0.04192604869604111, 0.0895557701587677, 0.08709404617547989, -0.15494869649410248, 0.23550184071063995, -0.1694900095462799, -0.1710321456193924, -0.17610780894756317, -0.07058990001678467, 0.1424890011548996, -0.18297900259494781, 0.23720233142375946, 0.001747509348206222, 0.030743703246116638, 0.027394788339734077, -0.04274807125329971, 0.14719071984291077, 0.03982263058423996, 0.10227791965007782, 0.15668688714504242, 0.21305085718631744, -0.05093209445476532, 0.1897180825471878, -0.1326662003993988], [0.08731216937303543, -0.2197330892086029, -0.0053983512334525585, -0.07537926733493805, 0.039467670023441315, 0.25575733184814453, -0.08203066140413284, -0.20306310057640076, 0.099269799888134, 0.2674567699432373, -0.24454079568386078, 0.18776723742485046, -0.23675358295440674, 0.33920958638191223, 0.15782630443572998, 0.018751811236143112, -0.05587045103311539, 0.07888888567686081, -0.07887158542871475, 0.0339101180434227, -0.1944907158613205, 0.043353885412216187, 0.04307394474744797, -0.12263999879360199, -0.02103734016418457, -0.1189817488193512, 0.05298670753836632, -0.26851001381874084, 0.3757878243923187, -0.2515401542186737, 0.043162040412425995, -0.13427093625068665, -0.006307411007583141, -0.16509680449962616, -0.04829137772321701, 0.06840427964925766, 0.12839698791503906, -0.1401377022266388, -0.19918538630008698, -0.08162900060415268, -0.09674663841724396, 0.0885806679725647, 0.0004841413756366819, 0.24441546201705933, 0.08666598796844482, 0.23008789122104645, 0.04099986329674721, -0.005882517900317907, -0.02654692530632019, -0.09570983797311783, 0.0907641276717186, -0.23644112050533295, -0.12596063315868378, 0.1395118534564972, -0.23465673625469208, 0.06115925684571266, 0.0811031237244606, 0.0766528770327568, -0.18383179605007172, 0.14356084167957306, 0.11588786542415619, 0.039228953421115875, -0.20908774435520172, -0.1160079762339592], [0.020538978278636932, 0.14530254900455475, 0.11664062738418579, -0.12854930758476257, 0.13900671899318695, -0.1500222533941269, -0.02067352458834648, -0.021759381517767906, -0.011644774116575718, -0.038390450179576874, 0.09020832180976868, -0.035315681248903275, 0.0554993636906147, -0.037059977650642395, 0.026088004931807518, 0.08384417742490768, -0.1030244380235672, -0.06282921135425568, -0.1792515516281128, 0.017757365480065346, -0.026703931391239166, -0.06223319098353386, -0.19325602054595947, -0.049417175352573395, -0.069330133497715, -0.045517198741436005, 0.1359577178955078, 0.0613081194460392, -0.02352890931069851, -0.007852655835449696, 0.06927576661109924, -0.03107716701924801, 0.058852892369031906, 0.15902569890022278, -0.08352891355752945, 0.07911816984415054, 0.06109483167529106, -0.029807355254888535, 0.05760335549712181, 0.13168323040008545, 0.14122046530246735, 0.083785280585289, -0.1626145839691162, 0.21948179602622986, -0.020879598334431648, 0.1427352875471115, -0.1009061336517334, 0.16833949089050293, -0.0252655241638422, 0.016015643253922462, -0.061827730387449265, -0.010247917845845222, -0.009073211811482906, -0.06090362370014191, -0.32252606749534607, 0.009398389607667923, -3.511084651108831e-05, 0.15023694932460785, 0.021686190739274025, -0.19367770850658417, 0.005910858977586031, 0.056596141308546066, 0.047934889793395996, 0.0019332602387294173], [0.06027069687843323, -0.026622729375958443, 0.12695644795894623, 0.039251893758773804, 0.03107077069580555, -0.04189438372850418, -0.1288338452577591, 0.0697895884513855, -0.0460788868367672, 0.09992289543151855, 0.008883018046617508, -0.10219154506921768, 0.03644838556647301, 0.10388942807912827, -0.07842094451189041, -0.009465640410780907, 0.03968588635325432, 0.014364895410835743, -0.03871896490454674, -0.10475844144821167, 0.005538272205740213, 0.010781649500131607, 0.03691105544567108, 0.22072596848011017, -0.04669545963406563, 0.09910811483860016, -0.07191361486911774, 0.05607476085424423, 0.1733366847038269, -0.16298188269138336, 0.09724259376525879, -0.0016801552847027779, 0.1575445532798767, -0.07147496193647385, -0.08511795848608017, 0.10251278430223465, -0.023194240406155586, -0.05211608484387398, -0.07842113077640533, 0.04720638692378998, -0.0397973507642746, 0.05204950273036957, 0.06411974877119064, 0.0033249342814087868, 0.052533965557813644, 0.07070300728082657, -0.05623706430196762, -0.11526911705732346, 0.046220578253269196, 0.03026680462062359, -0.035012610256671906, 0.05886280909180641, -0.15012507140636444, -0.008681828156113625, -0.1721896380186081, -0.28553152084350586, -0.012066871859133244, -0.09734009206295013, 0.07819367945194244, 0.11370646208524704, 0.05693957954645157, 0.17539715766906738, -0.033133331686258316, -0.0168754979968071], [0.02667812816798687, 0.15676172077655792, 0.15360082685947418, 0.20064476132392883, -0.16304290294647217, -0.05440615490078926, -0.13680489361286163, 0.24013833701610565, -0.01880129799246788, 0.04698668420314789, 0.09103242307901382, -0.18812276422977448, 0.03491086885333061, 0.04060402512550354, -0.13392451405525208, -0.08520931750535965, 0.0454021580517292, 0.2901564836502075, -0.04028036817908287, -0.04546985775232315, -0.03754643350839615, -0.048564791679382324, -0.10057448595762253, -0.0013838504673913121, -0.04119356349110603, -0.24297185242176056, 0.002707428764551878, -0.08822604268789291, 0.06717071682214737, -0.07185083627700806, -0.11944516748189926, -0.013125472702085972, -0.04301878437399864, -0.1753619760274887, -0.12968063354492188, 0.16034556925296783, 0.09828930348157883, 0.03915071114897728, -0.2705911099910736, 0.12942396104335785, 0.06443307548761368, -0.06002393737435341, -0.09238430857658386, -0.11929529160261154, 0.10231975466012955, -0.08669117093086243, 0.10518862307071686, -0.19125115871429443, -0.013065635226666927, -0.049207039177417755, -0.006282375659793615, -0.08386489748954773, -0.12822064757347107, 0.22248239815235138, 0.05363602936267853, -0.05248469486832619, -0.0883651152253151, 0.09825675189495087, -0.05070498585700989, -0.006306256167590618, 0.08373737335205078, 0.12850534915924072, -0.1355493664741516, 0.0497497133910656], [0.006871632765978575, 0.06869106739759445, -0.04009361192584038, 0.08186767995357513, 0.09795580804347992, 0.044488999992609024, 0.18174917995929718, -0.05677736923098564, 0.19517244398593903, 0.09335015714168549, -0.07048114389181137, -0.13854946196079254, 0.14767849445343018, -0.20920909941196442, 0.29227185249328613, 0.08641402423381805, -0.16604360938072205, -0.03087608516216278, 0.18063472211360931, -0.15283070504665375, -0.1578747183084488, 0.07300744950771332, -0.09016242623329163, -0.04967544972896576, 0.09243279695510864, -0.21431240439414978, 0.09559854865074158, 0.21312129497528076, -0.2760160267353058, 0.030232621356844902, 0.016997642815113068, 0.15950670838356018, 0.06219768151640892, 0.36836472153663635, -0.053984563797712326, 0.1264783889055252, 0.1243693009018898, 0.08976086229085922, 0.12776997685432434, -0.037890080362558365, 0.09323610365390778, -0.02874472551047802, -0.04148627072572708, 0.04729320481419563, 0.013553756289184093, -0.08570745587348938, -0.18726888298988342, -0.06510984897613525, 0.07798951864242554, 0.142568901181221, -0.11737516522407532, 0.05440225079655647, -0.1411435455083847, 0.10193334519863129, 0.05652749165892601, -0.12541542947292328, 0.12518097460269928, -0.49100568890571594, -0.12065932899713516, 0.026297111064195633, 0.10000669956207275, 0.01516464352607727, 0.3040596842765808, 0.02462470903992653], [0.09049727767705917, 0.10377884656190872, 0.007586644031107426, 0.0962071642279625, 0.010408799163997173, 0.0472278892993927, 0.12483889609575272, 0.03784412145614624, 0.1517106294631958, 0.07401975989341736, -0.11825473606586456, -0.2548079788684845, -0.2471083700656891, -0.08478053659200668, 0.06215343624353409, 0.010413297452032566, 0.017790986225008965, -0.15708057582378387, -0.06970351934432983, 0.08434978872537613, -0.04865586757659912, -0.00713784946128726, 0.046766575425863266, -0.2770075500011444, 0.025171156972646713, 0.00442841649055481, -0.004308471456170082, -0.01718270406126976, 0.038234688341617584, 0.24203264713287354, -0.12374752014875412, 0.03618511185050011, 0.047335244715213776, -0.05384555086493492, -0.17762720584869385, 0.012153581716120243, 0.09319168329238892, 0.006878594867885113, 0.021828873082995415, -0.06465733796358109, -0.09640873968601227, 0.2661213278770447, 0.06721187382936478, -0.003268094267696142, -0.12357351183891296, -0.08748113363981247, 0.1566637009382248, 0.17231455445289612, -0.07370211184024811, -0.21333661675453186, -0.0033562537282705307, 0.11365899443626404, -0.09228604286909103, 0.06867735832929611, 0.0016424453351646662, -0.12181960046291351, 0.025723813101649284, -0.1474962830543518, -0.1309950202703476, 0.1654936671257019, 0.16489657759666443, -0.1667826771736145, 0.11647626012563705, 0.0743258073925972], [-0.06383094191551208, 0.06365852802991867, 0.03569834306836128, -0.10714641958475113, -0.07040569931268692, 0.006788891740143299, 0.09291569143533707, 0.003802540246397257, -0.002365147229284048, -0.0873761773109436, 0.07539580762386322, 0.04267862066626549, 0.017214631661772728, -0.13121360540390015, -0.2755965292453766, -0.13562726974487305, 0.06859609484672546, 0.0094369538128376, -0.057656429708004, -0.03119727596640587, 0.20653709769248962, 0.1548726111650467, 0.02078407071530819, 0.0056573497131466866, 0.10499174892902374, 0.1399080604314804, -0.09602764248847961, 0.025708738714456558, -0.13022007048130035, 0.02855074405670166, 0.06718838214874268, -0.031577009707689285, 0.035639047622680664, 0.05620915815234184, -0.05291413143277168, 0.07123614102602005, 0.21060119569301605, 0.2919076681137085, -0.0463082455098629, 0.04864330217242241, -0.05835084244608879, 0.24722899496555328, -0.07772085815668106, 0.11020828783512115, 0.15145690739154816, 0.03803066909313202, -0.1969575732946396, -0.0320277102291584, 0.25703194737434387, 0.10715355724096298, -0.0663856491446495, 0.16204309463500977, 0.14229550957679749, 0.06592340767383575, 0.0043639084324240685, -0.040905095636844635, -0.13847507536411285, -0.14767706394195557, 0.05450259894132614, 0.2224852442741394, -0.003243072656914592, 0.0950382724404335, -0.018545258790254593, 0.11905618011951447], [-0.14341004192829132, -0.0461764857172966, -0.05197010561823845, -0.22497037053108215, -0.1945423036813736, 0.16917076706886292, -0.07060451060533524, 0.04768303036689758, -0.1064920574426651, -0.13351783156394958, 0.09368769079446793, 0.18264296650886536, -0.04665512591600418, 0.008646576665341854, -0.19075672328472137, 0.03104536235332489, 0.06380487978458405, 0.006075333338230848, -0.0020678071305155754, -0.061338093131780624, 0.03693382441997528, 0.19784261286258698, 0.006509707309305668, 0.09623907506465912, 0.08947101980447769, -0.00665516871958971, 0.17245948314666748, 0.22031976282596588, -0.15417863428592682, 0.021142710000276566, 0.25426191091537476, 0.26073697209358215, -0.06118127703666687, 0.19302892684936523, 0.015579069964587688, 0.04379047453403473, 0.15236617624759674, 0.08814646303653717, 0.1845281422138214, 0.02915322221815586, 0.15730351209640503, -0.09250668436288834, 0.057790402323007584, 0.023512162268161774, 0.0846712663769722, -0.13299471139907837, -0.047359611839056015, -0.06533921509981155, 0.1752791404724121, 0.07545913010835648, 0.09460736066102982, 0.25325965881347656, 0.25047561526298523, 0.2168474644422531, 0.05351749807596207, -0.017866408452391624, -0.07150623947381973, -0.03116028569638729, -0.05352038890123367, 0.16154804825782776, -0.20864705741405487, -0.10901661217212677, -0.13148298859596252, 0.15018025040626526], [-0.14573881030082703, -0.06282903999090195, -0.03790824115276337, -0.01802150532603264, 0.001657069195061922, 0.11308770626783371, -0.09596285969018936, 0.11500362306833267, -0.15157106518745422, -0.030253423377871513, -0.10033347457647324, 0.1858786940574646, 0.01452098973095417, -0.2572576105594635, -0.259915292263031, 0.09328222274780273, -0.1998540312051773, -0.007028306368738413, -0.041035473346710205, 0.057202767580747604, 0.05528264865279198, 0.1035415306687355, 0.03161202371120453, -0.02918846160173416, -0.1997106373310089, -0.017391996458172798, -0.18921464681625366, -0.10928548872470856, 0.028653807938098907, -0.0704231858253479, -0.131231427192688, -0.046557679772377014, 0.08920148760080338, 0.0030995390843600035, 0.09897199273109436, 0.20114566385746002, 0.20531991124153137, 0.24699413776397705, 0.044286228716373444, -0.08928152918815613, -0.05721060559153557, 0.02224862016737461, -0.08230805397033691, 0.004360437858849764, 0.11727380752563477, -0.06470387428998947, -0.053269244730472565, 0.12953722476959229, 0.08743250370025635, -0.0818982794880867, -0.11359667778015137, 0.03860802575945854, -0.21293319761753082, 0.022649431601166725, 0.07412192225456238, -0.0874817818403244, 0.11884460598230362, -0.009124676696956158, -0.04551273584365845, -0.10541963577270508, -0.12478168308734894, -0.06819586455821991, 0.20509186387062073, 0.2075016051530838], [0.10001876950263977, 0.11033226549625397, 0.02140025421977043, -0.055217940360307693, 0.07040639221668243, 0.13876035809516907, 0.1397099494934082, 0.09364751726388931, -0.15559376776218414, 0.2590024173259735, -0.09451690316200256, -0.07667640596628189, -0.0902569368481636, 0.035648055374622345, -0.17477057874202728, -0.01655375026166439, 0.03648916631937027, 0.07852911204099655, 0.27761110663414, 0.08703507483005524, -0.0586543083190918, 0.28140127658843994, -0.09703471511602402, 0.20935459434986115, 0.2092108428478241, 0.0294590275734663, 0.021451221778988838, -0.01967315748333931, 0.07419884949922562, 0.17461036145687103, -0.11976774036884308, 0.008502026088535786, -0.2092551738023758, 0.019383961334824562, -0.1844554841518402, 0.0075907036662101746, 0.024245822802186012, 0.11209508776664734, 0.037385307252407074, 0.17301097512245178, -0.09624911844730377, 0.27283141016960144, 0.1717737317085266, -0.022030264139175415, 0.22789360582828522, -0.08021201938390732, 0.04707974195480347, 0.094059519469738, -0.08778846263885498, 0.12668876349925995, 0.07542241364717484, 0.13798272609710693, 0.15379710495471954, 0.08845055103302002, -0.23415786027908325, 0.1527937352657318, -0.07938136905431747, 0.09331367164850235, -0.0014127067988738418, 0.24294467270374298, -0.09079345315694809, 0.11654215306043625, -0.10684189200401306, -0.10020522773265839], [0.1800919771194458, 0.009124300442636013, -0.08318474143743515, 0.11156260967254639, -0.008726120926439762, -0.05792976915836334, 0.024047821760177612, -0.24363337457180023, -0.15282505750656128, -0.12421989440917969, 0.18597745895385742, -0.0783768743276596, 0.13390228152275085, -0.06069120019674301, -0.01989877037703991, 0.12478842586278915, -0.1642468422651291, -0.17584100365638733, -0.0689542293548584, -0.12570719420909882, -0.06913239508867264, -0.06087203323841095, 0.0986606627702713, -0.06569311022758484, -0.1423688381910324, 0.02979736402630806, 0.056564364582300186, -0.011210097000002861, 0.06837936490774155, -0.14744359254837036, -0.2480814903974533, 0.08960098028182983, 0.009170726872980595, 0.08549942076206207, -0.010511104948818684, 0.01832004263997078, -0.08543917536735535, -0.058050595223903656, -0.04558824375271797, -0.032893359661102295, -0.08460722863674164, -0.003411287674680352, -0.17343394458293915, -0.0966193675994873, -0.06501775234937668, -0.12448637187480927, 0.07509884983301163, -0.009904054924845695, 0.07582195848226547, 0.014173174276947975, -0.1022694855928421, 0.11150631308555603, 0.07856152206659317, -0.25354477763175964, 0.17671890556812286, -0.05884818732738495, 0.15552623569965363, -0.15621128678321838, 0.05130110681056976, -0.1032649353146553, -0.08109603822231293, 0.16271162033081055, -0.02845160663127899, 0.028872571885585785], [0.06324444711208344, 0.06768867373466492, -0.06260883808135986, 0.14440764486789703, -0.030634677037596703, -0.004158307798206806, 0.05970944091677666, 0.1569913625717163, 0.02891421690583229, -0.17326007783412933, 0.0836510956287384, -0.04399564489722252, 0.012813292443752289, -0.06093732267618179, 0.005304456688463688, 0.05442151054739952, -0.07264424860477448, -0.12659992277622223, 0.15292301774024963, 0.050823941826820374, -0.02826644852757454, 0.36794450879096985, -0.08273497968912125, -0.004042988643050194, -0.07757061719894409, -0.0679725930094719, 0.04061858728528023, 0.08766276389360428, -0.11057969927787781, 0.04395577311515808, 0.031354669481515884, -0.055449359118938446, 0.0564463771879673, -0.035695359110832214, -0.06821040064096451, -0.04344619810581207, 0.15751051902770996, 0.045950040221214294, -0.09070070832967758, -0.15849363803863525, -0.16988040506839752, 0.05440841242671013, -0.11875302344560623, 0.12685148417949677, 0.04896446689963341, -0.098058320581913, -0.0008602529997006059, -0.06200814247131348, 0.2171923965215683, 0.1568215936422348, -0.191339373588562, -0.09595655649900436, 0.03768621385097504, -0.15797437727451324, -0.19352522492408752, -0.09827495366334915, 0.08958859741687775, -0.0964350551366806, 0.04389490559697151, 0.2629797160625458, 0.059154171496629715, 0.1631358563899994, -0.032690614461898804, -0.12199314683675766], [0.05310428515076637, -0.11791983991861343, -0.03647024556994438, 0.058972835540771484, -0.1433558464050293, -0.02272409200668335, -0.15952950716018677, -0.09365036338567734, 0.16954365372657776, -0.3135601878166199, -0.21001578867435455, 0.024469412863254547, -0.12916207313537598, -0.20113304257392883, -0.017567889764904976, 0.09207696467638016, 0.20079760253429413, -0.092862069606781, -0.06981286406517029, -0.13593435287475586, -0.13247841596603394, -0.09666123241186142, 0.0452461764216423, -0.07079882174730301, 0.09543917328119278, -0.24085982143878937, -0.216041699051857, -0.04053414613008499, 0.14309796690940857, -0.0902416929602623, 0.16424909234046936, -0.21174322068691254, -0.23040778934955597, -0.049452655017375946, -0.152707040309906, 0.08484601229429245, -0.05580165982246399, 0.019882265478372574, -0.0035170207265764475, -0.18771037459373474, -0.12246031314134598, -0.0072541264817118645, 0.03567340224981308, -0.056124113500118256, -0.08964938670396805, -0.11106448620557785, -0.07324280589818954, -0.03426598757505417, 0.17320045828819275, -0.013989347033202648, -0.14108332991600037, -0.05132846161723137, 0.031026143580675125, -0.04020385071635246, 0.0641975998878479, -0.07582655549049377, 0.0673566535115242, 0.11450715363025665, -0.02802469953894615, 0.013721299357712269, 0.28129875659942627, 0.07723502814769745, -0.27736184000968933, 0.07903888076543808], [0.1283472776412964, 0.03776701167225838, -0.13958123326301575, -0.01801258698105812, -0.030306221917271614, -0.12758217751979828, 0.019171742722392082, 0.06409023702144623, 0.2863573729991913, 0.08075952529907227, -0.20316247642040253, -0.02221185900270939, -0.071042001247406, -0.08286000788211823, -0.04374963790178299, -0.13377492129802704, 0.23473776876926422, 0.062102388590574265, -0.04941447079181671, 0.11994688212871552, 0.09267641603946686, 0.04373500868678093, 0.10129878669977188, -0.0438789501786232, 0.052630480378866196, -0.1024615541100502, 0.0439886674284935, 0.04226382449269295, 0.039635129272937775, -0.0900048241019249, -0.09628450870513916, -0.11034878343343735, -0.10813042521476746, 0.04173470661044121, 0.10018495470285416, 0.06974498927593231, 0.20510776340961456, 0.0923270434141159, 0.11668716371059418, 0.10167837142944336, 0.02705460414290428, 0.05114109814167023, -0.19786863029003143, -0.026174359023571014, -0.384486585855484, -0.008038721978664398, 0.10126003623008728, -0.09166692942380905, -0.046555157750844955, -0.19938407838344574, 0.020386336371302605, 0.2744538486003876, 0.05400083586573601, -0.040183085948228836, -0.09877058118581772, -0.05809339880943298, -0.17656947672367096, 0.04205082356929779, -0.24590259790420532, 0.14740459620952606, -0.052347730845212936, 0.1232648640871048, 0.03356248140335083, -0.013047129847109318], [-0.054944004863500595, 0.03520148620009422, -0.010522602126002312, 0.011455941013991833, 0.08368933945894241, -0.07133350521326065, 0.03531376272439957, 0.09130281955003738, -0.05244189128279686, 0.023276856169104576, 0.03791374713182449, -0.01708993874490261, -0.09235097467899323, -0.061974696815013885, -0.002076805103570223, 0.059842877089977264, -0.01931946910917759, 0.09149137884378433, 0.008876186795532703, -0.04647925868630409, -0.11986309289932251, -0.06618014723062515, -0.08589069545269012, -0.01774541847407818, 0.03293237090110779, 0.05651812627911568, -0.04384128749370575, -0.046628810465335846, -0.0712614506483078, -0.010462059639394283, 0.004316258709877729, -0.03162718564271927, -0.006901680491864681, 0.09308812767267227, -0.04723236709833145, 0.029406791552901268, 0.04345163702964783, -0.1276613473892212, 0.017599843442440033, -0.030030254274606705, 0.037104107439517975, -0.053406357765197754, 0.05159744992852211, 0.07826218008995056, -0.12922535836696625, -0.11617667227983475, -0.050844524055719376, -0.021959125995635986, -0.04704085364937782, 0.04095025360584259, -0.040179360657930374, 0.09974274784326553, 0.07471993565559387, 0.0910685807466507, -0.09034481644630432, 0.021286001428961754, -0.087603859603405, 0.06629481166601181, -0.05235474929213524, -0.01586912013590336, -0.03351040929555893, -0.020754374563694, 0.025112789124250412, 0.01264272816479206], [0.008544889278709888, 0.027825811877846718, -0.07732846587896347, -0.11543767899274826, -0.021352116018533707, 0.014502041041851044, -0.02735099382698536, 0.017597638070583344, 0.05158241093158722, 0.027907440438866615, -0.006112063303589821, 0.07321703433990479, -0.12779515981674194, 0.015179570764303207, 0.012221061624586582, 0.024172017350792885, -0.00721213361248374, 0.02923176810145378, 0.07036164402961731, -0.06501264870166779, 0.020586539059877396, -0.027240591123700142, -0.14912113547325134, 0.0576845146715641, 0.14122247695922852, 0.016101468354463577, 0.08779530972242355, -0.12099992483854294, -0.07469034940004349, -0.008544394746422768, -0.07504524290561676, 0.008914756588637829, -0.02288226969540119, 0.027832673862576485, -0.025289131328463554, -0.04427224025130272, -0.08012328296899796, -0.0604805052280426, 0.014763221144676208, -0.06792157143354416, -0.10092713683843613, 0.04551121965050697, -0.06462572515010834, -0.0602421909570694, 0.012484976090490818, -0.09798526018857956, -0.08873762935400009, -0.08798601478338242, -0.04707567021250725, -0.033571429550647736, -0.02760184369981289, -0.1614188849925995, -0.14737825095653534, -0.00010228644532617182, -0.03838091343641281, 0.008293348364531994, -0.025712748989462852, -0.15544436872005463, 0.02063833363354206, 0.09101574122905731, -0.06041831150650978, -0.04628578573465347, 0.023307286202907562, 0.007989763282239437], [-0.02529801055788994, -0.15519818663597107, 0.007789431605488062, -0.08656495809555054, 0.002768654376268387, 0.013146569021046162, -0.09327663481235504, 0.06620192527770996, 0.00895827915519476, -0.06334236264228821, 0.05188336595892906, -0.05277226120233536, -0.034876611083745956, 0.04574406519532204, -0.07602007687091827, -0.021185066550970078, 0.034607138484716415, -0.07263454794883728, 0.018975676968693733, 0.11772307008504868, 0.008575044572353363, -0.027132852002978325, -0.0500623881816864, -0.0493420846760273, 0.043862972408533096, 0.08721508085727692, -0.05774771794676781, 0.02688969485461712, 0.06163191422820091, -0.025495022535324097, 0.01809615083038807, 0.03264586254954338, -0.17278340458869934, -0.015020143240690231, -0.06774184852838516, 0.0627855435013771, 0.011797797866165638, -0.004966176114976406, 0.020090317353606224, 0.021688740700483322, -0.08008795231580734, 0.03782544285058975, -0.12796951830387115, 0.020748676732182503, -0.11183754354715347, 0.060455191880464554, -0.05011231079697609, 0.010149296373128891, 0.017371999099850655, 0.062487613409757614, -0.07702865451574326, -0.07312549650669098, 0.0575719028711319, 0.04089190065860748, 0.011185010895133018, 0.11124920845031738, 0.12826891243457794, 0.06328091770410538, 0.17550921440124512, -0.08392905443906784, -0.011338060721755028, 0.04690796136856079, 0.06563805788755417, 0.013083859346807003], [0.13051080703735352, 0.04131946712732315, 0.00025610910961404443, -0.043181125074625015, 0.1658526360988617, -0.011114193126559258, 0.08271242678165436, 0.01017161924391985, 0.07371436804533005, 0.008337022736668587, -0.00010358114377595484, -0.021318022161722183, 0.061586540192365646, 0.019398266449570656, 0.012589861638844013, -0.03804101049900055, -0.0478697270154953, -0.09322407841682434, 0.03351683169603348, -0.05860338360071182, 0.04665658250451088, 0.05026714503765106, 0.04769895225763321, 0.03205852210521698, -0.1726885288953781, 0.07039695233106613, 0.20429424941539764, 0.0629098042845726, 0.027961809188127518, -0.029385745525360107, -0.06415815651416779, -0.1382354199886322, -0.08276469260454178, -0.03140506148338318, 0.025909071788191795, 0.007580283097922802, 0.15970773994922638, -0.024092940613627434, -0.19476990401744843, -0.1199817806482315, -0.056095100939273834, -0.015611426904797554, 0.07531870156526566, -0.12442963570356369, 0.09990455210208893, 0.15535300970077515, 0.004251610487699509, -0.09222326427698135, 0.02639138139784336, 0.03508641570806503, -0.10142693668603897, -0.06038568541407585, 0.024799441918730736, -0.008025486022233963, 0.02834588848054409, -0.06279713660478592, 0.12084928900003433, 0.018152248114347458, -0.03219838812947273, 0.05101737380027771, 0.016378002241253853, -0.04840678349137306, 0.018411679193377495, 0.046830132603645325], [0.048141129314899445, -0.05439227074384689, 0.15645776689052582, -0.1160338744521141, -0.15455162525177002, -0.05098488926887512, -0.158879354596138, 0.011965839192271233, -0.04500467702746391, 0.07611559331417084, 0.026983046904206276, -0.0016274591907858849, 0.011318857781589031, -0.11731827259063721, 0.041965071111917496, 0.03309927508234978, -0.04205308482050896, -0.012075692415237427, -0.0669073611497879, 0.05558662489056587, 0.07296371459960938, 0.034240514039993286, 0.023252837359905243, 0.23596630990505219, 0.07053320109844208, 0.016675341874361038, 0.11864741891622543, 0.04617009684443474, 0.06772759556770325, -0.058028776198625565, -0.08589690178632736, 0.11495202779769897, -0.13265490531921387, 0.06321516633033752, 0.0325050987303257, -0.05906958132982254, -0.010389424860477448, 0.005593287292867899, -0.05808977782726288, 0.04037240147590637, 0.08879830688238144, 0.0003426673647481948, 0.02526882477104664, 0.029791129752993584, 0.007860216312110424, 0.08362504839897156, 0.022160667926073074, -0.17089450359344482, 0.12512126564979553, 0.05810445174574852, -0.10462699830532074, -0.04969019070267677, 0.01310510654002428, 0.04928986355662346, 0.0712166503071785, -0.0379350446164608, -0.03284222632646561, 0.15383362770080566, -0.08145838230848312, 0.008501652628183365, -0.01092524267733097, -0.012443814426660538, 0.06652158498764038, -0.0946655198931694], [-0.1304112672805786, 0.03650015592575073, 0.03549613803625107, 0.020080389454960823, -0.020900065079331398, 0.034258581697940826, 0.06490591913461685, -0.07961457967758179, 0.10951671749353409, 0.016808656975626945, -0.08132202923297882, 0.08279130607843399, -0.1196429505944252, -0.02817007340490818, 0.005966195371001959, -0.014703820459544659, -0.12540049850940704, -0.04777701199054718, 0.008761678822338581, -0.022603090852499008, -0.06079430878162384, -0.07603675127029419, 0.043388161808252335, 0.03804100304841995, 0.1702740341424942, -0.021810883656144142, -0.06642691791057587, 0.07551591843366623, 0.05267396569252014, -0.04606452211737633, 0.04125840961933136, 0.025954319164156914, 0.03367605805397034, 0.013018974103033543, -0.06421159952878952, -0.027444126084446907, 0.007282833568751812, 0.02813628502190113, 0.0829024612903595, 0.027746165171265602, 0.04196043685078621, -0.06893978267908096, -0.0591052807867527, 0.11493907123804092, 0.10299169272184372, 0.08481530845165253, 0.048971980810165405, -0.041905757039785385, -0.08481336385011673, -0.11768553406000137, -0.016081321984529495, -0.004923502914607525, 0.11430995166301727, -0.08259518444538116, -0.019954463467001915, -0.18678507208824158, 0.008698026649653912, 0.09774165600538254, 0.12136799097061157, -0.057075999677181244, -0.005276244133710861, -0.030097557231783867, -0.04563106968998909, -0.08505545556545258], [-0.07962075620889664, -0.0400390625, 0.03952644392848015, 0.1532440036535263, -0.023532642051577568, -0.08111856132745743, 0.0302495826035738, 0.05297834053635597, 0.006028690375387669, -0.1043023094534874, 0.022298719733953476, 0.09478934854269028, 0.13738593459129333, 0.06877288967370987, 0.00900634378194809, -0.04989810660481453, -0.17219549417495728, -0.04563666507601738, 0.02748991549015045, -0.02481001242995262, -0.06720853596925735, -0.004179082345217466, 0.052009500563144684, 0.041852883994579315, 0.11357486248016357, 0.0797118991613388, -0.02900680899620056, -0.05058590695261955, 0.045989904552698135, 0.012062477879226208, -0.05712106078863144, 0.010639123618602753, 0.06217060983181, 0.1368253529071808, -0.03355201333761215, -0.0022683748975396156, -0.002805523108690977, 0.0072475154884159565, -0.14517587423324585, -0.004318153951317072, -0.05735011026263237, 0.015243535861372948, 0.03870655223727226, -0.07398613542318344, 0.04889507591724396, 0.08109938353300095, 0.007830698974430561, 0.01794574409723282, -0.030442655086517334, 0.006563060451298952, -0.1395738124847412, -0.09414377063512802, 0.05289531126618385, 0.04419642686843872, -0.041053786873817444, 0.03510265424847603, -0.08619176596403122, -0.010880437679588795, 0.044233538210392, 0.1374281495809555, 0.016858359798789024, -0.1891009360551834, -0.09465625882148743, 0.0477360300719738], [0.02889425680041313, 0.11908314377069473, 0.03843021020293236, -0.07601503282785416, -0.034837666898965836, -0.12548476457595825, -0.09962781518697739, 0.016306661069393158, 0.03731590509414673, -0.044996537268161774, 0.0359063521027565, 0.02091880328953266, 0.023877453058958054, -0.0009364878060296178, -0.09507782757282257, -0.08261986076831818, -0.0023947693407535553, 0.02041194960474968, -0.00413975166156888, 0.08872570842504501, 0.03728094324469566, -0.1776723563671112, -0.009320944547653198, 0.010470039211213589, -0.040359873324632645, 0.06543628126382828, 0.16335377097129822, -0.031080810353159904, -0.06932779401540756, -0.1237185001373291, 0.04787100479006767, -0.06810106337070465, -0.05173901841044426, -0.10681086033582687, 0.00555282412096858, -0.1155441626906395, -0.03759948909282684, -0.06640175729990005, 0.054393474012613297, 0.0418890155851841, -0.037607744336128235, -0.08812025189399719, -0.043828293681144714, -0.06130550801753998, -0.08564190566539764, 0.07763110101222992, 0.004636742640286684, 0.07038714736700058, -0.08725898712873459, 0.08295389264822006, 0.020216692239046097, 0.044144146144390106, 0.023830875754356384, -0.016471607610583305, 0.04338756576180458, 0.00650985911488533, -0.0844111293554306, -0.13286201655864716, 0.010770807974040508, 0.004519068170338869, -0.015660321339964867, -0.06438591331243515, -0.09333626180887222, 0.06266198307275772], [0.04416963830590248, 0.010494319722056389, -0.046235039830207825, 0.17825227975845337, 0.09641500562429428, 0.06540670990943909, -0.0023206043988466263, -0.06554647535085678, 0.05578772723674774, 0.03474932909011841, 0.030263425782322884, -0.12745928764343262, -0.020461007952690125, 0.061924729496240616, 0.06186975911259651, -0.03348104655742645, -0.18554151058197021, 0.0753381997346878, 0.010567046701908112, 0.021850131452083588, -0.07236577570438385, -0.12598350644111633, 0.1337982565164566, 0.061386171728372574, 0.021119261160492897, 0.03643321618437767, 0.14296174049377441, 0.009850370697677135, -0.04920244589447975, 0.05479741469025612, -0.06592227518558502, -0.04579734802246094, 0.08696667850017548, 0.11151010543107986, 0.04009712487459183, -0.054983533918857574, -0.06808212399482727, 0.02692953310906887, -0.09505165368318558, 0.037112101912498474, -0.1369190514087677, 0.027623603120446205, 0.011846642941236496, -0.03808390721678734, -0.13081082701683044, 0.04788869619369507, 0.01212287973612547, -0.0506497360765934, -0.07396341115236282, -0.09453129023313522, 0.00917742121964693, 0.06771907955408096, -0.11509320139884949, -0.08975790441036224, 0.06787163764238358, -0.0843304768204689, -0.0020003197714686394, 0.013950206339359283, 0.00046078884042799473, -0.11829674988985062, -0.125930055975914, 0.0074299052357673645, 0.028784113004803658, 0.02940264157950878], [-0.11533274501562119, -0.07977294921875, 0.05318218842148781, 0.01326153427362442, 0.12615716457366943, 0.06543554365634918, 0.06417110562324524, -0.017938850447535515, 0.12827083468437195, -0.022849779576063156, -0.07007873058319092, 0.05541011318564415, -0.11088789999485016, -0.057740218937397, 0.1163114532828331, -0.036687083542346954, 0.057030584663152695, 0.10351518541574478, 0.07870899885892868, -0.06211799383163452, -0.048760414123535156, 0.01853989250957966, 0.018202755600214005, 0.11489696800708771, -0.07850877940654755, 0.045589886605739594, -0.06764359772205353, 0.04296009615063667, 0.08936633169651031, -0.14439965784549713, -0.023315126076340675, -0.04556046426296234, 0.11667157709598541, -0.0019771915394812822, 0.02427387423813343, 0.03291146084666252, 0.03856423497200012, 0.10108530521392822, 0.06463108211755753, -0.022437142208218575, 0.04693412780761719, 0.03177043795585632, -0.010074111633002758, 0.033192384988069534, -0.055298738181591034, -0.03666437417268753, 0.06258684396743774, -0.11672908812761307, 0.030529627576470375, 0.09146051108837128, -0.030682725831866264, -0.03174911439418793, 0.0409964881837368, 0.0462907999753952, -0.047609422355890274, 0.05910760164260864, -0.019003216177225113, -0.004406692460179329, 0.04432051256299019, -0.08331280201673508, 0.021253854036331177, -0.011135627515614033, 0.016627410426735878, -0.03148916736245155], [-0.08782059699296951, -0.0668911412358284, -0.1510683000087738, -0.14330355823040009, -0.054329242557287216, -0.08052761852741241, -0.11384247243404388, 0.00938047468662262, -0.0693943127989769, -0.0627954751253128, -0.0794152244925499, -0.04078537970781326, 0.0894143283367157, 0.06795152276754379, -0.007068013772368431, -0.14609400928020477, 0.11782624572515488, -0.0949491560459137, 0.02439732290804386, -0.052583497017621994, -0.060868892818689346, -0.1443990021944046, -0.012148438021540642, 0.0800541415810585, -0.047661151736974716, 0.10415133833885193, -0.26526105403900146, 0.09273242205381393, 0.10142409801483154, 0.07359886914491653, 0.06557649374008179, -0.12569330632686615, 0.05790708586573601, -0.013493462465703487, -0.04666203632950783, 0.04739318788051605, -0.1317639946937561, -0.022446509450674057, -0.06333008408546448, 0.024526989087462425, -0.061783481389284134, -0.049452733248472214, -0.04195801913738251, -0.05211960896849632, 0.1429334580898285, 0.050383441150188446, -0.0233860332518816, 0.021075431257486343, 0.018970511853694916, 0.07984616607427597, -0.06315062195062637, 0.08046354353427887, 0.1110135018825531, -0.06732971221208572, 0.0007849765825085342, 0.1842840164899826, -0.017664827406406403, -0.10444001108407974, -0.1434447318315506, -0.014390185475349426, 0.30459603667259216, -0.10010135173797607, 0.03817041963338852, 0.12620852887630463], [-0.02621464431285858, -0.019718719646334648, -0.10507496446371078, -0.11848469823598862, -0.05032086372375488, -0.10961451381444931, 0.073005810379982, -0.008677753619849682, -0.1079658791422844, 0.08874185383319855, 0.030196882784366608, -0.033477313816547394, 0.11822657287120819, -0.051353827118873596, -0.006009545177221298, -0.1340187042951584, -0.010616014711558819, -0.07198959589004517, 0.15027514100074768, 0.05205339938402176, -0.09652291238307953, -0.12431871891021729, 0.04605288431048393, 0.04860994592308998, -0.05066151171922684, 0.12325936555862427, -0.016515513882040977, 0.0036921314895153046, 0.09847845137119293, 0.021099835634231567, 0.02936706691980362, -0.008581960573792458, -0.06610532104969025, 0.05953972041606903, -0.006300522480159998, -0.010507873259484768, -0.05464116483926773, -0.01011830847710371, -0.03355422616004944, -0.002218978712335229, -0.036696262657642365, -0.06219102069735527, 0.025921279564499855, -0.1412876397371292, 0.06980253756046295, 0.011492511257529259, 0.11607542634010315, -0.05840523540973663, 0.23253606259822845, 0.057880986481904984, -0.08534760028123856, 0.062340691685676575, 0.11620714515447617, 0.08224528282880783, -0.1718887984752655, 0.19062873721122742, 0.08182921260595322, -0.002563435584306717, -0.11313990503549576, 0.06254435330629349, 0.10798106342554092, 0.014243824407458305, -0.11689607053995132, -0.04137181118130684], [0.08575297892093658, 0.13116244971752167, 0.1877780556678772, 0.06707573682069778, 0.07135926187038422, 0.04959356039762497, 0.03816934674978256, -0.028708597645163536, 0.1099557876586914, 0.1362602859735489, 0.09119929373264313, 0.06315707415342331, 0.06215422600507736, 0.09101667255163193, 0.0874217078089714, 0.06962011754512787, -0.0379735492169857, 0.049426402896642685, -0.16836179792881012, -0.00849071517586708, 0.059366945177316666, 0.057321444153785706, 0.16789905726909637, -0.02380467765033245, 0.09949333965778351, -0.0944184958934784, 0.004325100686401129, 0.1272277981042862, -0.07902099192142487, -0.02729787677526474, -0.051477350294589996, -0.0024604264181107283, -0.1853584200143814, 0.20518460869789124, -0.09602878987789154, -0.1664009988307953, 0.2643226981163025, -0.10625545680522919, -0.07819544523954391, 0.19941166043281555, 0.06874717026948929, 0.0611611045897007, -0.13173002004623413, 0.11345180124044418, 0.10114462673664093, -0.000650149246212095, 0.03019547648727894, 0.01059158518910408, 0.0430704690515995, 0.2060348093509674, 0.11454584449529648, -0.05579472705721855, 0.015679219737648964, -0.14651452004909515, 0.05605312064290047, -0.057619739323854446, 0.11391358077526093, -0.03534456714987755, 0.03430512174963951, 0.026358652859926224, -0.03463629633188248, 0.09011051058769226, -0.04336914047598839, -0.08354325592517853], [-0.02115931734442711, 0.1473982185125351, -0.20140625536441803, -0.014816873706877232, 0.15505070984363556, -0.1022091656923294, 0.0870056003332138, 0.08016667515039444, 0.06109711900353432, -0.08138643950223923, -0.08457367867231369, -0.09025299549102783, -0.08349531143903732, 0.11071505397558212, 0.05977826938033104, -0.07119400054216385, -0.051556430757045746, 0.2954251170158386, 0.06562119722366333, -0.07008343935012817, 0.24874497950077057, 0.22378133237361908, -0.0706087201833725, 0.08676167577505112, -0.018409734591841698, -0.05970986559987068, -0.09670756012201309, 0.12100078165531158, -0.01796896941959858, 0.04500964656472206, -0.15718859434127808, -0.056031130254268646, -0.17623849213123322, 0.04872213676571846, 0.0286568570882082, 0.05963176116347313, -0.10242048650979996, -0.04460829123854637, -0.02514001354575157, 0.07931525260210037, -0.09207843244075775, -0.17885006964206696, -0.002670618239790201, -0.0059709614142775536, 0.09434276074171066, 0.057610828429460526, -0.09253157675266266, -0.03347198665142059, 0.08974169939756393, 0.09592537581920624, 0.09405134618282318, 0.05439901351928711, 0.09056591987609863, 0.11568767577409744, -0.09866196662187576, -0.024920867756009102, -0.0839458778500557, -0.07577989995479584, -0.09252025187015533, 0.13161318004131317, -0.0961892232298851, -0.043824318796396255, 0.006973450072109699, -0.14512844383716583], [0.04772461950778961, -0.07748042047023773, -0.035319797694683075, 0.020429959520697594, 0.16923737525939941, 0.13654939830303192, -0.10583831369876862, 0.03220314159989357, -0.03238297626376152, 0.062498703598976135, 0.16200067102909088, 0.10613752156496048, 0.057436276227235794, -0.09271515160799026, 0.0035941668320447206, -0.11660616844892502, -0.00137620628811419, 0.04413508251309395, 0.21233367919921875, -0.10070016235113144, -0.1563800722360611, 0.0064240796491503716, 0.045906439423561096, 0.014940851368010044, -0.05067674070596695, 0.0009430183563381433, -0.14008907973766327, 0.08474048227071762, -0.03227999061346054, -0.058894526213407516, 0.08573610335588455, -0.06368223577737808, -0.054496195167303085, -0.07949168980121613, 0.2346952259540558, 0.1374596208333969, -0.01620601676404476, 0.09806408733129501, 0.11961858719587326, 0.17282681167125702, -0.085952989757061, 0.1400255262851715, 0.0789482370018959, -0.10286146402359009, -0.03730512410402298, -0.06920506805181503, -0.03131566196680069, 0.009838629513978958, 0.04466558247804642, 0.04539817199110985, 0.1002587080001831, -0.10104190558195114, -0.005861217156052589, 0.07094519585371017, 0.19155938923358917, 0.02019258216023445, -0.05505620688199997, -0.18735843896865845, 0.17456917464733124, 0.008299770765006542, -0.06698964536190033, -0.061342231929302216, -0.013077748008072376, 0.13058121502399445], [-0.0506497286260128, -0.19583195447921753, 0.18897658586502075, 0.03650911897420883, -0.1541682630777359, -0.09640256315469742, -0.0821976363658905, 0.05854056775569916, 0.059490907937288284, 0.19286751747131348, -0.06133878976106644, 0.15265516936779022, 0.05920042470097542, 0.0281072985380888, -0.035203129053115845, 0.03530509024858475, -0.08335776627063751, 0.0016394671984016895, 0.1001761183142662, 0.11579456925392151, 0.03506005182862282, -0.05116137117147446, -0.13817057013511658, 0.019093336537480354, -0.038074325770139694, 0.052608147263526917, 0.08627980947494507, -0.015962913632392883, 0.0808367133140564, 0.034952376037836075, -0.034550830721855164, 0.023476850241422653, 0.07793164998292923, 0.009323108941316605, -0.18808171153068542, -0.21432964503765106, 0.0442599393427372, -0.10465576499700546, -0.046126022934913635, -0.09331200271844864, 0.10379515588283539, 0.1375380903482437, -0.17281706631183624, -0.22749702632427216, 0.07570875436067581, -0.14742691814899445, 0.09386489540338516, 0.10459618270397186, 0.06940946727991104, 0.043062739074230194, -0.024692518636584282, -0.012379289604723454, 0.0369117371737957, 0.030723845586180687, -0.0827777162194252, -0.007838717661798, -0.055391792207956314, -0.10937879234552383, -0.03506280109286308, -0.04581189900636673, -0.03232581913471222, 0.16221074759960175, -0.17268460988998413, -0.10215404629707336], [-0.16507817804813385, 0.048650309443473816, -0.1468033343553543, 0.04470326378941536, 0.04232272505760193, -0.1087859645485878, 0.06887149810791016, 0.10134956240653992, 0.02779151126742363, 0.09030932188034058, 0.12813416123390198, -0.1538253277540207, -0.01487267017364502, 0.07694635540246964, -0.016116175800561905, -0.17415893077850342, -0.019198542460799217, 0.058304619044065475, -0.06609050184488297, -0.16307160258293152, 0.06261138617992401, 0.058110419660806656, -0.02695336379110813, 0.038343265652656555, 0.07285282015800476, -0.06668022274971008, 0.022191492840647697, -0.11642128229141235, 0.11704879254102707, 0.07885472476482391, -0.07068680971860886, 0.007188165560364723, 0.018426746129989624, 0.1421671360731125, -0.052690815180540085, -0.15072141587734222, 0.01357494667172432, -0.018736399710178375, -0.06153480336070061, 0.14804908633232117, 0.0698290467262268, -0.20139601826667786, 0.005980689078569412, -0.045465558767318726, -0.03268764913082123, 0.06909437477588654, 0.10541890561580658, -0.01451359037309885, 0.12267997115850449, -0.051382824778556824, -0.0651385635137558, -0.02442692406475544, 0.07877090573310852, -0.07208202034235, -0.19984391331672668, 0.05208990350365639, 0.0476343110203743, 0.07008268684148788, -0.09179665893316269, 0.10969598591327667, 0.04333654046058655, 0.05698798969388008, -0.04969439655542374, -0.04573284089565277], [-0.003142334520816803, 0.23355570435523987, -0.2492135614156723, -0.015557692386209965, -0.07661587744951248, 0.09524939209222794, -0.02003234252333641, 0.0019081922946497798, -0.07684285938739777, 0.0640336126089096, -0.0184295866638422, -0.04041637107729912, -0.10480903089046478, 0.08631394058465958, -0.0025856979191303253, -0.039196256548166275, 0.04566856473684311, -0.03368823975324631, 0.06345537304878235, -0.11390560120344162, 0.03572707995772362, 0.0458352155983448, -0.07834167778491974, -0.2729456424713135, 0.15028022229671478, 0.11298626661300659, 0.042755939066410065, 0.04995996877551079, 0.0031015153508633375, -0.018145188689231873, 0.041652124375104904, -0.1427329182624817, 0.00440505426377058, -0.04875485599040985, 0.232072114944458, -0.08581997454166412, 0.04954058304429054, 0.07589813321828842, 0.11875758320093155, -0.008464386686682701, -0.015304937027394772, -0.06196344271302223, 0.2840832769870758, 0.05509354546666145, -0.06533952802419662, 0.11627130955457687, -0.10500769317150116, -0.08677342534065247, 0.052172042429447174, 0.04914544150233269, -0.021187499165534973, -0.06209665164351463, 0.07912146300077438, 0.04003022983670235, 0.020540419965982437, 0.09547460824251175, 0.13829405605793, -0.08448542654514313, 0.09221521019935608, 0.06730295717716217, 0.04243149608373642, 0.08985438942909241, -0.06442531943321228, 0.042905375361442566], [-0.053314246237277985, -0.12233734875917435, -0.044549982994794846, -0.014248309656977654, -0.0851997658610344, -0.18986549973487854, -0.17845705151557922, -0.17638014256954193, -0.04659213498234749, -0.034564558416604996, -0.14541617035865784, -0.07489509135484695, 0.08521609008312225, -0.09813560545444489, -0.0008342651417478919, -0.09184309840202332, 0.08332078903913498, -0.11401064693927765, 0.062225937843322754, 0.12127359956502914, -0.02055303007364273, 0.03202933818101883, 0.006503092125058174, 0.0317777618765831, -0.10700991749763489, 0.10898630321025848, -0.08341464400291443, -0.06953230500221252, 0.1359390914440155, -0.006254896521568298, 0.17188341915607452, -0.05503837391734123, -0.002577907871454954, -0.12784698605537415, -0.014742917381227016, -0.05121456831693649, -0.1265368014574051, 0.06570170819759369, -0.06467083096504211, -0.05996420979499817, -0.13676100969314575, -0.008359630592167377, -0.04511271417140961, 0.07054373621940613, -0.06812246888875961, -0.10090198367834091, 0.05555957555770874, -0.13508102297782898, -0.010843007825314999, -0.09413488209247589, 0.02719111181795597, 0.09734135866165161, 0.04191714897751808, 0.15925222635269165, -0.02943849377334118, 0.03777414560317993, 0.09501976519823074, -0.07416517287492752, -0.076255202293396, -0.06051148474216461, 0.16031497716903687, -0.17195488512516022, 0.027759484946727753, 0.10204775631427765], [0.07011058926582336, 0.0020531693007797003, -0.13701611757278442, -0.1140102967619896, 0.12601852416992188, -0.08177360892295837, 0.05496307462453842, 0.022725583985447884, -0.013369838707149029, 0.027639955282211304, -0.024172194302082062, 0.09117142856121063, 0.09352922439575195, -0.023121580481529236, 0.0115818465128541, 0.048144806176424026, -0.03920330852270126, 0.00822928361594677, -0.07128950208425522, 0.10127849876880646, -0.01767067238688469, 0.02850244753062725, -0.1194237545132637, -0.041171908378601074, 0.006376554723829031, -0.08414070308208466, 0.0023796968162059784, 0.07994770258665085, -0.02223438024520874, 0.011428255587816238, -0.0640854462981224, 0.057385846972465515, 0.02860463783144951, -0.02215251326560974, 0.15314708650112152, 0.09249424189329147, -0.03092913329601288, 0.09037812054157257, -0.1515788584947586, -0.051446568220853806, 0.12018793076276779, -0.006509902887046337, -0.0944320484995842, -0.038052916526794434, -0.006471243686974049, 0.08388914912939072, 0.0563075914978981, 0.008163253776729107, 0.026301901787519455, -0.24553218483924866, 0.11680631339550018, -0.03938768059015274, 0.12909163534641266, 0.024305276572704315, -0.08382055908441544, 0.1299010068178177, 0.13485302031040192, -0.05905117094516754, 0.03309860825538635, -0.003273200709372759, -0.028599543496966362, -0.04263465106487274, -0.10249870270490646, 0.01242279913276434], [0.02584056369960308, 0.23059596121311188, -0.13900026679039001, -0.021009931340813637, -0.15607920289039612, -0.13875919580459595, -0.011238433420658112, 0.006327257491648197, -0.030613336712121964, 0.09522721916437149, 0.014726835303008556, -0.12231249362230301, -0.0259762704372406, -0.19549767673015594, 0.036280833184719086, -0.05892769247293472, -0.01754266954958439, -0.14132535457611084, 0.02241118997335434, -0.10586629807949066, 0.06524451076984406, 0.06130746006965637, 0.0887734666466713, 0.08590841293334961, 0.004409222863614559, 0.07532349973917007, -0.1171531081199646, -0.016218336299061775, 0.018059108406305313, -0.14765655994415283, 0.2030598223209381, -0.18572358787059784, 0.16001474857330322, 0.18980154395103455, -0.08129830658435822, 0.041833292692899704, 0.02645169384777546, 0.22710570693016052, 0.05245815962553024, -0.04636598005890846, 0.12196776270866394, 0.11728257685899734, 0.22821542620658875, -0.1733471155166626, -0.024626627564430237, -0.19530683755874634, 0.09065453708171844, 0.06242043152451515, -0.024478556588292122, 0.08395089954137802, -0.013474681414663792, -0.05358829349279404, 0.11189398914575577, 0.1075981929898262, -0.08907556533813477, 0.005917659029364586, 0.12403946369886398, -0.04784109443426132, -0.0657227411866188, -0.03755738213658333, -0.06463389098644257, 0.04434802383184433, -0.006523532792925835, -0.056254882365465164], [-0.004512754734605551, 0.11560318619012833, -0.05065019428730011, 0.1589634120464325, -0.11428947001695633, 0.02962386980652809, 0.03934049233794212, 0.07913435250520706, -0.019093621522188187, 0.008789952844381332, -0.1067693680524826, -0.1615123748779297, -0.02041039988398552, 0.007869529537856579, -0.050444748252630234, -0.06655474752187729, 0.013182043097913265, -0.1926969736814499, 0.11930515617132187, -0.030072525143623352, 0.121179960668087, 0.007162708789110184, -0.1352296769618988, 0.0008059988613240421, -0.031467683613300323, -0.02354387938976288, -0.15664225816726685, 0.003424466121941805, -0.08242778480052948, -0.10770604759454727, 0.04341568052768707, 0.018707411363720894, 0.07549477368593216, 0.10994471609592438, -0.10980568081140518, 0.024768183007836342, -0.016666941344738007, 0.06105281785130501, 0.005113791208714247, 0.0927216038107872, 0.00866745226085186, -0.016136474907398224, 0.16060416400432587, 0.022241709753870964, -0.0023193019442260265, 0.013929495587944984, 0.033667873591184616, 0.04966789856553078, -0.01917204074561596, 0.16103996336460114, 0.027068093419075012, 0.05029749870300293, -0.026786362752318382, -0.14802546799182892, -0.21629121899604797, 0.053749024868011475, 0.02378474920988083, 0.051115989685058594, -0.2347242534160614, -0.05106449872255325, -0.09974994510412216, 0.0466182604432106, -0.02882513962686062, 0.08603200316429138], [-0.05947120487689972, -0.16717195510864258, -0.14790673553943634, -0.11117300391197205, -0.03243256360292435, 0.012168320827186108, -0.016986535862088203, 0.02413208782672882, -0.021508097648620605, 0.10697248578071594, 0.02078704535961151, 0.009191512130200863, 0.044346243143081665, 0.09593629837036133, -0.0173433106392622, 0.18521322309970856, -0.08211889117956161, 0.00521266320720315, 0.11339957267045975, -0.019831998273730278, -0.13689552247524261, 0.06901343911886215, 0.05050884559750557, -0.00015243375673890114, -0.0675336942076683, -0.07999134063720703, -0.01846049539744854, 0.08150658756494522, 0.07558795809745789, 0.034564822912216187, -0.3238987326622009, 0.007992178201675415, -0.1318758875131607, -0.0374436154961586, 0.04455762356519699, 0.09169263392686844, 0.12571072578430176, -0.06476110219955444, 0.07382332533597946, -0.1337689906358719, -0.1909092515707016, -0.093150794506073, -0.014113232493400574, -0.1938169300556183, 0.062130749225616455, -0.034566301852464676, -0.13003873825073242, 0.08731710910797119, -0.15214145183563232, -0.016318177804350853, -0.22112557291984558, -0.04864999279379845, 0.0005213383701629937, -0.06347236037254333, 0.026466673240065575, -0.052378326654434204, 0.03396207466721535, -0.06712915003299713, 0.10700644552707672, -0.01803427003324032, -0.04152616858482361, -0.07401853799819946, -0.024488992989063263, -0.04243515431880951], [0.0782962515950203, -0.008152270689606667, 0.1330949366092682, 0.09751635789871216, 0.022729363292455673, 0.09355241805315018, -0.02947770245373249, 0.1338866800069809, 0.14350324869155884, 0.13000082969665527, -0.3616028428077698, -0.020299145951867104, 0.1112755760550499, 0.015546723268926144, -0.1582421511411667, -0.21824823319911957, -0.07061780244112015, 0.06733278185129166, 0.04638650268316269, -0.07871761173009872, 0.05480731278657913, -0.08429771661758423, 0.17532946169376373, 0.08000167459249496, 0.11740411072969437, 0.049037300050258636, 0.08092106133699417, 0.01785004884004593, 0.06744687259197235, 0.10178643465042114, -0.04333443194627762, 0.11291492730379105, -0.01626339927315712, 0.007483392488211393, -0.18127590417861938, 0.02586551196873188, 0.08757426589727402, -0.004555436782538891, 0.3108677566051483, -0.019113626331090927, 0.12266775220632553, -0.019591163843870163, 0.05356808751821518, 0.17919951677322388, 0.3153057098388672, 0.06191734969615936, -0.24865157902240753, -0.07023663073778152, -0.04935365170240402, 4.691560388891958e-05, -0.17394264042377472, 0.16913655400276184, -0.08365113288164139, -0.09989319741725922, -0.30278629064559937, -0.033348023891448975, 0.11059751361608505, -0.10487028956413269, -0.01809646002948284, 0.018926670774817467, -0.07439706474542618, -0.06742410361766815, -0.17389260232448578, -0.07372891902923584], [0.017827562987804413, -0.12116138637065887, -0.01940513588488102, -0.07821356505155563, -0.07855341583490372, 0.15591320395469666, -0.10566802322864532, -0.040520038455724716, 0.035933732986450195, -0.1371377557516098, 0.07197605073451996, 0.19857370853424072, 0.05663213133811951, -0.019872194156050682, 0.1945105493068695, -0.011143206618726254, 0.023512905463576317, 0.08546924591064453, 0.05012555792927742, 9.269052679883316e-05, 0.06730097532272339, 0.1260988563299179, 0.12619586288928986, -0.07112838327884674, 0.07664637267589569, -0.1111564114689827, -0.07053865492343903, -0.1701011061668396, -0.12832646071910858, -0.10443207621574402, 0.04321436211466789, -0.17794330418109894, 0.013899034820497036, -0.18224777281284332, 0.13540446758270264, -0.22460401058197021, 0.06603285670280457, 0.10068263858556747, 0.015244456939399242, -0.057485781610012054, 0.0229754988104105, 0.06712061166763306, 0.07935582846403122, 0.08063755184412003, 0.10722296684980392, 0.006306308321654797, -0.016843074932694435, -0.0221328753978014, -0.18029488623142242, -0.013411291874945164, 0.020788876339793205, -0.12759456038475037, -0.0922468826174736, -0.05188325047492981, 0.09673549979925156, -0.018799643963575363, 0.021728338673710823, 0.12002875655889511, 0.1218966618180275, -0.06389903277158737, 0.05349430441856384, 0.21513386070728302, 0.1521771401166916, -0.057692136615514755], [0.05152826011180878, -0.08378438651561737, -0.06091650575399399, 0.14334045350551605, -0.06497522443532944, 0.02517879195511341, -0.046412158757448196, 0.1506916880607605, -0.1513541042804718, -0.05581185966730118, -0.04326951503753662, -0.030517976731061935, -0.06858867406845093, -0.019002119079232216, 0.08027759939432144, 0.009414149448275566, -0.036278098821640015, 0.047243766486644745, -0.10884134471416473, -0.012769652530550957, -0.014750263653695583, -0.27712634205818176, 0.0807659775018692, 0.0464816577732563, 0.19757431745529175, 0.1616138517856598, 0.124732606112957, -0.10065464675426483, 0.08130937814712524, -0.021265344694256783, 0.07194960117340088, 0.15804067254066467, -0.057391729205846786, -0.1008702963590622, -0.1197023019194603, 0.058090709149837494, 0.1324864774942398, 0.11813726276159286, -0.1513487547636032, 0.04242415353655815, -0.07459378987550735, -0.14430460333824158, -0.14737403392791748, 0.027014171704649925, 0.08621282875537872, -0.07276669144630432, -0.21770977973937988, -0.09364330023527145, -0.12355388700962067, 0.0433245524764061, -0.030824163928627968, 0.19411392509937286, -0.05295006185770035, -0.049907948821783066, 0.02802077867090702, -0.05034258961677551, 0.0668807253241539, 0.0054220641031861305, 0.02789362706243992, 0.15018469095230103, -0.10173451155424118, 0.007057898212224245, -0.05423000454902649, 0.17234010994434357], [-0.13047482073307037, 0.01739923469722271, 0.01031839195638895, 0.08083812892436981, 0.14069616794586182, -0.016171297058463097, 0.1385306864976883, 0.06617553532123566, -0.09234987944364548, 0.01646721549332142, 0.01568843424320221, -0.21797175705432892, -0.14944963157176971, 0.006399825215339661, -0.024823112413287163, 0.010267382487654686, 0.04672884941101074, -0.06344504654407501, -0.04142056405544281, 0.08439721167087555, -0.017032157629728317, -0.16226035356521606, -0.21861933171749115, -0.056579265743494034, -0.060708824545145035, 0.029728341847658157, -0.15135692059993744, 0.19046609103679657, 0.20352613925933838, -0.0663876160979271, -0.10916603356599808, 0.12637938559055328, 0.06451254338026047, -0.029938748106360435, -0.13176167011260986, 0.011225772090256214, 0.003492500400170684, 0.12271515280008316, -0.016707589849829674, 0.05857624113559723, -0.0764319971203804, -0.10087534785270691, -0.08808605372905731, -0.16869334876537323, -0.045624058693647385, -0.08100125193595886, -0.14921492338180542, -0.18478219211101532, 0.08855409175157547, 0.0182128194719553, -0.019480498507618904, 0.06920287013053894, -0.05526793748140335, 0.03355947509407997, -0.13851714134216309, 0.10351366549730301, 0.17378564178943634, -0.1549755185842514, 0.06079619750380516, -0.04140062257647514, 0.07643816620111465, -0.09280970692634583, 0.0492575541138649, -0.055095840245485306], [-0.0820104330778122, 0.12327294796705246, 0.04057890176773071, -0.0017935509094968438, 0.09589551389217377, 0.04466814175248146, 0.035439055413007736, -0.2905159294605255, 