{"dense_1_kernel": [[0.5642015337944031, 0.16015413403511047, 0.02713082730770111, 0.08159735053777695, -0.39127546548843384, 0.11300915479660034, 0.27882668375968933, -0.010097556747496128, -0.041019339114427567, -0.3320823907852173, -0.1603458970785141, 0.4970895051956177, 0.18996307253837585, -0.29787740111351013, 0.4269854426383972, -0.4235222339630127, -0.017523154616355896, -0.317270964384079, -0.2770971655845642, -0.055266328155994415, -0.012469626031816006, 0.3239181935787201, -0.30781155824661255, 0.45428645610809326, -0.12909401953220367, 0.22025568783283234, -0.0008192465757019818, 0.014520764350891113, -0.21141190826892853, -0.23025912046432495, 0.10544610768556595, -0.011028468608856201, 0.4476315677165985, 0.32797151803970337, 0.06537214666604996, -0.4801208972930908, -0.454296737909317, -0.15298959612846375, 0.020489700138568878, 0.0008304446819238365, 0.23977595567703247, 0.2565383315086365, 0.018607422709465027, -0.21123595535755157, 0.2552396357059479, -0.03913256153464317, 0.06529945880174637, 0.019601624459028244, 0.09985427558422089, 0.05537820979952812, -0.009487463161349297, -0.01889820396900177, 0.10729708522558212, -0.38386157155036926, 0.18761581182479858, -0.21890415251255035, -0.20451900362968445, -0.07436846196651459, 0.3566585183143616, -0.033363375812768936, 0.12223245948553085, 0.0025550564751029015, 0.1905234456062317, 0.380677729845047], [0.06553823500871658, -0.028915327042341232, -0.09965872764587402, 0.09407375752925873, 0.04457326605916023, -0.07005339860916138, 0.19415569305419922, 0.10988091677427292, -0.1362789273262024, -0.04004136100411415, 0.08583170175552368, -0.0954006090760231, 0.07056361436843872, -0.13521689176559448, -0.02096233330667019, 0.0597648099064827, 0.0023478136863559484, 0.05945795774459839, -0.049173034727573395, 0.1182548925280571, 0.15421724319458008, 0.21848824620246887, -0.03905037045478821, 0.20298750698566437, -0.06119884178042412, 0.07057218998670578, -0.03714512288570404, -0.024632984772324562, -0.06479097902774811, -0.07721288502216339, -0.0029337278101593256, -0.027773244306445122, 0.12485580891370773, 0.022818369790911674, 0.09908653795719147, 0.0808369517326355, 0.012394783087074757, 0.006380037870258093, 0.11962617188692093, 0.07386539876461029, 0.12882347404956818, -0.0034858868457376957, -0.02988458052277565, 0.0196165032684803, -0.07102611660957336, -0.11368720978498459, -0.028142262250185013, 0.18173848092556, -0.004046508111059666, -0.04668022319674492, -0.08701871335506439, 0.0542193166911602, -0.10658220201730728, -0.010857374407351017, 0.07269959151744843, -0.09509687125682831, 0.03822145611047745, 0.05547121912240982, 0.0016486349049955606, 0.0911494717001915, 0.15140068531036377, -0.08894713968038559, -0.02547292225062847, -0.12024134397506714], [0.07186233252286911, -0.11305446922779083, -0.03231397643685341, -0.1372653841972351, -0.07995305210351944, 0.004637543577700853, 0.049905192106962204, 0.10836898535490036, -0.044421687722206116, -0.07604049146175385, -0.048384204506874084, 0.009938586503267288, -0.07001572102308273, -0.011815082281827927, 0.08789312094449997, 0.07817179709672928, -0.08802814036607742, 0.03660690784454346, -0.08733227103948593, 0.10599961131811142, -0.05688518285751343, 0.05925486236810684, -0.04631873220205307, 0.035829875618219376, -0.17643395066261292, 0.1872423142194748, 0.029088063165545464, -0.10228358954191208, 0.024210860952734947, -0.05131889507174492, 0.0074674347415566444, -0.04922044649720192, -0.09314761310815811, 0.07539738714694977, -0.04310736432671547, 0.08119896054267883, -0.04254657402634621, 0.05538569763302803, 0.0472983717918396, 0.007440274115651846, -0.02933642826974392, -0.07471998780965805, 0.1251171976327896, 0.01860363595187664, -0.0256276186555624, 0.05116519331932068, 0.02992982231080532, -0.0770832821726799, -0.05464647337794304, 0.13733185827732086, -0.04743088781833649, -0.0426224060356617, 0.038127295672893524, -0.08320934325456619, -0.03565327823162079, -0.046004388481378555, 0.12455198168754578, 0.08545175194740295, 0.08413279801607132, -0.08722979575395584, -0.14568139612674713, 0.020639101043343544, -0.06836030632257462, 0.06561876088380814], [0.003918312024325132, 0.02471204474568367, 0.13910619914531708, 0.09754006564617157, -0.04294320568442345, -0.11379405111074448, -0.08810871839523315, 0.002262488007545471, -0.08098047226667404, -0.014127887785434723, -0.021879080682992935, -0.01080107968300581, -0.10997670143842697, 0.011961333453655243, -0.0029948786832392216, -0.036779485642910004, 0.04910515621304512, -0.031549789011478424, -0.10595979541540146, 0.005755470134317875, 0.0006432431982830167, 0.14836643636226654, 0.005652320105582476, 0.020342927426099777, -0.02111401967704296, -0.08726909756660461, -0.20927421748638153, 0.006101122125983238, 0.0032299556769430637, -0.030110353603959084, -0.14610648155212402, -0.08221183717250824, -0.04161706566810608, -0.05043400451540947, 0.005218515172600746, 0.0896371379494667, 0.1292031705379486, -0.024578934535384178, 0.05655686557292938, 0.10166569799184799, 0.03384409472346306, -0.10824038833379745, 0.09931972622871399, -0.12131300568580627, 0.0659300684928894, 0.08498735725879669, -0.15730483829975128, -0.08456970006227493, 0.020911220461130142, -0.021799806505441666, -0.12270836532115936, 0.0032834724988788366, -0.032927196472883224, -0.02304133214056492, -0.007387240417301655, -0.017415322363376617, -0.026479089632630348, -0.05220598354935646, 0.0049531119875609875, -0.0354442335665226, 0.020568199455738068, -0.0462460033595562, -0.13243670761585236, -0.060045789927244186], [-0.029135631397366524, 0.16480401158332825, 0.05133332684636116, -0.15052185952663422, -0.11681312322616577, -0.04923960939049721, -0.062073927372694016, -0.1725955754518509, -0.13083745539188385, -0.05725691467523575, 0.036686189472675323, -0.1348772794008255, -0.04434690997004509, -0.06875612586736679, 0.06655971705913544, 0.003969291225075722, 0.01619642600417137, -0.04783080145716667, 0.008096432313323021, 0.058756936341524124, 0.23674604296684265, 0.08058474957942963, -0.00028681193361990154, 0.13393312692642212, -0.1446535438299179, 0.08159159868955612, 0.031576696783304214, -0.05643351376056671, -0.11071928590536118, 0.16491323709487915, 0.08196630328893661, -0.0009815888479351997, -0.02511734887957573, 0.06422919780015945, 0.09071949869394302, -0.11484551429748535, -0.04790153726935387, -0.11903411895036697, 0.18992260098457336, -0.00021450358326546848, 0.0850663110613823, -0.146455317735672, 0.11999184638261795, -0.17950715124607086, 0.015912408009171486, 0.03067046031355858, 0.26836851239204407, -0.14985862374305725, -0.06982322782278061, 0.024650266394019127, -0.046806659549474716, -0.06954042613506317, 0.024083144962787628, -0.03510136529803276, -0.0635264441370964, -0.042895760387182236, 0.1707795411348343, 0.07812700420618057, -0.05233614519238472, -0.18339431285858154, 0.10647482424974442, 0.06026552990078926, -0.0054955435916781425, -0.019442500546574593], [0.02942953258752823, -0.0069147925823926926, 0.07853259891271591, 0.014174477197229862, -0.12545275688171387, -0.17496773600578308, 0.017525428906083107, -0.029954446479678154, 0.05815071612596512, 0.012485884130001068, -0.011982781812548637, -0.023827621713280678, 0.036438651382923126, 0.006045039743185043, -0.06884368509054184, 0.13012757897377014, 0.078470878303051, 0.03224952518939972, -0.010280870832502842, 0.20012523233890533, -0.044270679354667664, -0.039880599826574326, 0.0911966860294342, 0.016989627853035927, 0.13565711677074432, 0.10377846658229828, -0.04483865574002266, -0.08576542139053345, -0.08318549394607544, -0.07488631457090378, 0.0767572894692421, 0.1832214593887329, -0.038872234523296356, 0.03287620097398758, 0.09709399938583374, 0.016060177236795425, -0.00019630519091151655, 0.08289584517478943, 0.13329815864562988, 0.14207804203033447, -0.14278540015220642, -0.17914162576198578, -0.032454002648591995, -0.12715768814086914, -0.12921807169914246, 0.026735814288258553, -0.019736770540475845, -0.05978360399603844, -0.11875509470701218, 0.00770200602710247, -0.037345342338085175, 0.03722832724452019, -0.0744824931025505, -0.06011741980910301, 0.13956891000270844, -0.09346307814121246, 0.10079722851514816, 0.06514187157154083, -0.04109577089548111, -0.1812487244606018, -0.021172475069761276, -0.06616796553134918, -0.05608215928077698, -0.09695686399936676], [0.13128569722175598, -0.07244916260242462, -0.10455289483070374, -0.02508794702589512, -0.005101573653519154, 0.04938026890158653, 0.07485774904489517, -0.04776817187666893, 0.11617176234722137, -0.046765729784965515, 0.050389472395181656, -0.10711286962032318, 0.16028721630573273, 0.06981877982616425, 0.039546191692352295, -0.11069600284099579, -0.06620968133211136, 0.020299814641475677, 0.1059042289853096, 0.05290066823363304, -0.0699913427233696, -0.02783951163291931, 0.021144457161426544, 0.055994197726249695, -0.020303022116422653, -0.009517136961221695, -0.029074661433696747, 0.07096921652555466, -0.09339098632335663, 0.08034121245145798, -0.10724552720785141, 0.13109548389911652, 0.025862744078040123, -0.0013852758565917611, -0.07885770499706268, 0.025330055505037308, 0.06313250958919525, 0.05413123220205307, -0.017422374337911606, 0.028173934668302536, 0.050579946488142014, 0.0874127745628357, -0.13124768435955048, 0.11869308352470398, 0.03604502975940704, 0.04437931254506111, -0.027256768196821213, 0.09732165187597275, -0.003942431416362524, -0.01026674173772335, 0.09381519258022308, 0.025746753439307213, -0.02093832567334175, -0.0896855890750885, 0.007938282564282417, 0.08909028768539429, -0.0029464501421898603, -0.1686648726463318, -0.04541831463575363, 0.08996659517288208, 0.009353036992251873, 0.07634396106004715, -0.023237716406583786, 0.11163470894098282], [0.01256621815264225, -0.12136361002922058, 0.008170641027390957, 0.017416609451174736, -0.09785836935043335, 0.09016961604356766, -0.095438651740551, -0.08820080757141113, 0.13953109085559845, 0.025903919711709023, 0.0268222838640213, 0.008174898102879524, 0.25462406873703003, 0.04305006563663483, -0.056334495544433594, 0.05300610512495041, 0.00700500188395381, 0.0033758743666112423, -0.15673235058784485, -0.0006228376878425479, -0.09096579253673553, 0.08707873523235321, -0.13872069120407104, -0.07340987026691437, -0.02623159810900688, 0.0998588353395462, -0.09998366981744766, 0.12161519378423691, -0.10508757829666138, 0.11651179939508438, 0.01371774636209011, -0.05461180955171585, 0.019856395199894905, 0.0029888362623751163, 0.11134747415781021, -0.03204686939716339, 0.02450539916753769, 0.03459712117910385, 0.029051603749394417, 0.0487859733402729, 0.06278005242347717, -0.0671750009059906, 0.02994111180305481, -0.09314678609371185, 0.11874938756227493, 0.04482823610305786, 0.09346563369035721, -0.12436290830373764, -0.13302819430828094, 0.08318600058555603, -0.15252023935317993, -0.02582521177828312, -0.008805489167571068, 0.004368769936263561, 0.11079806089401245, -0.038867417722940445, 0.08518701791763306, -0.09599190950393677, 0.053772807121276855, 0.05493853986263275, -0.08296769112348557, 0.005749842617660761, 0.04198937863111496, 0.024176722392439842], [0.03848964720964432, -0.09352918714284897, 0.05132216215133667, 0.0119165675714612, 0.0667031928896904, -0.11252720654010773, 0.060113128274679184, 0.05104159936308861, -0.03637227416038513, 0.07040489464998245, 0.11689122766256332, -0.04111338406801224, 0.006321973167359829, 0.02269066870212555, 0.04563034698367119, 0.022779429331421852, 0.03495388105511665, 0.09214147180318832, -0.04649198055267334, -0.0099655045196414, -0.008745508268475533, -0.059856344014406204, -0.10247746109962463, 0.017309198155999184, 0.05159272626042366, 0.009303656406700611, 0.019469410181045532, -0.06980759650468826, 0.014405163936316967, -0.09085779637098312, 0.04632941633462906, 0.1322713941335678, -0.002827078104019165, -0.06383668631315231, 0.026422888040542603, 0.0155787393450737, 0.02136637084186077, 0.05706232413649559, 0.15673863887786865, 0.019710009917616844, -0.06349967420101166, 0.017049768939614296, 0.1018734872341156, -0.005345030687749386, 0.010099726729094982, 0.004820611793547869, 0.07631400227546692, -0.04070020094513893, -0.0738581120967865, 0.04812315106391907, 0.03703314810991287, 0.012485372833907604, 0.06330248713493347, 0.09972686320543289, 0.0829891562461853, -0.027383984997868538, -0.03405556082725525, -0.10728953033685684, -0.04373306781053543, 0.00010552436287980527, -0.12159990519285202, -0.015939995646476746, 0.04506229609251022, 0.02891799435019493], [0.043255988508462906, -0.021298695355653763, 0.028006521984934807, -0.14129267632961273, -0.2062225639820099, -0.0696108341217041, 0.034040287137031555, 0.15543797612190247, -0.04293766990303993, -0.09516388177871704, -0.10697227716445923, -0.12318570911884308, 0.05060940608382225, -0.001838686061091721, 0.018448002636432648, -0.08779486268758774, -0.08203013986349106, 0.0902029424905777, -0.05387505888938904, 0.18387247622013092, 0.07024011015892029, 0.15377219021320343, 0.06733421236276627, 0.006975135765969753, 0.053607065230607986, 0.019925910979509354, 0.10396301746368408, -0.15565669536590576, -0.05697660520672798, -0.040642619132995605, 0.09722976386547089, 0.216147318482399, 0.051970042288303375, -0.1831488013267517, 0.07485558092594147, 0.060095347464084625, -0.07949742674827576, 0.06522559374570847, -0.011315330862998962, 0.041596345603466034, 0.13157999515533447, -0.03712817281484604, 0.030371852219104767, -0.35168617963790894, -0.03155939653515816, 0.04077775031328201, 0.05647048354148865, -0.016564900055527687, -0.0014354124432429671, 0.18591266870498657, -0.03467220067977905, 0.18346846103668213, 0.07679370790719986, -0.03131754696369171, 0.035880450159311295, 0.08260773122310638, 0.19065915048122406, -0.02797180786728859, -0.026754649356007576, 0.04851236194372177, -0.09471308439970016, -0.01496109925210476, 0.06688328832387924, -0.0644434317946434], [-0.009015891700983047, 0.02548161894083023, 0.02317872643470764, -0.06599527597427368, -0.007463144604116678, -0.047953493893146515, -0.008531737141311169, -0.06846299767494202, 0.10812181979417801, -0.022618761286139488, -0.05583517998456955, -0.19893471896648407, 0.07156997174024582, -0.014393922872841358, -0.09757032245397568, 0.011418504640460014, -0.07947996258735657, 0.011436950415372849, 0.012064578011631966, 0.08726292848587036, -0.035559240728616714, 0.0457066148519516, 0.06589946150779724, -0.047735545784235, -0.15607383847236633, -0.16992831230163574, 0.07694218307733536, 0.2147754281759262, -0.08794775605201721, 0.08167287707328796, 0.016660941764712334, 0.09368222951889038, -0.10438808798789978, 0.054663900285959244, 0.051804494112730026, 0.03304317593574524, 0.0029544024728238583, -0.03633143752813339, 0.07428152859210968, 0.01980696991086006, 0.0508616603910923, -0.09315480291843414, -0.02039407193660736, 0.01745762676000595, -0.011583799496293068, 0.10551415383815765, 0.11816661059856415, -0.04836278036236763, 0.03317011892795563, -0.08582846075296402, -0.03413891792297363, -0.19210311770439148, 0.026360036805272102, 0.030014943331480026, -0.06676329672336578, 0.05432499200105667, -0.13485628366470337, 0.19203923642635345, -0.03310944885015488, 0.1574670374393463, 0.0046542552299797535, -0.11861374974250793, -0.10109507292509079, -0.16389498114585876], [0.09976368397474289, -0.030924422666430473, 0.08169586956501007, -0.16947491466999054, -0.04689255356788635, 0.13263674080371857, 0.07775324583053589, -0.059768252074718475, -0.014648349955677986, 0.04306359216570854, -0.00041701161535456777, 0.09043517708778381, -0.10122449696063995, -0.06222444027662277, -0.12536469101905823, 0.18187949061393738, 0.04776335135102272, -0.016863074153661728, 0.0798250287771225, -0.046686749905347824, 0.07437292486429214, 0.037691209465265274, -0.08041608333587646, -0.010491433553397655, -0.12208832800388336, -0.05703268572688103, 0.06366781145334244, 0.09698014706373215, -0.018000930547714233, 0.022231483832001686, 0.02228681556880474, 0.02941140905022621, 0.05657566338777542, -0.01353323645889759, 0.011201268061995506, -0.02709578536450863, -0.031760960817337036, -0.031809184700250626, -0.14980556070804596, -0.1342238187789917, 0.1382446587085724, -0.0770750492811203, 0.0026066629216074944, 0.1634809970855713, 0.05935494974255562, -0.05230255797505379, -0.08270927518606186, 0.09063346683979034, -0.0294435303658247, -0.01375811267644167, 0.003672344610095024, -0.021339742466807365, -0.043135859072208405, -0.016816360875964165, 0.09848149865865707, 0.024902550503611565, -0.03667842596769333, 0.00811384990811348, 0.062276195734739304, 0.03682756796479225, 0.04526573047041893, 0.1142982691526413, 0.13527096807956696, 0.11684942245483398], [0.02578672394156456, -0.024914860725402832, -0.022080523893237114, -0.06955351680517197, -0.01589924655854702, -0.17198708653450012, -0.02030179835855961, 0.036136478185653687, -0.001992627279832959, -0.005063183140009642, -0.06756410747766495, -0.03968759998679161, -0.1134035736322403, 0.017621541395783424, 0.07192852348089218, 0.06350115686655045, -0.04851854220032692, 0.11697088181972504, 0.10807491093873978, 0.1399393081665039, -0.030934717506170273, 0.01743813417851925, 0.01747211627662182, -0.046515535563230515, -0.01922689750790596, 0.05943722650408745, 0.10391548275947571, 0.07696951925754547, 0.017444904893636703, -0.16358834505081177, -0.15634486079216003, 0.008050351403653622, -0.04070061072707176, -0.0616777166724205, -0.030500011518597603, -0.04862050712108612, -0.04744365066289902, 0.0365724079310894, -0.031956788152456284, 0.12147360295057297, 0.007441320922225714, 0.11440514773130417, -0.24759730696678162, -0.10407937318086624, 0.05473870411515236, 0.032175395637750626, 0.008236340247094631, 0.11127201467752457, 0.15026327967643738, -0.15334054827690125, 0.3021174669265747, 0.15708185732364655, -0.043099500238895416, 0.04985565319657326, 0.09231893718242645, 0.1993873119354248, 0.02318156696856022, -0.03411717340350151, -0.17734256386756897, -0.1252012848854065, 0.010873931460082531, 0.068393774330616, 0.018079934641718864, -0.06011328101158142], [-0.02462214231491089, 0.10909558087587357, 0.12043140828609467, 0.15604270994663239, -0.023494677618145943, -0.11736736446619034, 0.07526789605617523, 0.005140399094671011, -0.11852140724658966, 0.029622329398989677, 0.05080794915556908, -0.13221660256385803, -0.2653646469116211, -0.08351960778236389, -0.002026979112997651, -0.09179458767175674, 0.04397684708237648, 0.11412940174341202, -0.017432598397135735, -0.17056116461753845, -0.01093320082873106, 0.0922866091132164, -0.036798879504203796, -0.109845831990242, 0.10894039273262024, 0.06550682336091995, -0.051692526787519455, 0.26655375957489014, -0.1272301822900772, -0.04789978265762329, -0.0634504109621048, -0.16269108653068542, 0.04262971505522728, 0.03844338282942772, 0.049324773252010345, -0.006887396331876516, -0.04368315264582634, 0.04377865046262741, 0.2094530314207077, -0.051829349249601364, -0.0005951129132881761, -0.04877631738781929, -0.23911771178245544, -0.166471928358078, 0.04838603362441063, 0.011625928804278374, 0.13640594482421875, -0.001368757919408381, -0.2639232873916626, 0.030667804181575775, 0.008920745924115181, -0.0551670603454113, -0.01779421791434288, 0.1494181752204895, -0.02676953747868538, -0.043512262403964996, -0.054145246744155884, -0.030370842665433884, -0.16107384860515594, -0.13596229255199432, 0.012082881294190884, 0.11005701124668121, 0.07977830618619919, -0.18989728391170502], [0.05945982784032822, 0.07508651912212372, 0.022107182070612907, 0.026899835094809532, 0.002142163459211588, 0.06785503029823303, 0.035304877907037735, 0.05480144917964935, 0.14882993698120117, 0.0956486165523529, -0.0030936175025999546, 0.03226523473858833, -0.03204404562711716, 0.002932459581643343, -0.02844993583858013, 0.05219962075352669, -0.10306023061275482, 0.07341988384723663, 0.05769133195281029, -0.01731676235795021, 0.11711204797029495, -0.05738983303308487, 0.07807231694459915, -0.005600791424512863, 0.0958581194281578, 0.02694215252995491, 0.12334877997636795, -0.0853448286652565, 0.05624815821647644, -0.022201333194971085, -0.09763406217098236, 0.02798021025955677, 0.136766716837883, -0.14110291004180908, 0.0032767050433903933, -0.055232543498277664, 0.01485401950776577, -0.032320793718099594, 0.019570039585232735, 0.06359682977199554, 0.07113977521657944, 0.058530043810606, -0.18729820847511292, 0.2297474890947342, 0.11535022407770157, 0.03218761831521988, 0.008740566670894623, 0.0800933912396431, 0.04948418587446213, -0.0759134590625763, 0.10147696733474731, 0.11638732999563217, 0.03593922778964043, -0.04743662849068642, 0.08072104305028915, 0.06445527821779251, 0.04497697949409485, -0.011544272303581238, 0.040929894894361496, 0.02078435756266117, 0.11176175624132156, 0.020587347447872162, 0.029895814135670662, 0.10838229209184647], [-0.15073199570178986, 0.09889707714319229, 0.09685322642326355, -0.033301789313554764, -0.03921937942504883, 0.04755019024014473, 0.006140304729342461, 0.014958728104829788, -0.04357944056391716, 0.04801185801625252, 0.08788131922483444, -0.11307089030742645, 0.0480944961309433, -0.022173473611474037, -0.09744422137737274, 0.021479513496160507, 0.02065935730934143, 0.08650775253772736, 0.07497009634971619, 0.0919598639011383, -0.2326328605413437, 0.0718136727809906, 0.03437836840748787, 0.1092398539185524, 0.033171169459819794, 0.10399957746267319, 0.08730792254209518, 0.04001720994710922, -0.0836654081940651, -0.04470337927341461, -0.06891331821680069, -0.01347948145121336, -0.001404236420057714, 0.09567508101463318, -0.09271273016929626, -0.036283787339925766, -0.0406210720539093, 0.0028222964610904455, 0.06574153900146484, -0.10436707735061646, -0.12634195387363434, 0.15903493762016296, 0.07458273321390152, 0.00912900548428297, 0.042176973074674606, 0.0340462364256382, 0.06978851556777954, -0.012199788354337215, -0.08056430518627167, -0.039909299463033676, 0.04830046743154526, -0.08477422595024109, -0.032906170934438705, 0.2033614069223404, -0.10885972529649734, 0.09137839078903198, 0.046079978346824646, 0.11125046014785767, -0.23347075283527374, -0.026599405333399773, -0.11840322613716125, 0.16082821786403656, 0.0813826397061348, -0.025395892560482025], [0.0359017439186573, -0.0928596556186676, 0.13129600882530212, -0.03064385987818241, -0.10281084477901459, 0.05635448172688484, 0.09293826669454575, -0.01230812631547451, 0.0645156279206276, 0.057175617665052414, 0.20554615557193756, -0.05298447236418724, -0.10164475440979004, -0.07824233174324036, -0.017110317945480347, 0.0284834373742342, 0.007267058826982975, 0.028014974668622017, 0.10177040100097656, 0.042010411620140076, -0.055423200130462646, -0.06281615048646927, 0.157034233212471, -0.13706792891025543, 0.15415583550930023, -0.16229435801506042, -0.054649718105793, -0.022815676406025887, 0.15912383794784546, -0.08582280576229095, -0.04905704781413078, 0.016076749190688133, -0.018768612295389175, -0.14278508722782135, -0.04199201241135597, 0.00449473736807704, -0.060916513204574585, 0.13904409110546112, -0.02912893332540989, 0.015784870833158493, 0.03740037977695465, 0.033115435391664505, -0.007658493705093861, 0.11243551224470139, 0.05187895521521568, 0.07207504659891129, 0.0551077239215374, 0.1768910139799118, -0.08602628856897354, 0.23656268417835236, -0.10266683250665665, -0.025284452363848686, 0.028911646455526352, 0.10942640900611877, -0.05253792181611061, -0.012462703511118889, 0.06952635943889618, 0.11122162640094757, 0.042835406959056854, 0.031732842326164246, 0.01732558198273182, 0.1521947979927063, 0.0036344118416309357, -0.11288443207740784], [-0.027375036850571632, 0.13585680723190308, 0.08739149570465088, -0.06730304658412933, -0.09545039385557175, 0.13278035819530487, -0.022418001666665077, -0.09623342007398605, -0.04776240512728691, -0.01485511939972639, 0.08030973374843597, -0.027719449251890182, 0.06038489565253258, -0.16622383892536163, 0.04919104278087616, 0.042080312967300415, -0.06191348284482956, 0.04204108566045761, -0.06705634295940399, -0.044070471078157425, -0.06858992576599121, -0.055684298276901245, 0.0428549125790596, 0.04325985163450241, -0.026730170473456383, 0.053560689091682434, -0.059703417122364044, -0.11314268410205841, -0.05930117890238762, -0.07272317260503769, -0.17153681814670563, -0.055003274232149124, -0.17357920110225677, 0.004225041717290878, 0.15794625878334045, 0.02558283507823944, 0.06888961046934128, -0.057718150317668915, -0.07681187987327576, 0.037783924490213394, -0.026248913258314133, -0.08503369241952896, -0.06769870221614838, 0.08686352521181107, 0.08622125536203384, -0.05277031287550926, -0.14294478297233582, 0.014318649657070637, 0.04290592670440674, 0.07037989050149918, -0.037429891526699066, -0.1379481554031372, 0.041030533611774445, -0.07850678265094757, 0.01712512969970703, -0.05743338540196419, 0.0874512642621994, -0.03338724374771118, -0.06235543638467789, 0.031217658892273903, -0.1730370819568634, -0.10903844237327576, -0.0181204155087471, 0.09922493249177933], [0.04016832634806633, -0.0546867661178112, -0.18303367495536804, 0.15952742099761963, -0.005697368644177914, -0.17155680060386658, 0.0004087712150067091, 0.09070678800344467, -0.12119121104478836, -0.01665961556136608, -0.0251802708953619, 0.09047387540340424, -0.08217351883649826, -0.012449736706912518, 0.010451091453433037, -0.17491883039474487, 0.04351549968123436, -0.006028980948030949, 0.025294478982686996, 0.00804031640291214, 0.11681024730205536, 0.10569152981042862, -0.08555389940738678, -0.06364214420318604, -0.20771808922290802, 0.15559574961662292, 0.11637377738952637, 0.0019525133538991213, 0.16399522125720978, 0.1977235972881317, -0.04304301738739014, -0.06994113326072693, -0.006607812829315662, 0.012041174806654453, -0.1316128820180893, -0.06104383245110512, 0.03382877632975578, -0.13460250198841095, -0.12031711637973785, 0.011266914196312428, 0.05561470612883568, 0.003967458847910166, 0.20334960520267487, 0.09116612374782562, -0.07326970994472504, 0.09865441173315048, -0.23811569809913635, -0.034876566380262375, 0.09241240471601486, -0.16008304059505463, 0.021483657881617546, 0.06816568970680237, -0.026932762935757637, -0.08716536313295364, 0.042174629867076874, 0.017489949241280556, 0.03531501814723015, -0.022363198921084404, -0.016000166535377502, -0.14726091921329498, -0.13672083616256714, -0.07650142908096313, -0.07746407389640808, 0.0542510449886322], [0.004632965195924044, -0.09765143692493439, -0.019338374957442284, -0.011988486163318157, 0.07153917849063873, -0.07615062594413757, 0.03795655444264412, -0.009513340890407562, 0.11779530346393585, -0.003410845762118697, 0.015280155465006828, -0.012969674542546272, 0.12841641902923584, 0.017176000401377678, 0.02834307961165905, -0.01849190890789032, 0.02482309378683567, -0.021547501906752586, 0.08293912559747696, -0.18335415422916412, 0.09076713025569916, 0.0857190415263176, -0.03844650834798813, -0.11971871554851532, -0.04478580504655838, -0.1305021047592163, -0.03251419961452484, 0.013970409519970417, -0.08887917548418045, 0.05698827654123306, 0.08120870590209961, 0.021004777401685715, -0.019143041223287582, 0.032743241637945175, 0.045071400701999664, -0.050384316593408585, 0.033824458718299866, -0.10003934800624847, -0.11558343470096588, -0.1274336725473404, 0.016220800578594208, -0.02855669893324375, -0.03245490416884422, -0.13356560468673706, -0.0018531199311837554, -0.04779626801609993, -0.09228074550628662, -0.0455787368118763, 0.042018692940473557, 0.14357328414916992, -0.059780120849609375, 0.062044620513916016, 0.05110474303364754, 0.034925539046525955, -0.047304149717092514, 0.09625542163848877, 0.04061966389417648, -0.055833883583545685, 0.03781925141811371, -0.07024788856506348, 0.0715828388929367, 0.03469602391123772, 0.07679200917482376, 0.08886478841304779], [-0.003104874864220619, -0.010063007473945618, -0.05724458023905754, 0.07131557911634445, -0.08315464854240417, 0.07583463191986084, 0.13957814872264862, 0.20053286850452423, 0.06724463403224945, -0.17202751338481903, -0.010495051741600037, 0.02741182968020439, -0.007913731038570404, 0.07367279380559921, -0.014726107008755207, 0.20430760085582733, -0.009831588715314865, 0.002585548907518387, 0.09530486911535263, 0.001709977281279862, -0.07356543093919754, 0.05861980468034744, 0.04798427224159241, -0.052146490663290024, 0.02723383717238903, -0.07551327347755432, -0.14194326102733612, -0.00046508468221873045, 0.1843508929014206, -0.007322145160287619, 0.09299884736537933, 0.014402822591364384, 0.05335729196667671, 0.039290402084589005, 0.1079993024468422, -0.022389238700270653, -0.007605656981468201, 0.06534268707036972, 0.054594386368989944, 0.1214478388428688, -0.07722989469766617, -0.11168161779642105, -0.06994380056858063, 0.03493494540452957, -0.06223602965474129, 0.009036818519234657, -0.019231131300330162, -0.0026338878087699413, -0.05100707337260246, 0.0077822525054216385, 0.058815013617277145, 0.09048204869031906, -0.13635903596878052, 0.041635435074567795, 0.014512079767882824, -0.04970547929406166, 0.010926412418484688, 0.09843803197145462, 0.07609418779611588, 0.1439644694328308, 0.09433253854513168, -0.017353156581521034, 0.035577937960624695, -0.14120855927467346], [0.03179556503891945, 0.022871488705277443, -0.12342426925897598, -0.06118612736463547, 0.0004945277469232678, -0.026911649852991104, -0.03564637154340744, 0.12078829109668732, 0.05192592367529869, -0.2978608310222626, 0.02008647657930851, 0.031716249883174896, -0.1505674570798874, 0.013262661173939705, -0.010984806343913078, -0.018118713051080704, 0.027204854413866997, 0.06419792771339417, -0.03750116750597954, -0.002492153085768223, -0.0987824872136116, 0.009898846037685871, 0.04311501979827881, 0.026501338928937912, 0.09419362992048264, -0.06133665889501572, 0.040044695138931274, 0.0929003432393074, 0.008495647460222244, -0.040362101048231125, -0.11341635882854462, 0.11515061557292938, 0.04022537171840668, -0.06058631092309952, 0.07517019659280777, 0.1497834026813507, -0.013383462093770504, 0.03401196375489235, 0.09702932089567184, -0.081355981528759, 0.043572306632995605, 0.024208880960941315, 0.08576696366071701, 0.1306222528219223, 0.12003529071807861, -0.0712617039680481, -0.05049349367618561, 0.16469885408878326, -0.029807377606630325, -0.22348380088806152, -0.05829772725701332, -0.03383399546146393, -0.011910999193787575, -0.033920515328645706, -0.021844210103154182, 0.15415723621845245, -0.09248016774654388, -0.1910955160856247, 0.14116302132606506, 0.21529334783554077, 0.19598905742168427, 0.1278352290391922, 0.012717893347144127, -0.11135373264551163], [0.15990479290485382, 0.5108038783073425, -0.3801877498626709, 0.38269856572151184, 0.3833567202091217, -0.20107117295265198, -0.17552202939987183, 0.5603690147399902, 0.12832391262054443, 0.07345341145992279, 0.16778744757175446, 0.06072681397199631, -0.30350878834724426, 0.28860822319984436, 0.4092716872692108, 0.4004592001438141, -0.5446192622184753, -0.25251254439353943, 0.059564411640167236, 0.2773841917514801, 0.4149629771709442, -0.5772741436958313, 0.012840008363127708, -0.08558347821235657, 0.49113133549690247, -0.8442028760910034, -0.2979556620121002, 0.1557837575674057, 0.5880047678947449, 0.04346490278840065, -0.2256544530391693, -0.3551348149776459, -0.144546240568161, -0.35898882150650024, 0.13849680125713348, -0.029041435569524765, 0.13475750386714935, 0.40007197856903076, -0.3342123031616211, 0.6297380328178406, -0.5966893434524536, 0.03641796112060547, -0.3150797188282013, -0.01311719324439764, -0.5193902850151062, 0.3346607983112335, -0.40164947509765625, 0.29553741216659546, 0.6514679789543152, -0.4007570147514343, 0.33799445629119873, 0.33606910705566406, -0.5975269675254822, -0.3899509608745575, -0.04281669855117798, 0.14359469711780548, -0.587628960609436, -0.2960204780101776, 0.17258158326148987, -0.4562020003795624, 0.5180293917655945, -0.659012496471405, -0.33026576042175293, -0.448315292596817], [0.08731820434331894, 0.14248228073120117, -0.5418999791145325, -0.23576270043849945, 0.42968660593032837, 0.24542394280433655, -0.0007592921028845012, 0.1576080620288849, -0.19557644426822662, -0.3981214165687561, 0.6899470090866089, 0.09968594461679459, 0.2230701744556427, 0.38095420598983765, -0.2443612962961197, -0.23001372814178467, -0.1730833202600479, -0.3071487247943878, -0.11107967793941498, 0.6027221083641052, 0.013095207512378693, 0.02791157364845276, -0.1823367178440094, -0.13292402029037476, -0.1560705453157425, 0.0760130062699318, 0.21172823011875153, -0.01960056833922863, 0.3234684467315674, 0.17636917531490326, -0.40511447191238403, 0.08928576111793518, -0.018887097015976906, -0.13645614683628082, -0.7710666060447693, 0.04008438438177109, 0.06491528451442719, 0.40145161747932434, -0.26799842715263367, -0.4113938510417938, 0.02901030145585537, 0.447890967130661, 0.4064679443836212, 0.26983392238616943, 0.513572096824646, 0.141939178109169, -0.24489036202430725, 0.02264600619673729, 0.19613689184188843, -0.2627180218696594, 0.34567081928253174, 0.5122271776199341, 0.24102944135665894, -0.050517842173576355, 0.03385002911090851, 0.25056570768356323, -0.1340639740228653, 0.25035691261291504, -0.2924872636795044, 0.2951054871082306, 0.3366440534591675, -0.18667814135551453, 0.5414302349090576, 0.23556454479694366], [0.1399238407611847, 0.015754828229546547, 0.12679308652877808, -0.014621635898947716, 0.02371172048151493, 0.0156169468536973, 0.041016437113285065, -0.059828247874975204, 0.07908710837364197, -0.07214152812957764, -0.05360141396522522, 0.1264348030090332, 0.0014262438053265214, -0.03997531905770302, 0.055786557495594025, 0.0030609469395130873, 0.12942497432231903, -0.005121471825987101, -0.07652633637189865, -0.006256899796426296, 0.10361216217279434, -0.009117776528000832, -0.07125990092754364, 0.005608195438981056, 0.011672175489366055, 0.09813663363456726, 0.05851002410054207, 0.05420161038637161, -0.005299605894833803, -0.022015627473592758, 0.04021928831934929, 0.05400901287794113, 0.02934196963906288, 0.008486180566251278, 0.15996117889881134, -0.16623423993587494, -0.046617262065410614, 0.06709407269954681, -0.12881088256835938, 0.012683751992881298, 0.08714006841182709, 2.139031857950613e-05, 0.022688085213303566, -0.08469828963279724, 0.07544122636318207, 0.05633923411369324, 0.015214957296848297, -0.06877874583005905, 0.00581320421770215, 0.01267367321997881, -0.033690668642520905, 0.12431072443723679, 0.029016967862844467, -0.045360974967479706, 0.08045554906129837, -0.03148835897445679, -0.026540132239460945, -0.1834978610277176, 0.039479874074459076, 0.07794587314128876, 0.022660279646515846, 0.052198607474565506, 0.11570321768522263, 0.04889056086540222], [0.00785054825246334, 0.04737874120473862, 0.037436794489622116, 0.06310669332742691, -0.027729995548725128, -0.03177357465028763, 0.001040480681695044, 0.005353360436856747, -0.03652828186750412, 0.07661520689725876, -0.014450530521571636, -0.036460354924201965, -0.0048064058646559715, -0.0894567221403122, -0.050143830478191376, 0.02498888410627842, 0.03320953622460365, 0.03391961753368378, -0.010544947348535061, -0.05646739900112152, 0.01821710728108883, -0.014609035104513168, -0.010787898674607277, 0.005274987313896418, -0.03360402584075928, -0.0243923868983984, -0.0847446620464325, -0.019913973286747932, 0.01826748438179493, -0.011230425909161568, 0.05661514773964882, 0.01567557454109192, 0.0031364955939352512, 0.05024755373597145, 0.11467640846967697, -0.01560273952782154, 0.01661265268921852, 0.0164614450186491, 0.08320604264736176, 0.04255835339426994, 0.05698533356189728, 0.05341097339987755, 0.030002310872077942, -0.06792144477367401, -0.052417904138565063, 0.018422750756144524, 0.10254329442977905, -0.01228275801986456, -0.022172821685671806, 0.12901023030281067, -0.05184467136859894, -0.03250392898917198, -0.054332196712493896, 0.027736887335777283, 0.011178900487720966, -0.09007291495800018, 0.008089233189821243, 0.09428779035806656, 0.09676893055438995, -0.06096752732992172, -0.0431184358894825, -0.06836530566215515, -0.013429124839603901, 0.044180978089571], [-0.021464483812451363, -0.059174228459596634, 0.06920120865106583, -0.07849397510290146, -0.02152060903608799, 0.0842239260673523, 0.040267083793878555, -0.04881247878074646, 0.05705294385552406, -0.026652846485376358, 0.012060013599693775, -0.08156592398881912, 0.02778187207877636, 0.08945368230342865, 0.010149907320737839, -0.03194420412182808, -0.039339274168014526, 0.13101649284362793, 0.04181497171521187, 0.1494584083557129, 0.009056595154106617, 0.014363869093358517, 0.09490937739610672, 0.03265261650085449, 0.04132029041647911, -0.01392886321991682, -0.0494910404086113, -0.0560474693775177, 0.022578595206141472, -0.049945537000894547, -0.028812363743782043, 0.009178745560348034, 0.01999684050679207, -0.06330778449773788, 0.06616483628749847, -0.03852715715765953, -0.048595212399959564, -0.01013733446598053, 0.07357796281576157, -0.03389381989836693, -0.03747905045747757, 0.015982873737812042, -0.1319582611322403, -0.11309976875782013, 0.11895224452018738, 0.04823510721325874, 0.13290607929229736, -0.023510057479143143, 0.0859861671924591, 0.011193827725946903, 0.010369663126766682, -0.054885007441043854, -0.02332642301917076, -0.013213198632001877, -0.06876871734857559, 0.06210525333881378, 0.07917269319295883, 0.05833485350012779, -0.04130201414227486, 0.0073582627810537815, 0.00785832479596138, -0.07933446019887924, -0.04228777438402176, 0.020095935091376305], [-0.041097961366176605, -0.08178561925888062, 0.061648763716220856, -0.15035082399845123, -0.0887765884399414, -0.05421304702758789, 0.05449987202882767, -0.039377160370349884, -0.0652971938252449, -0.04851384088397026, 0.008969934657216072, 0.003489739028736949, -0.07730889320373535, 0.029013866558670998, -0.09513405710458755, -0.027754899114370346, 0.011754549108445644, -0.10549290478229523, 0.011531992815434933, -0.000282471562968567, -0.057985782623291016, 0.039186742156744, 0.053889621049165726, -0.0014424409018829465, 0.020555805414915085, 0.05426526069641113, -0.05828060209751129, 0.025614503771066666, 0.0884033814072609, -0.033166948705911636, 0.01939338445663452, -0.04429568350315094, 0.04101593792438507, 0.10768044739961624, 0.03419610485434532, -0.08009005337953568, 0.008233052678406239, -0.053671665489673615, -0.07538814842700958, 0.07841144502162933, 0.01419591624289751, -0.11410250514745712, -0.07928354293107986, -0.07377384603023529, -0.00658876309171319, 0.10740837454795837, -0.13101229071617126, -0.03280065581202507, -0.00825241208076477, 0.018779518082737923, -0.05001568794250488, 0.07872595638036728, -0.007728705182671547, 0.09368562698364258, 0.017869215458631516, -0.12741753458976746, -0.009170351549983025, -0.06760445982217789, -0.07603868842124939, 0.10113159567117691, -0.02561146579682827, -0.07751390337944031, -0.061162639409303665, 0.02991391532123089], [-0.055350665003061295, 0.0037945460062474012, -0.08619637787342072, -0.0014568999176844954, -0.04201143980026245, -0.008302760310471058, -0.0026652924716472626, -0.07522159814834595, 0.02305365540087223, 0.01653752103447914, -0.1148357018828392, -0.00807295273989439, -0.15156599879264832, -0.03883522003889084, 0.0025322907604277134, -0.043944019824266434, -0.06229777634143829, -0.020384030416607857, 0.015792924910783768, 0.10099712759256363, -0.015107967890799046, 0.046073541045188904, -0.048169393092393875, 0.004706882406026125, 0.058493372052907944, -0.07031022012233734, -0.033818285912275314, 0.0370657742023468, 0.06734754145145416, -0.02724507264792919, -0.028233034536242485, 0.011935869231820107, 0.04539668560028076, 0.04701884835958481, 0.04712224379181862, -0.027463769540190697, -0.0015571772819384933, -0.0825299620628357, 0.005454259924590588, -0.02809472568333149, 0.08256034553050995, 0.05535728856921196, 0.10935898125171661, 0.046897754073143005, 0.10950515419244766, -0.014653059653937817, -0.021582750603556633, 0.07074655592441559, -0.07374904304742813, 0.01636369712650776, -0.08626488596200943, 0.07834988832473755, 0.0051469579339027405, 0.11560450494289398, 0.04154955595731735, 0.06644337624311447, -0.04820798337459564, -0.027911152690649033, -0.08564342558383942, -0.06236761808395386, -0.07571754604578018, -0.04227510839700699, 0.0883030891418457, -0.04160111024975777], [-0.07367443293333054, -0.07536201924085617, -0.0421367771923542, -0.08412691950798035, -0.0987144261598587, 0.11666525900363922, 0.07451334595680237, 0.006746162194758654, -0.05238894373178482, -0.08319249004125595, 0.06569143384695053, -0.054546017199754715, 0.15324588119983673, 0.1019134446978569, -0.19918109476566315, -0.07152343541383743, 0.07914680987596512, -0.02431030385196209, 0.005330483429133892, 0.12157408893108368, -0.1411597728729248, 0.2011314034461975, -0.06560628861188889, 0.05628829449415207, -0.17486844956874847, 0.0870036855340004, 0.06115278974175453, -0.00146628194488585, -0.07639558613300323, -0.052300021052360535, -0.033496275544166565, 0.10639528185129166, 0.06766554713249207, 0.018985524773597717, -0.09106577932834625, 0.00985617097467184, -0.0263166856020689, -0.10331329703330994, 0.09719884395599365, -0.17175760865211487, 0.1287032961845398, 0.02925286255776882, 0.09064674377441406, 0.03871205821633339, 0.2604531943798065, -0.0027391298208385706, 0.0760309100151062, -0.0714944452047348, -0.016185691580176353, -0.0467342734336853, 0.026015039533376694, -0.05326397716999054, 0.11284808069467545, 0.07917441427707672, -0.0327027253806591, 0.004127804655581713, 0.11011449992656708, 0.06023278832435608, -0.21107813715934753, 0.09577655047178268, -0.05967437103390694, -0.0024631847627460957, 0.16951744258403778, 0.1336222141981125], [0.0013941841898486018, 0.07928275316953659, -0.09033717960119247, 0.01384058315306902, -0.045806825160980225, -0.04439529404044151, 0.0172822717577219, 0.012454390525817871, 0.09296002238988876, -0.11475051939487457, 0.04989951476454735, -0.0015905129257589579, -0.009912886656820774, -0.03433733806014061, 0.02401336468756199, 0.007610239554196596, 0.0007455513114109635, -0.13247355818748474, -0.09058114141225815, 0.07703091204166412, -0.0015574921853840351, -0.018747828900814056, -0.026544276624917984, -0.02268613688647747, -0.000489181315060705, -0.0736861303448677, 0.008785475045442581, 0.09005670249462128, -0.09294325858354568, 0.04885829612612724, -0.01866239681839943, 0.06265327334403992, -0.05767923593521118, -0.008582844398915768, 0.01864561438560486, 0.010595624335110188, 0.03710825741291046, 0.03582043573260307, -0.07268717885017395, -0.03753064200282097, -0.010978271253407001, 0.11326207220554352, 0.007181622087955475, -0.0054656811989843845, 0.011871513910591602, 0.013912247493863106, -0.009136673994362354, -0.022388875484466553, -0.04601740092039108, -0.036563690751791, -0.06710077822208405, 0.04040975496172905, -0.08366311341524124, -0.02764054387807846, -0.008728151209652424, 0.019126739352941513, -0.01604650728404522, 0.019676247611641884, -0.06249179691076279, 0.028402719646692276, 0.006554285064339638, 0.006487243343144655, 0.10324987769126892, -0.09637435525655746], [-0.011242042295634747, 0.01613675244152546, -0.01621847227215767, -0.014759369194507599, -0.018656136468052864, 0.02042102999985218, -0.01442184578627348, 0.03418499231338501, 0.0058499472215771675, -0.03218386322259903, 0.0023186765611171722, -0.027426740154623985, -0.00046760935219936073, 0.0062951212748885155, -0.013771791011095047, 0.007463530637323856, 0.020083490759134293, -0.02004396729171276, 0.012828497216105461, 0.04825904220342636, 0.0055993348360061646, -0.009763237088918686, -0.025752229616045952, 0.006669543217867613, -0.025043729692697525, 0.008847801946103573, 0.03730893135070801, 0.04035472124814987, -0.02326156198978424, 0.041718244552612305, -0.018602993339300156, -0.018422221764922142, 0.017892519012093544, -0.02116001397371292, -0.012394774705171585, 0.01715180277824402, 0.008023264817893505, 0.015120736323297024, -0.06199730187654495, 0.00535937212407589, 0.003981963265687227, 0.01928579993546009, 0.04245596379041672, 0.003358870977535844, 0.025658143684267998, -0.006386648863554001, 0.0002397279895376414, 0.06470011919736862, 0.04943027347326279, -0.01690652221441269, 0.008700156584382057, -0.04179228097200394, 0.018262576311826706, -0.014047647826373577, -0.02647802233695984, -0.010372835211455822, -0.03831544518470764, 0.00507749617099762, 0.01006245706230402, 0.04164031893014908, 0.021073775365948677, 0.029629770666360855, 0.04648765176534653, 0.007422168273478746], [0.03942170739173889, -0.01893877051770687, 0.011165158823132515, -0.05989960953593254, -0.0614033080637455, 0.10413214564323425, -0.04538793861865997, 0.023684363812208176, -0.0367477647960186, -0.06757885962724686, 0.058792125433683395, 0.03926146402955055, -0.09398721903562546, 0.12516120076179504, 0.06879496574401855, -0.039065442979335785, 0.01464613527059555, -0.019991982728242874, 0.03285432234406471, 0.05216788128018379, 0.016643846407532692, -0.028137512505054474, -0.054354917258024216, -0.013156242668628693, 0.06046333909034729, 0.1051216796040535, 0.12028305232524872, -0.0056600323878228664, 0.022482791915535927, 0.0034513806458562613, -0.12821072340011597, 0.014042547903954983, 0.02339780703186989, 0.10884462296962738, 0.021005904302001, -0.0449557825922966, -0.04118066281080246, 0.03027992509305477, 0.08492124825716019, -0.017386607825756073, 0.08648296445608139, -0.07278896123170853, 0.033248864114284515, 0.001611116575077176, 0.0633024051785469, -0.03563730791211128, -0.04195363447070122, -0.0441678985953331, 0.007426896132528782, -0.05470457673072815, -0.019111206755042076, -0.019372139126062393, -0.12854990363121033, 0.02539251558482647, 0.06661290675401688, -0.041138749569654465, 0.020885655656456947, -0.004110498353838921, 0.01854870840907097, 0.03309302031993866, -0.0021777774672955275, 0.02868395298719406, 0.02179344743490219, -0.049021847546100616], [-0.02899734303355217, 0.03916764631867409, 0.0431312695145607, -0.0023871606681495905, 0.04606273025274277, -0.00013054748706053942, 0.021447565406560898, 0.003262353129684925, -0.028366930782794952, 0.12173391133546829, -0.015065866522490978, -0.034752123057842255, 0.11599387973546982, 0.09622392058372498, -0.034440524876117706, -0.014935511164367199, 0.029825270175933838, 0.009808766655623913, 0.016391482204198837, -0.04167991504073143, -0.0834137573838234, 0.0154836131259799, -0.03513152897357941, -0.05255404859781265, -0.04135293886065483, 0.08557587116956711, -0.03453647717833519, -0.011381645686924458, 0.09023229032754898, -0.051942966878414154, 0.047564174979925156, -0.09076983481645584, 0.019308529794216156, -0.06568142026662827, -0.018779298290610313, 0.04498337581753731, -0.06356851756572723, 0.017738986760377884, 0.022496333345770836, 0.10002083331346512, -0.03880862891674042, 0.005728189367800951, 0.015349685214459896, -0.036811463534832, -0.016652852296829224, 0.04460609704256058, 0.08388898521661758, -0.07872959226369858, 0.05174277722835541, -0.009399893693625927, 0.05110759288072586, -0.06461760401725769, 0.0895516499876976, 0.07058723270893097, 0.020581580698490143, 0.033963412046432495, -0.04010844603180885, -0.04235697165131569, -0.0028472573030740023, -0.031381431967020035, 0.020136525854468346, -0.015993189066648483, 0.06586578488349915, -0.08904308080673218], [0.01719820499420166, -0.16422632336616516, -0.04741321876645088, 0.0060950033366680145, -0.045194391161203384, -0.009399778209626675, 0.05946541950106621, 0.15645694732666016, 0.11761265993118286, 0.09102849662303925, -0.06378580629825592, -0.01246801670640707, 0.010394907556474209, -0.10499980300664902, 0.0015792824560776353, -0.006954760290682316, 0.04934490844607353, -0.08494450896978378, -0.04102075472474098, 0.09946925193071365, 0.04703117161989212, 0.022693956270813942, 0.05532582104206085, -0.030240969732403755, -0.028003688901662827, -0.0593581423163414, 0.06328200548887253, -0.024128293618559837, -0.07345562428236008, 0.048231739550828934, -0.09564502537250519, 0.038164783269166946, 0.015706660225987434, 0.01937463879585266, -0.05689380317926407, 0.026924600824713707, 0.03565700724720955, 0.0784410759806633, -0.014358056709170341, -0.022373760119080544, 0.03496208414435387, 0.037337105721235275, -0.1114976778626442, -0.10592211037874222, 0.08730337768793106, 0.019301192834973335, 0.07665545493364334, -0.022265063598752022, 0.007308902684599161, 0.08314739167690277, 0.026368286460638046, -0.0206568893045187, -0.04168357700109482, -0.06335388123989105, -0.10048428177833557, 0.010048482567071915, -0.02346235141158104, 0.05776434391736984, -0.04209784418344498, 0.019476497545838356, 0.03313682600855827, 0.021174995228648186, 0.029985640197992325, -0.0009452214580960572], [-0.023925919085741043, 0.029792198911309242, 0.030694274231791496, 0.0034726769663393497, 0.016120590269565582, -0.026561159640550613, 0.023119693621993065, 0.014551915228366852, -0.021548070013523102, -0.03882468119263649, 0.012228298000991344, 0.013806178234517574, 0.045276422053575516, -0.0017526933224871755, 0.014291642233729362, -0.002249081153422594, -0.02550918608903885, -0.013331593945622444, 0.0005494611687026918, -0.015554185956716537, -0.016896892338991165, 0.019309280440211296, 0.03776547685265541, 0.04689071327447891, 0.0021964546758681536, -0.020247481763362885, 0.003996009007096291, -0.061107419431209564, 0.017655277624726295, -0.03758935257792473, 0.011289198882877827, 0.01385644730180502, 0.01901899464428425, 0.007880065590143204, 0.0009697825298644602, -0.01048524770885706, 0.0006582213100045919, -0.009620512835681438, 0.008559130132198334, 0.048515889793634415, -0.005319736432284117, 0.019069267436861992, 0.019205862656235695, 0.011320093646645546, 0.0038590000476688147, -0.01928957737982273, 0.0144136818125844, 0.003041838528588414, -0.004991499707102776, 0.02206352911889553, -0.002144356956705451, 0.012767552398145199, 0.012881333939731121, 0.013801592402160168, -0.018067605793476105, -0.016052991151809692, 0.020542243495583534, -0.04483916237950325, 0.026570400223135948, 0.001855887589044869, -0.003779633669182658, -0.01804959960281849, 0.056820329278707504, -0.0257341917604208], [0.013805551454424858, 0.06637071818113327, 0.032703883945941925, -0.06580903381109238, 0.02719075419008732, 0.0013477429747581482, 0.03971300274133682, 0.0630050078034401, 0.0116775156930089, -0.02555008977651596, 0.042360905557870865, 0.030776964500546455, 0.08327411115169525, 0.12675565481185913, 0.04366892948746681, -0.06724823266267776, 0.05838555842638016, -0.014908908866345882, 0.0093214251101017, 0.01980929635465145, 0.03967572748661041, -0.07650113850831985, 0.005695663392543793, 0.025361882522702217, 0.07084966450929642, -0.00658333208411932, 0.06120782718062401, -0.0543857142329216, 0.02334882877767086, 0.07073910534381866, -0.13161909580230713, 0.05405353009700775, -0.007792939897626638, 0.04122086614370346, -0.04911153018474579, -0.026282712817192078, 0.014147859066724777, 0.05012025311589241, -0.09021178632974625, 0.026266183704137802, -0.030758986249566078, -0.05084957182407379, -0.026935581117868423, -0.059476979076862335, -0.12619049847126007, 0.05305841937661171, 0.019470971077680588, 0.10821601003408432, 0.03545789420604706, 0.17087015509605408, -0.05961066111922264, -0.0161709226667881, -0.0010191875044256449, 0.026767577975988388, -0.06760765612125397, 0.033204738050699234, -0.05457627400755882, -0.07195255905389786, 0.009959684684872627, 0.01227505598217249, 0.0812448114156723, -0.014805475249886513, -0.04564632102847099, 0.02275095321238041], [-0.07285086065530777, -0.07099599391222, -0.06781265884637833, 0.04757598042488098, -0.0673418715596199, -0.051583923399448395, 0.02677263878285885, -0.04722823202610016, 0.012357886880636215, 0.010221430100500584, 0.01543515920639038, 0.08006240427494049, 0.055462080985307693, -0.03476995974779129, -0.030542699620127678, 0.02299600839614868, 0.01581910438835621, -0.0832776129245758, -0.03993499279022217, 0.020793497562408447, 0.06687984615564346, -0.04056226834654808, -0.017701340839266777, 0.0127639789134264, -0.049176495522260666, -0.0511518195271492, -0.00902453251183033, 0.0069195907562971115, 0.10314776003360748, -0.015393122099339962, -0.0346657931804657, 0.05810399353504181, -0.0018978508887812495, -0.06413543969392776, -0.029311805963516235, 0.03042485937476158, 0.04142853617668152, -0.002163763390854001, 0.01796819269657135, 0.03230481967329979, 0.013765242882072926, -0.03270721063017845, 0.05100652575492859, -0.023051992058753967, -0.11873520165681839, -0.0367957167327404, -0.12471859157085419, 0.014626629650592804, 0.02126580849289894, -0.09024662524461746, 0.04370447248220444, -0.05441475287079811, 0.037487395107746124, 0.001718311570584774, -0.016202226281166077, 0.01028470043092966, 0.008643350563943386, 0.03191424533724785, -0.06806105375289917, 0.05738352984189987, 0.019057510420680046, -0.06426305323839188, 0.031150303781032562, 0.04832591861486435], [0.04996417835354805, 0.004640783648937941, -0.029179302975535393, 0.02442246302962303, 0.03925956413149834, -0.031023792922496796, -0.017436586320400238, 0.00680380268022418, -0.04509935900568962, -0.040091849863529205, -0.057959239929914474, 0.009421133436262608, 0.018394634127616882, 0.014556818641722202, 0.07091198861598969, -0.08241946995258331, -0.035435669124126434, 0.031003132462501526, 0.03228338062763214, 0.07103676348924637, -0.050954826176166534, 0.07273658365011215, -0.012615346349775791, -0.039950303733348846, 0.0009644081583246589, 0.04017504304647446, 0.046583253890275955, -0.05686836689710617, -0.0034652461763471365, -0.07212251424789429, 0.01709301955997944, 0.03523120656609535, 0.005716370418667793, -0.016518980264663696, 0.07821345329284668, -0.024310408160090446, -0.015659306198358536, -0.004148805048316717, 0.03651578724384308, -0.01694462262094021, 0.09168504923582077, -0.0112190255895257, -0.09063368290662766, -0.01340456958860159, 0.02885054238140583, 0.04417092725634575, 0.04787401854991913, 0.06295570731163025, 0.025467487052083015, -0.02950771152973175, 0.049112722277641296, -0.010309520177543163, -0.05139373987913132, 0.06749148666858673, -0.032175805419683456, 0.049897246062755585, -0.030046207830309868, -0.07014884799718857, 0.0053630187176167965, -0.03336278349161148, -0.006615981459617615, -0.0475468710064888, 0.006456381641328335, 0.0113773662596941], [0.011755554936826229, -0.03401036560535431, 0.06795518845319748, 0.006917964201420546, 0.18224014341831207, -0.08890559524297714, -0.015954535454511642, 0.02244797721505165, -0.03336753323674202, 0.1216077134013176, -0.06493932753801346, 0.014057996682822704, -0.12370762228965759, 0.06272225826978683, 0.023884082213044167, 0.004969025496393442, 0.05279981717467308, 0.05317283049225807, 0.03957480564713478, -0.014007646590471268, -0.04113886505365372, -0.01856881007552147, 0.03368225693702698, 0.10126122087240219, 0.03715015947818756, -0.05862684175372124, -0.15741729736328125, 0.07623553276062012, -0.093191958963871, -0.040960319340229034, 0.08281787484884262, -0.07426655292510986, -0.024361426010727882, -0.026493003591895103, 0.13509391248226166, 0.011849215254187584, 0.062391478568315506, 0.039177440106868744, -0.09006967395544052, -0.005555835086852312, 0.017943784594535828, -0.045748960226774216, -0.016787990927696228, -0.02428315579891205, -0.0174750704318285, -0.03009795770049095, -1.747499300108757e-05, 0.010488132014870644, 0.07989567518234253, 0.03026166930794716, 0.014885482378304005, -0.07412299513816833, -0.018806610256433487, -0.0385282002389431, 0.07147902250289917, -0.022741729393601418, -0.07499399781227112, -0.007050196640193462, 0.06022881343960762, -0.04426036775112152, -0.1098184883594513, -0.084734708070755, -0.06799931079149246, -0.0774679034948349], [0.01240507885813713, 0.026690959930419922, -0.04858697950839996, -0.10151566565036774, -0.05352076515555382, -0.04123946651816368, 0.05408478528261185, 0.10919169336557388, -0.0013050187844783068, -0.0313226580619812, 0.12270576506853104, 0.0480443574488163, 0.020620616152882576, -0.00858665443956852, -0.10468991100788116, -0.007685686461627483, 0.06374204903841019, -0.12056529521942139, 0.016053659841418266, 0.11483541876077652, 0.07775084674358368, 0.04793203994631767, 0.01477222703397274, -0.04279560595750809, 0.058975838124752045, 0.004489515908062458, 0.04627600312232971, 0.042597446590662, 0.0969376340508461, 0.011259251274168491, -0.11282957345247269, 0.008745049126446247, -0.0018689060816541314, 0.056966591626405716, -0.04433666542172432, 0.030001848936080933, -0.008919895626604557, 0.10602151602506638, -0.09426398575305939, 0.0356464758515358, -0.033540669828653336, -0.06726896017789841, -0.035281453281641006, 0.009940000250935555, -0.05744602903723717, 0.0769168958067894, -5.182997847441584e-05, 0.065412737429142, 0.01984330266714096, -0.0267629437148571, 0.006761560682207346, 0.03656870499253273, -0.05214248225092888, 0.019320743158459663, 0.026596857234835625, -0.07520069181919098, 0.028816362842917442, -0.08959966897964478, -0.016778260469436646, -0.04591837152838707, -0.07001632452011108, -0.06860717386007309, 0.009925118647515774, 0.005180886946618557], [0.0070577054284513, 0.017690863460302353, -0.040874142199754715, -0.005622442811727524, 0.04499102011322975, 0.06409617513418198, -0.010355579666793346, 0.012575216591358185, 0.03643296658992767, -0.021704982966184616, 0.0538003109395504, 0.07337116450071335, 0.02467142604291439, 0.01485433615744114, -0.033482372760772705, 0.05360553041100502, 0.12666361033916473, -0.041272714734077454, -0.013582960702478886, -0.024256199598312378, -0.006562880240380764, 0.043828967958688736, 0.06377723813056946, -0.029269695281982422, 0.026400675997138023, 0.07380960136651993, 0.04537613317370415, 0.04590241611003876, 0.061051979660987854, -0.044162023812532425, 0.013030057772994041, 0.014035657048225403, -0.038548652082681656, 0.043881066143512726, 0.08876737207174301, 0.006404100451618433, -0.058757562190294266, 0.05102337896823883, -0.08305516839027405, 0.04749602451920509, 0.0030001006089150906, -0.06638240069150925, 0.10991819947957993, -0.04060151055455208, -0.07478984445333481, 0.01875942386686802, 0.05389448627829552, -0.017204996198415756, -0.07780376821756363, -0.006636208854615688, 0.07954560220241547, 0.0321381576359272, -0.06524275988340378, 0.027251314371824265, 0.0072074150666594505, 0.048793546855449677, -0.03895222023129463, -0.03298233821988106, 0.02651911787688732, 0.08216213434934616, -0.00620577996596694, -0.005011894274502993, 0.05001375079154968, 0.019065329805016518], [0.005457740742713213, 0.02026541531085968, 0.035490091890096664, -0.026850013062357903, -0.04154554381966591, -0.018429208546876907, -0.01093737781047821, -0.028586706146597862, 0.013814343139529228, 0.09963920712471008, -0.03599359840154648, -0.1569240838289261, 0.036634184420108795, -0.050815947353839874, 0.002381456084549427, -0.06708292663097382, 0.06053215637803078, -0.020391574129462242, 0.045821357518434525, -0.1179065927863121, -0.06406856328248978, 0.025377308949828148, -0.04359665885567665, 0.010616501793265343, -0.09901030361652374, 0.05377871170639992, 0.09094920754432678, -0.01984255015850067, 0.044262517243623734, 0.03566109016537666, 0.025012854486703873, -0.02486984245479107, 0.010243670083582401, -0.009772706776857376, -0.0037999770138412714, -0.023167239502072334, 0.05204208940267563, -0.07261789590120316, -0.06677094101905823, -0.04496944695711136, 0.020930036902427673, 0.1449112594127655, 0.07656014710664749, -0.019064031541347504, 0.020359741523861885, 0.007292600814253092, -0.02929104119539261, -0.001827250118367374, -0.04468395933508873, 0.012143369764089584, -0.0371381901204586, -0.02946796827018261, -0.0011837900383397937, 0.06800097227096558, 0.00833070743829012, -0.05231957137584686, 0.018045734614133835, 0.0009462372399866581, 0.06455761939287186, 0.1115201860666275, -0.05252397432923317, 0.06356830894947052, 0.011274594813585281, 0.005781035870313644], [-0.03329646959900856, 0.002055161399766803, 0.022431649267673492, -0.006865440867841244, -0.03778345510363579, -0.05845721438527107, 0.0365164652466774, 0.04279185086488724, -0.03111753799021244, 0.01637836918234825, 0.007938029244542122, -3.180704152327962e-05, 0.04628241807222366, 0.01051412895321846, -0.0479508601129055, -0.05539414659142494, 0.00601582508534193, -0.10327564924955368, -0.06183716654777527, 0.017053013667464256, -0.04991256445646286, 0.007525819353759289, 0.04836983606219292, 0.036165814846754074, -0.1064705178141594, 0.0012172618880867958, -0.028812669217586517, -0.0406828336417675, -0.10831113159656525, 0.05404321476817131, -0.0012290962040424347, -0.06913115829229355, -0.04095781221985817, -0.022973068058490753, -0.07267040014266968, 0.008640599437057972, -0.00990405771881342, -0.05062335357069969, 0.0015128112863749266, 0.0012091867392882705, -0.04413798078894615, 0.007102461531758308, 0.0019233643542975187, 0.04832427576184273, 0.0010549586731940508, -0.06502558290958405, -0.014403535053133965, -0.004568539094179869, -0.03343813493847847, -0.06209823861718178, 0.06666447967290878, -0.02743198536336422, -0.06955070793628693, 0.008626612834632397, -0.0670401006937027, -0.05978613346815109, 0.020953141152858734, 0.02624913677573204, 0.04427662119269371, 0.0757402703166008, 0.01927575096487999, -0.011170980520546436, 0.0002487182500772178, 0.015410139225423336], [0.0013199213426560163, -0.022404739633202553, 0.08893714845180511, 0.05183278024196625, -0.062250010669231415, -0.044622939079999924, 0.009943879209458828, -0.01656709983944893, -0.0068073817528784275, -0.12463461607694626, -0.021419044584035873, -0.016674108803272247, 0.06370056420564651, 0.06680358201265335, 0.07641591131687164, 0.02364407107234001, -0.04953005537390709, 0.015756571665406227, 0.009594881907105446, -0.040909573435783386, -0.07849995791912079, 0.015572154894471169, -0.016625449061393738, 0.0008406333508901298, 0.04082829877734184, 0.086607426404953, 0.018710335716605186, 0.010417960584163666, -0.03769795969128609, -0.0726972222328186, 0.05547322705388069, 0.07137119770050049, -0.012901503592729568, 0.019939055666327477, 0.04356861114501953, -0.07842404395341873, 0.07119149714708328, -0.0020619346760213375, 0.14363454282283783, -0.0688432976603508, 0.07615458220243454, -0.0025831323582679033, 0.07710816711187363, 0.001286784652620554, 0.008281027898192406, 0.017175227403640747, -0.03233333304524422, -0.02428007498383522, 0.012888050638139248, 0.02921183966100216, 0.012118563055992126, -0.05730648338794708, 0.051282092928886414, 0.04754989594221115, 0.007263940293341875, -0.026833688840270042, 0.07253395766019821, 0.028721962124109268, -0.024847470223903656, 0.021866783499717712, -0.0378788597881794, 0.058191195130348206, 0.008917484432458878, -0.08928529918193817], [0.020424263551831245, 0.07131731510162354, -0.13976562023162842, -0.13790994882583618, -0.07875385135412216, -0.0005238951998762786, -0.045383866876363754, -0.08000368624925613, 0.029577258974313736, -0.03401610627770424, 0.06696610152721405, 0.007476176600903273, 0.04148600250482559, 0.008073599077761173, -0.16667239367961884, -0.08787450194358826, -0.015990518033504486, -0.12798887491226196, -0.01727445051074028, 0.10611094534397125, -0.0016212627524510026, 0.05704069137573242, 0.034467924386262894, -0.058104682713747025, 0.046799708157777786, -0.034539200365543365, 0.07959944009780884, 0.07729536294937134, 0.007603876292705536, -0.061452653259038925, -0.053704019635915756, 0.00407425919547677, 0.04345491901040077, -0.12959463894367218, 0.06930708885192871, -0.06900430470705032, -0.06311823427677155, -0.01629934459924698, -0.023696469143033028, -0.07874155789613724, 0.03363718464970589, 0.07981185615062714, 0.04633418470621109, 0.05804361030459404, 0.02908850647509098, -0.07965190708637238, -0.00281516183167696, -0.03370324894785881, 0.042540811002254486, -0.11105410754680634, -0.002192674670368433, 0.013201056979596615, 0.0014166062464937568, -0.10907803475856781, -0.09759283065795898, -0.0378863699734211, 0.030898191034793854, -0.031596601009368896, -0.06970430910587311, -0.1627996563911438, -0.04710862785577774, -0.02401237189769745, -0.13539883494377136, -0.049055397510528564], [0.05443321913480759, -0.027072647586464882, -0.1333608776330948, -0.03627811372280121, -0.03370508551597595, 0.012474837712943554, 0.0425955094397068, 0.10199540108442307, 0.012642301619052887, 0.12375813722610474, 0.2412179559469223, -0.06773671507835388, -0.017433878034353256, 0.00019999897631350905, 0.03857274353504181, 0.010099436156451702, 0.1692490130662918, 0.03513834998011589, -0.040987271815538406, -0.11960761249065399, -0.03971119225025177, 0.062207914888858795, 0.0047034649178385735, -0.0059267254546284676, 0.037916190922260284, -0.010244444943964481, -0.01688266731798649, -0.11808255314826965, -0.025600137189030647, 0.04948604851961136, 0.16350889205932617, 0.01546364277601242, 0.16608399152755737, -0.002114698989316821, -0.11370690912008286, -0.12288166582584381, 0.055792711675167084, -0.027671242132782936, 0.12162415683269501, 0.07887021452188492, -0.0031515120062977076, 0.08477234840393066, -0.025674358010292053, -0.02125745452940464, 0.008253531530499458, -0.03481640666723251, 0.07671011984348297, 0.04098912701010704, 0.031326692551374435, -5.1300616178195924e-05, -0.08384867757558823, -0.05318865925073624, 0.13362587988376617, 0.032706405967473984, 0.023059628903865814, -0.005355310160666704, -0.13056111335754395, -0.02852620556950569, 0.03898625075817108, -0.028018934652209282, 0.006735866889357567, -0.10767339169979095, 0.004445955622941256, 0.004134347662329674], [0.023984648287296295, 0.15127883851528168, 0.035401634871959686, -0.04869715869426727, 0.029429348185658455, -0.022798534482717514, 0.0073581296019256115, -0.03883633017539978, 0.08118221163749695, 0.07917386293411255, -0.09666194021701813, 0.09217692911624908, 0.003607369726523757, 0.11626630276441574, -0.1365412473678589, 0.035523299127817154, -0.021427547559142113, 0.05503911152482033, 0.0720582902431488, 0.035113848745822906, -0.04392768815159798, 0.1981562227010727, -0.04308094456791878, -0.0917232558131218, 0.06394556164741516, -0.04857705533504486, -0.1628037840127945, 0.08690119534730911, 0.04410164803266525, -0.032465752214193344, 0.03877333924174309, 0.0068799336440861225, -0.07613957673311234, 0.08617419004440308, 0.04222678020596504, 0.039552927017211914, 0.17299632728099823, 0.0012967267539352179, 0.022342706099152565, 0.061742741614580154, -0.0325404554605484, -0.09403546899557114, 0.09662983566522598, -0.08082100749015808, 0.06104665249586105, 0.09949307888746262, 0.04081752151250839, -0.02716061845421791, -0.08143796771764755, -0.11869409680366516, -0.03002535179257393, 0.0626121237874031, -0.002221005270257592, 0.04017902538180351, -0.11033976078033447, 0.08868927508592606, -0.17752307653427124, -0.033251263201236725, 0.07011713832616806, 0.013922788202762604, 0.021083643659949303, 0.03883899003267288, -0.015504666604101658, -0.007535839453339577], [-0.022578753530979156, -0.00828813761472702, -0.04965198412537575, 0.04023357480764389, 0.07511982321739197, 0.04573548957705498, 0.07170853018760681, -0.005179119762033224, 0.04545963928103447, 0.06729280203580856, -0.03174436092376709, -0.10912460833787918, 0.08359506726264954, 0.021905094385147095, -0.1029149740934372, 0.04596707969903946, 0.08900496363639832, -0.09702509641647339, -0.079833023250103, -0.025331836193799973, -0.061615899205207825, -0.1636793166399002, -0.018234115093946457, 0.15827490389347076, -0.03894345089793205, -0.06922321766614914, -0.07528531551361084, 0.017940005287528038, 0.011554835364222527, 0.015134742483496666, -0.0970834493637085, -0.0110853910446167, 0.0321548767387867, 0.0622258223593235, -0.034150030463933945, 0.007350208703428507, 0.00858775619417429, 0.059988100081682205, -0.021193360909819603, -0.05005951225757599, 0.2066306322813034, 0.05582784116268158, 0.08138886839151382, 0.01876555010676384, -0.00262686749920249, 0.06140653416514397, 0.048485416918992996, -0.060442958027124405, 0.12276555597782135, -0.030427807942032814, -0.05452496558427811, -0.09005353599786758, 0.06790173798799515, 0.047799866646528244, -0.1098858192563057, 0.06322789937257767, -0.08796469867229462, 0.057166267186403275, 0.08852072805166245, 0.08350063115358353, -0.08722855150699615, 0.01969105191528797, 0.1551925241947174, -0.1307649165391922], [-0.12156589329242706, 0.026948802173137665, -0.03851375728845596, 0.06114145740866661, 0.06400260329246521, 0.09459256380796432, -0.07482339441776276, 0.08121199160814285, 0.057294610887765884, 0.0024460582062602043, 0.03355584293603897, 0.08917546272277832, -0.009440671652555466, -0.0006026906776241958, -0.09554438292980194, -0.08409310132265091, 0.051045212894678116, -0.010357122868299484, -0.07498019188642502, 0.09089011698961258, -0.02355855517089367, 0.0894448310136795, -0.04907086864113808, 0.026278473436832428, -0.05417961999773979, -0.07484182715415955, 0.086360864341259, 0.07686827331781387, 0.1803160011768341, 0.10459636896848679, -0.03206291422247887, -0.1640857458114624, 0.006953958421945572, -0.10550693422555923, 0.042777642607688904, -0.11576094478368759, -0.03387622535228729, 0.11034545302391052, -0.08496598154306412, -0.07312603294849396, 0.047823987901210785, -0.048883646726608276, -0.030332211405038834, 0.06248774006962776, -0.0946442037820816, 0.04036717489361763, 0.04033122584223747, 0.050497300922870636, -0.06265734881162643, 0.043166425079107285, 0.01436476781964302, -0.03920242562890053, -0.200395867228508, -0.006010586861521006, -0.02206340990960598, 0.08606384694576263, -0.024816390126943588, -0.035493798553943634, -0.001956347143277526, -0.07271397858858109, 0.04335974529385567, 0.03266843035817146, -0.05209306254982948, 0.03852638974785805], [-0.06238732486963272, 0.04158761352300644, 0.10456719249486923, 0.11052916198968887, 0.048011377453804016, -0.0175514854490757, 0.024313436821103096, 0.020924553275108337, -0.04508400708436966, 0.10949280858039856, 0.0940319374203682, -0.013840301893651485, 0.14110177755355835, -0.07792791724205017, -0.026659643277525902, -0.06952317804098129, -0.040144164115190506, -0.041387032717466354, -0.026084160432219505, -0.018670912832021713, 0.04399076849222183, -0.08484585583209991, 0.11761656403541565, 0.12521302700042725, -0.01629256270825863, -0.009447820484638214, -0.011340891942381859, -0.04004814848303795, 0.024268347769975662, -0.03751000016927719, -0.09165263921022415, -0.018012497574090958, -0.11044198274612427, 0.015626825392246246, 0.1600015014410019, -0.0102341677993536, -0.039107102900743484, 0.05467845872044563, 0.02993844449520111, 0.05356409028172493, 0.09965859353542328, 0.045105062425136566, 0.035142216831445694, -0.072149358689785, 0.1298167109489441, 0.038450274616479874, -0.06919872760772705, 0.025571098551154137, -0.08505506813526154, -0.13464070856571198, 0.031534343957901, -0.1336025595664978, 0.09289909899234772, 0.12230366468429565, -0.02177494950592518, 0.02073945663869381, -0.10502544790506363, -0.019790861755609512, -0.06250789761543274, -0.013004799373447895, -0.09467443078756332, 0.05275126174092293, -0.025025341659784317, 0.05745897814631462], [0.04224018380045891, -0.11501126736402512, -0.02108818292617798, 0.038742851465940475, -0.07494834065437317, -0.029254905879497528, -0.013575728982686996, 0.02839796617627144, -0.1017533540725708, 0.11570028215646744, -0.04869106784462929, -0.13894766569137573, 0.04937133938074112, -0.09223148226737976, 0.03428007289767265, -0.07415889203548431, 0.02026951313018799, 0.013762418180704117, -0.07732822000980377, 0.07012446969747543, -0.02876819297671318, -0.07634460926055908, -0.16897551715373993, 0.06110711768269539, 0.12720391154289246, 0.012990083545446396, -0.07907384634017944, 0.06998002529144287, -0.029783422127366066, 0.06916642934083939, -0.07587112486362457, -0.09592530131340027, -0.03712271526455879, 0.08187558501958847, 0.02092648856341839, -0.06711045652627945, 0.0407390370965004, -0.04690427705645561, 0.021807529032230377, 0.12132882326841354, -0.04967758432030678, -0.08240271359682083, -0.06783808767795563, -0.012880932539701462, -0.014515632763504982, 0.02890046499669552, -0.017963752150535583, 0.12769582867622375, 0.005587283987551928, 0.086525097489357, -0.030113812536001205, 0.06289660930633545, -0.12914709746837616, -0.04332926124334335, 0.07826247066259384, -0.0331205315887928, 0.054490309208631516, -0.012480627745389938, -0.09751448035240173, -0.011128407903015614, 0.05001109838485718, -0.06420668214559555, -0.069552943110466, -0.1561550348997116], [0.14050453901290894, -0.11351083964109421, 0.050500620156526566, 0.030500197783112526, 0.0766216292977333, 0.06048281863331795, 0.001113426173105836, -0.015433505177497864, 0.041175518184900284, 0.1000700369477272, -0.07176794856786728, 0.0962880328297615, 0.10994366556406021, 0.0296210628002882, -0.010675007477402687, -0.07375272363424301, -0.0905110090970993, -0.024811245501041412, -0.06574171781539917, -0.04705405980348587, -0.02673623524606228, 0.036573875695466995, -0.1307990998029709, 0.06527823209762573, -0.018705619499087334, 0.1364060342311859, 0.056775644421577454, -0.04107125103473663, -0.004137376323342323, 0.007303724531084299, 0.04072929546236992, 0.07100698351860046, -0.043632619082927704, -0.029794154688715935, 0.08305494487285614, 0.004318537190556526, -0.08130191266536713, 0.012894700281322002, -0.12128780782222748, 0.04336642846465111, -0.016779137775301933, 0.2129514366388321, 0.0737801343202591, 0.07211214303970337, 0.04055273160338402, -0.08229103684425354, -0.00932104792445898, -0.04318516328930855, -0.054836008697748184, -0.025302136316895485, -0.01265029702335596, -0.02691620960831642, -0.08245152235031128, 0.001358525245450437, -0.0030417125672101974, 0.04141922667622566, 0.05004670470952988, 0.1164088249206543, -0.08618934452533722, 0.01172318123281002, -0.004118379671126604, 0.005132511258125305, 0.02362307719886303, -0.09207254648208618], [-0.07901567965745926, -0.05950514227151871, -0.03914393484592438, -0.09042693674564362, 0.05750589072704315, 0.03872117027640343, 0.0561869777739048, 0.014101613312959671, -0.011987979523837566, 0.020859450101852417, -0.002382551319897175, -0.05313901603221893, -0.010455445386469364, -0.028404129669070244, -0.08865813910961151, -0.1839069128036499, -0.022623388096690178, 0.04711858555674553, -0.06268481910228729, -0.08917813748121262, 0.04035790264606476, 0.03754029422998428, -0.07651988416910172, -0.16647382080554962, -0.061195578426122665, 0.016681158915162086, -0.09006901830434799, -0.009015676565468311, -0.031610555946826935, 0.007858442142605782, -0.10552173852920532, 0.03322792425751686, 0.14356562495231628, -0.07202354073524475, 0.05550147220492363, -0.07238990813493729, 0.023455945774912834, 0.10652399063110352, -0.0024194347206503153, -0.03779091686010361, 0.017376823350787163, 0.11399991065263748, -0.04239489510655403, -0.032941319048404694, -0.059883177280426025, -0.17702507972717285, -0.026747621595859528, -0.048704713582992554, 0.017320074141025543, -0.022458432242274284, 0.04958431050181389, 0.004579207394272089, 0.024900557473301888, 0.07462277263402939, 0.09595458954572678, -0.015994463115930557, -0.0036251458805054426, 0.06279215216636658, -0.06081897020339966, -0.07702646404504776, -0.025311168283224106, -0.061117906123399734, 0.028474926948547363, 0.008412733674049377], [0.017040923237800598, 0.06471046060323715, 0.01183387078344822, 0.09937771409749985, -0.019360454753041267, -0.0009038776624947786, -0.032386381179094315, 0.026221105828881264, 0.04102142155170441, -0.06804122030735016, 0.0794728547334671, 0.0365634448826313, -0.11044758558273315, -0.17517706751823425, 0.09010331332683563, -0.010038236156105995, -0.002540814923122525, 0.09294978529214859, -0.03008163347840309, 0.03291298449039459, -0.026938993483781815, -0.013297493569552898, 0.00783811416476965, 0.0808861032128334, -0.03025663271546364, 0.09508752077817917, -0.07407882809638977, 0.06824648380279541, -0.011021506041288376, 0.0670836940407753, 0.03807823359966278, 0.025196298956871033, -0.07926551252603531, -0.019472667947411537, -0.04572293907403946, -0.020702337846159935, -0.009179502725601196, 0.06604977697134018, 0.07220479100942612, 0.01068237703293562, 0.00379183329641819, -0.04607342556118965, 0.053609658032655716, 0.0202174074947834, 0.012077121064066887, 0.16108815371990204, 0.04791278764605522, -0.021181054413318634, -0.09345537424087524, 0.025823520496487617, 0.07681213319301605, -0.0027896040119230747, 0.04773779958486557, 0.02780940942466259, -0.05907951667904854, -0.08087191730737686, -0.051751475781202316, 0.09652193635702133, -0.08942923694849014, 0.027581745758652687, -0.0021273870952427387, -0.0016046918462961912, 0.018552105873823166, 0.011194487102329731], [-0.10420606285333633, -0.08395775407552719, 0.10743047297000885, -0.04343223199248314, 0.10114274173974991, -0.176920086145401, -0.22808711230754852, 0.04190818965435028, 0.09783431142568588, 0.07966168224811554, -0.1125507652759552, -0.07835079729557037, -0.06065095216035843, 0.1792217493057251, 0.09831435978412628, 0.06499426066875458, 0.07273267954587936, 0.03924110159277916, -0.005573789123445749, -0.08392693847417831, 0.02106103114783764, -0.1541951596736908, 0.09761731326580048, -0.06917992234230042, -0.07243277132511139, 0.026715710759162903, 0.11342114210128784, 0.11626081168651581, 0.03234793245792389, -0.060147691518068314, 0.09971994906663895, -0.01135735772550106, -0.13250572979450226, -0.022917306050658226, 0.05034925043582916, 0.07945465296506882, 0.05204388126730919, 0.13930094242095947, -0.028754809871315956, 0.03966672718524933, -0.06426861882209778, -0.02683841809630394, 0.07843846082687378, -0.005320271477103233, -0.045248452574014664, 0.13541997969150543, 0.008349849842488766, -0.08395802974700928, -0.032288383692502975, 0.011576938442885876, 0.10473012924194336, -0.07129133492708206, -0.09927403181791306, -0.08422966301441193, 0.06154530867934227, 0.15495577454566956, 0.11029000580310822, 0.003652838058769703, 0.057522304356098175, 0.008541432209312916, 0.1235852986574173, 0.016200782731175423, 0.13810992240905762, 0.0027970841620117426], [-0.053902558982372284, -0.0691714808344841, -0.07940958440303802, -0.11287286877632141, 0.06563929468393326, 0.03641657158732414, -0.20491690933704376, -0.051519725471735, 0.23750154674053192, 0.14153939485549927, 0.07010318338871002, -0.07565899938344955, -0.00014962340355850756, 0.07781561464071274, -0.03284398838877678, 0.11774903535842896, -0.07569477707147598, 0.035774651914834976, 0.10116732865571976, -0.0004638842074200511, -0.08341692388057709, -0.12129698693752289, 0.05053705722093582, -0.0427389070391655, 0.042571406811475754, -0.02230268158018589, 0.19776785373687744, 0.03497273102402687, 0.1437947005033493, 0.14963564276695251, -0.012739291414618492, -0.021551532670855522, -0.02156379632651806, -0.0428507998585701, 0.14086472988128662, 0.1532108038663864, 0.054901257157325745, -0.03016025945544243, 0.05404131859540939, 0.05580732598900795, -0.038049306720495224, -0.11420459300279617, -0.08776144683361053, 0.0722590982913971, -0.16320087015628815, 0.07083023339509964, 0.11933913081884384, -0.14367765188217163, -0.14700601994991302, 0.001292085973545909, 0.045787204056978226, -0.013975132256746292, -0.037058185786008835, -0.002643642481416464, -0.15327373147010803, 0.13187171518802643, 0.13714726269245148, 0.11980154365301132, -0.18301740288734436, -0.10233523696660995, -0.0005323553923517466, 0.12850776314735413, -0.06727283447980881, -0.1861911565065384], [-0.2333448827266693, -0.2247607260942459, 0.10360013693571091, -0.25062885880470276, -0.003103984287008643, 0.1301060914993286, -0.19867101311683655, 0.04733846336603165, -0.2119484394788742, 0.2634722590446472, 0.1804444044828415, -0.16957375407218933, 0.03850599005818367, 0.3521081507205963, -0.11772420257329941, 0.25587671995162964, -0.009017604403197765, 0.3293587267398834, 0.11328481882810593, -0.0752563625574112, -0.17155712842941284, -0.2959350049495697, 0.22673238813877106, -0.21624258160591125, -0.011338789016008377, 0.046104300767183304, 0.1922234445810318, 0.04472885653376579, -0.13504080474376678, 0.06832088530063629, 0.031158143654465675, 0.045001301914453506, -0.10861671715974808, 0.07118702679872513, -0.05980697646737099, 0.14626829326152802, 0.13516829907894135, 0.022549858316779137, 0.012636564671993256, 0.07532473653554916, -0.12981267273426056, -0.1146102249622345, -0.20867297053337097, 0.2663225829601288, -0.13335683941841125, 0.0174374058842659, -0.05723800137639046, -0.18201638758182526, -0.23041033744812012, -0.02521214447915554, -0.17919877171516418, -0.009125316515564919, 0.03127729892730713, 0.1273805946111679, -0.4830362796783447, 0.06504421681165695, 0.1371092051267624, 0.1097557470202446, -0.017258169129490852, -0.0116922277957201, 0.024595104157924652, -0.052621062844991684, -0.09326262027025223, -0.10795784741640091], [0.08420060575008392, -0.08048959821462631, 0.16596515476703644, 0.09073720872402191, 0.15977232158184052, 0.19799622893333435, 0.2411048710346222, -0.19911006093025208, -0.1176709458231926, 0.021468104794621468, -0.20797495543956757, -0.14399734139442444, -0.07682032883167267, 0.05852750688791275, 0.029510075226426125, -0.07376357167959213, 0.0734490305185318, -0.09552649408578873, -0.02858971245586872, 0.10389368236064911, 0.18183885514736176, 0.18360210955142975, -0.09744025021791458, -0.11983230710029602, 0.15113301575183868, -0.09354410320520401, -0.12662170827388763, 0.0191325806081295, -0.11307983100414276, -0.0666067972779274, -0.1994890421628952, 0.06338478624820709, -0.002640599152073264, -0.026076998561620712, -0.16112090647220612, 0.053107667714357376, -0.014365456998348236, 0.1051744818687439, -0.13693420588970184, -0.16285471618175507, 0.058222271502017975, -0.1405385136604309, 0.19630968570709229, -0.05270936340093613, -0.16090962290763855, 0.03479288890957832, 0.04708116874098778, -0.07996359467506409, 0.0933452770113945, -0.11355160176753998, 0.3101460337638855, -0.10711190849542618, 0.05513187497854233, -0.03295215591788292, 0.10025795549154282, -0.03227507695555687, 0.27625343203544617, 0.20219534635543823, 0.03809887543320656, 0.05946200713515282, 0.08568158000707626, 0.11826970428228378, -0.01117573119699955, 0.10080886632204056], [-0.04765483736991882, -0.07166729867458344, 0.25393933057785034, -0.16425712406635284, -0.052414048463106155, -0.04703320190310478, 0.05046245828270912, -0.17136411368846893, -0.014917762950062752, -0.03626738116145134, 0.14375127851963043, -0.02777327597141266, 0.15356813371181488, -0.0030036428943276405, -0.0710473507642746, 0.021450959146022797, -0.0009711624006740749, 0.14206358790397644, -0.012028387747704983, 0.11522094160318375, -0.10814332216978073, -0.009632858447730541, 0.05665351077914238, -0.07538190484046936, 0.011385787278413773, 0.04672350734472275, 0.2718888819217682, 0.10930998623371124, -0.08066318184137344, 0.04805934801697731, -0.010126040317118168, -0.0031545194797217846, 0.026885872706770897, 0.14855878055095673, 0.05115446448326111, -0.07166404277086258, -0.02969435043632984, 0.03727388009428978, -0.07676942646503448, -0.3049459457397461, 0.1558656543493271, 0.0351131372153759, -0.013837657868862152, 0.0014851911691948771, -0.0883677676320076, -0.23643213510513306, -0.06902817636728287, -0.06701651215553284, -0.11129666864871979, 0.05034240335226059, -0.36800867319107056, -0.19497445225715637, 0.13533300161361694, -0.03379112109541893, 0.05672586336731911, -0.33806559443473816, 0.05205124616622925, 0.011187436990439892, -0.022797586396336555, -0.004505613353103399, -0.047869350761175156, 0.1716465801000595, 0.11486513167619705, -0.028826534748077393], [-0.003965066745877266, -0.13332319259643555, 0.04019422084093094, -0.046865109354257584, -0.07526914775371552, 0.0595470666885376, -0.018573926761746407, -0.01318375300616026, 0.27196016907691956, 0.07698497176170349, 0.10704673826694489, -0.004656028002500534, -0.027948159724473953, -0.024512149393558502, -0.06787752360105515, -0.036325857043266296, -0.015748871490359306, 0.21691329777240753, -0.010574929416179657, 0.18585006892681122, -0.00576433539390564, -0.0814831405878067, -0.03256615623831749, 0.07265977561473846, -0.03372900187969208, -0.029214829206466675, -0.19899170100688934, -0.05118029564619064, 0.062239740043878555, -0.07760441303253174, 0.11336265504360199, 0.06846213340759277, 0.11487629264593124, 0.16422584652900696, 0.21733194589614868, 0.0825871005654335, 0.06931430101394653, -0.1348596066236496, 0.1853637546300888, 0.13032452762126923, -0.08235678821802139, -0.10516077280044556, -0.03600842505693436, 0.13918402791023254, 0.021721048280596733, 0.009870341047644615, 0.162515327334404, 0.03564835712313652, -0.14411458373069763, 0.11641697585582733, -0.12042082846164703, 0.023285750299692154, -0.009718040935695171, -0.029013408347964287, -0.060608699917793274, -0.19875119626522064, 0.05266601964831352, 0.02852264605462551, 0.1937246322631836, -0.1258801370859146, -0.16068041324615479, -0.19789892435073853, -0.03080734796822071, -0.016950860619544983], [0.1376919150352478, 0.047426849603652954, -0.20506560802459717, 0.11834026873111725, 0.14414289593696594, 0.03859562799334526, -0.015727892518043518, 0.2231946736574173, 0.030188968405127525, -0.060823917388916016, -0.06278761476278305, 0.061105936765670776, -0.2009120136499405, 0.23920050263404846, 0.07471586018800735, 0.032365817576646805, -0.024403156712651253, -0.13011415302753448, -0.08565235137939453, 0.128424271941185, 0.2666570842266083, -0.08971291035413742, 0.05128571018576622, 0.17191554605960846, -0.00023680474259890616, -0.13989658653736115, -0.27701336145401, -0.08234072476625443, 0.12129649519920349, 0.12621857225894928, 0.01830100640654564, -0.2641892731189728, -0.08464832603931427, -0.10826439410448074, -0.06498553603887558, 0.007331740576773882, -0.10986610502004623, 0.01381736434996128, 0.024722043424844742, 0.4031803011894226, -0.02716616727411747, 0.012594654224812984, 0.06183057278394699, -0.09812012314796448, 0.02855994552373886, -0.0027645889203995466, -0.03349725157022476, -0.028321966528892517, 0.21216388046741486, -0.032095763832330704, 0.23767241835594177, 0.11423802375793457, -0.12462232261896133, 0.020896274596452713, -0.10389860719442368, 0.0903521478176117, -0.019344668835401535, -0.046928007155656815, 0.1254628449678421, -0.14964589476585388, 0.16651637852191925, -0.07903695106506348, -0.16005612909793854, -0.013326726853847504], [0.04751443862915039, -0.052279021590948105, -0.04418922960758209, -0.13000419735908508, 0.12022598832845688, 0.09807471185922623, 0.1218668520450592, 0.03942333161830902, -0.0651794895529747, -0.007866798900067806, 0.07798118144273758, 0.09051322191953659, -0.07475133240222931, 0.03312387689948082, -0.056050900369882584, 0.0027424709405750036, 0.024158040061593056, -0.12432432919740677, 0.1278785616159439, -0.06509275734424591, -0.08154705166816711, 0.05801656097173691, -0.0030874863732606173, -0.017674531787633896, 0.03362487629055977, 0.08006208389997482, 0.06934119760990143, 0.2555864155292511, 0.11828453838825226, 0.12793990969657898, 0.0486825630068779, 0.05263359472155571, -0.04036708176136017, -0.11218361556529999, -0.08357997983694077, -0.060653235763311386, -0.041466936469078064, 0.012646980583667755, -0.05052287504076958, 0.04766176640987396, 0.07046681642532349, 0.06886259466409683, 0.07211578637361526, -0.05746777355670929, -0.0012968848459422588, 0.022312795743346214, -0.1259348839521408, -0.083039291203022, -0.05107070505619049, -0.11917398869991302, 0.0862286314368248, 0.08229447901248932, 0.01259114034473896, 0.1941547393798828, 0.07376199960708618, 0.15563157200813293, -0.11992191523313522, -0.03337768465280533, 0.018399354070425034, 0.09472446888685226, -0.03464627265930176, -0.0674666091799736, -0.037256624549627304, 0.05860329791903496], [0.06355976313352585, -0.015899071469902992, 0.03691558912396431, 0.14334946870803833, -0.029948625713586807, -0.13267309963703156, 0.13247443735599518, -0.05418110638856888, 0.08378543704748154, -0.07216762006282806, -0.1734914928674698, 0.08712363243103027, -0.07234899699687958, 0.12724409997463226, -0.04054650291800499, -0.15071110427379608, -0.096851646900177, -0.15579089522361755, -0.10937538743019104, -0.06452425569295883, 0.0018138643354177475, -0.02318710833787918, -0.11019288003444672, 0.1402658224105835, 0.05492665618658066, -0.007431820500642061, -0.04152891784906387, -0.045664381235837936, 0.09348830580711365, -0.020260188728570938, 0.05827818438410759, -0.040922340005636215, -0.05470036715269089, -0.05483352392911911, -0.00596886221319437, -0.036322783678770065, -0.203756183385849, -0.004706529434770346, 0.0808863714337349, -0.06164532154798508, 0.08944052457809448, 0.06521198898553848, 0.21792416274547577, 0.08134634047746658, -0.15778642892837524, 0.13580644130706787, -0.051025040447711945, 0.05440602824091911, -0.08823997527360916, -0.09362128376960754, 0.1258551925420761, -0.0502018928527832, 0.04261768236756325, -0.13603459298610687, 0.04307639226317406, 0.0999511182308197, -0.005698510445654392, 0.06271277368068695, 0.0869329497218132, 0.13563159108161926, 0.07211628556251526, 0.05434997379779816, -0.0787883996963501, 0.06117766350507736], [0.021956011652946472, -0.08076560497283936, -0.04383283853530884, 0.10150094330310822, 0.0343075655400753, 0.07619574666023254, 0.026055097579956055, -0.028852690011262894, 0.06168942525982857, -0.021900776773691177, -0.03369048610329628, -0.032552070915699005, -0.058667588979005814, 0.09280429035425186, 0.011392208747565746, 0.06932108104228973, -0.03746568784117699, -0.11018561571836472, 0.06615861505270004, 0.09306713193655014, -0.04840698838233948, -0.046613652259111404, 0.16013650596141815, 0.11655093729496002, 0.07072795182466507, 0.0013880651677027345, -0.0671425610780716, -0.03316708281636238, 0.03127280995249748, -0.056029051542282104, -0.10834793746471405, 0.05050306022167206, -0.018031401559710503, 0.043641988188028336, 0.07701729983091354, 0.08015082031488419, 0.012106601148843765, 0.08387918770313263, -0.031077319756150246, -0.023981764912605286, 0.11744354665279388, -0.09354780614376068, -0.0015325737185776234, -0.045314185321331024, -0.09701409190893173, 0.05108053982257843, -0.1038617342710495, -0.009776524268090725, 0.04066487029194832, 0.13488176465034485, -0.04703284800052643, 0.0031587646808475256, -0.0034765605814754963, 0.05785692483186722, -0.029917549341917038, -0.0642450675368309, 0.022351233288645744, 0.007840605452656746, 0.05853927135467529, -0.07238934189081192, 0.06509328633546829, -0.044071443378925323, 0.020279565826058388, -0.04340303689241409], [-0.10874032974243164, 0.1456986665725708, 0.04482652246952057, 0.033028095960617065, -0.044403478503227234, -0.16560515761375427, -0.004596448969095945, -0.036136284470558167, 0.017772970721125603, 0.08237610757350922, -0.12387311458587646, -0.05768778920173645, -0.05051226541399956, 0.0038673090748488903, -0.014893732033669949, 0.0035884876269847155, -0.04811383783817291, -0.22510533034801483, -0.08415337651968002, 0.13568158447742462, 0.1508183777332306, -0.10387726873159409, 0.02777712047100067, -0.06404969841241837, 0.05831436067819595, 0.04462265595793724, -0.02044539712369442, -0.02557854726910591, 0.004521082155406475, -0.03215302899479866, 0.06782947480678558, -0.18848927319049835, 0.06619033217430115, 0.07479625195264816, 0.061612606048583984, 0.14923402667045593, 0.06571568548679352, -0.01553987804800272, 0.007023513317108154, 0.21313944458961487, 0.046067014336586, 0.02070584148168564, -0.059721510857343674, -0.016387419775128365, -0.14079557359218597, 0.02729007601737976, 0.011713625863194466, -0.06770714372396469, 0.06775131076574326, -0.03648215904831886, 0.11229980736970901, -0.013382849283516407, -0.08202154189348221, -0.09378227591514587, -0.06471402198076248, 0.05246363952755928, 0.008157534524798393, 0.06361009180545807, -0.02016661874949932, -0.12106816470623016, -0.03483717143535614, -0.021262256428599358, -0.044439662247896194, -0.15600335597991943], [-0.031243188306689262, 0.05960133671760559, 0.06988459825515747, 0.01364971324801445, 0.10910558700561523, 0.04502665624022484, -0.08976868540048599, 0.03742276504635811, -0.03478581830859184, -0.08652141690254211, -0.04484185948967934, -0.07570825517177582, -0.04368806630373001, 0.0581928975880146, 0.016978535801172256, 0.07945163547992706, 0.12054821103811264, -0.12225281447172165, -0.07127942889928818, -0.03329719230532646, 0.017889074981212616, 0.04308377206325531, -0.11782687157392502, 0.1726469248533249, -0.0516916923224926, 0.09495043754577637, -0.13944920897483826, 0.07329286634922028, 0.1603843867778778, 0.0722334086894989, 0.044670380651950836, -0.004606278147548437, 0.004384036175906658, 0.14478927850723267, 0.11415529996156693, -0.054814063012599945, -0.018222063779830933, -0.03337296098470688, -0.07077857851982117, 0.059094224125146866, -0.0030678510665893555, -0.08882524818181992, -0.14984342455863953, -0.0012482741149142385, 0.08849955350160599, 0.017918987199664116, 0.11254111677408218, 0.0804305374622345, 0.15026067197322845, 0.045052118599414825, 0.0714254379272461, -0.1926378756761551, -0.012847457081079483, -0.06036548316478729, -0.03428022935986519, -0.026510166004300117, 0.0636044591665268, 0.08409469574689865, -0.0619470477104187, -0.08364462852478027, -0.0806911438703537, -0.04444846138358116, 0.06640388071537018, 0.048519738018512726], [-0.0823354497551918, -0.009451783262193203, -0.09178809821605682, 0.08840789645910263, 0.044299911707639694, -0.1482669562101364, -0.08162398636341095, 0.031324874609708786, -0.13682876527309418, 0.0601891465485096, 0.07273989915847778, -0.11826135218143463, -0.006753153167665005, 0.1186462938785553, -0.0527048297226429, 0.06079605594277382, 0.014889339916408062, 0.02306472510099411, 0.051542773842811584, 0.00908177811652422, -0.1326608508825302, 0.06400256603956223, 0.04700150713324547, 0.031560223549604416, -0.11105920374393463, 0.1154179722070694, 0.06761281937360764, -0.048690348863601685, 0.011938462033867836, -0.14662910997867584, -0.10922020673751831, 0.08846544474363327, -0.11569704860448837, -0.023861369118094444, 0.04915216937661171, 0.0875474363565445, 0.089510478079319, 0.020014332607388496, 0.10175595432519913, 0.0721479281783104, 0.06674961000680923, 0.07601290196180344, -0.012814348563551903, -0.06912432610988617, 0.11216937005519867, 0.024325456470251083, 0.20083482563495636, -0.05662013590335846, -0.055809926241636276, -0.20229022204875946, 0.02039325423538685, -0.003599366871640086, -0.037416793406009674, 0.01860848069190979, -0.2555064857006073, 0.1216365173459053, 0.030997181311249733, 0.16987350583076477, -0.15276263654232025, 0.012838347814977169, -0.11413406580686569, -0.009775163605809212, -0.12229900807142258, -0.16361458599567413], [0.06143830344080925, -0.18210594356060028, 0.08428003638982773, -0.010964030399918556, 0.04269934818148613, -0.06732635945081711, -0.038166750222444534, 0.14432838559150696, -0.11462647467851639, 0.10274714976549149, -0.11271955072879791, -0.08004450052976608, 0.12253928929567337, 0.2024712711572647, 0.15296685695648193, -0.0518510639667511, -0.15132193267345428, 0.06533106416463852, 0.11283396929502487, -0.03662418946623802, 0.015199447982013226, -0.06436621397733688, -0.18138474225997925, 0.016001936048269272, -0.13106806576251984, 0.14313261210918427, -0.14481747150421143, -0.010488067753612995, 0.017714209854602814, -0.12951186299324036, -0.17731840908527374, 0.007912126369774342, 0.06206071749329567, -0.28348803520202637, 0.14551880955696106, 0.05291153863072395, -0.03131972625851631, 0.19147184491157532, 0.04035327583551407, 0.05303524062037468, -0.09063264727592468, -0.020567547529935837, 0.18982122838497162, -0.19753071665763855, 0.06724528968334198, -0.031217385083436966, -0.026715949177742004, 0.13532915711402893, 0.16644331812858582, -0.09784115105867386, -0.012540090829133987, -0.0902530699968338, 0.08765093982219696, -0.014281699433922768, -0.011319977231323719, -0.05097869783639908, 0.005586044397205114, -0.03067740797996521, 0.1203174740076065, -0.08662322163581848, 0.21572664380073547, -0.04731186106801033, -0.018329255282878876, 0.24441759288311005], [0.04114333912730217, -0.08424880355596542, 0.07279033213853836, -0.19886426627635956, -0.03545055910944939, 0.1312837153673172, 0.0851089209318161, -0.08674519509077072, -0.08913830667734146, 0.13252834975719452, 0.13867995142936707, -0.18665730953216553, 0.1150251030921936, 0.02006377838551998, 0.047511063516139984, 0.039512522518634796, 0.05953225865960121, -0.110931895673275, 0.041704535484313965, -0.009831744246184826, -0.021706484258174896, -0.027220554649829865, -0.16569530963897705, 0.09499578177928925, -0.08633989095687866, -0.08183787763118744, -0.11496172845363617, -0.046503063291311264, -0.07370762526988983, -0.07893143594264984, 0.05616312474012375, -0.03902458772063255, -0.060761094093322754, 0.09338746964931488, 0.09219779819250107, -0.00483328104019165, -0.0649440810084343, 0.003919429611414671, -0.030685624107718468, 0.053489554673433304, -0.03411335498094559, -0.11711153388023376, 0.009967021644115448, 0.025148622691631317, -0.18278665840625763, -0.14592735469341278, 0.015139610506594181, -0.18734192848205566, -0.12611106038093567, 0.059011783450841904, -0.1529216468334198, -0.0751151517033577, 0.08217237889766693, -0.03331008926033974, -0.03156956657767296, -0.06534349173307419, -0.07701177895069122, 0.04056558012962341, -0.019375629723072052, 0.044683799147605896, 0.0035185592714697123, -0.0439191609621048, 0.08069269359111786, 0.04475915804505348], [-0.07204253226518631, 0.05935261771082878, 0.017406465485692024, -0.0800027921795845, -0.08003465086221695, -0.0779414102435112, 0.01574285887181759, -0.08944806456565857, 0.004624074790626764, -0.0014167528133839369, 0.08917313069105148, 0.16546577215194702, 0.17172327637672424, 0.09706107527017593, -0.04682619497179985, 0.06388087570667267, -0.01474305521696806, 0.10366950929164886, 0.15280339121818542, 0.00912643875926733, -0.017330728471279144, 0.06722589582204819, 0.045380860567092896, 0.0569516122341156, -0.0008199691656045616, -0.05890693888068199, -0.006495525129139423, -0.0054113613441586494, 0.003767781425267458, -0.05038582906126976, 0.041885893791913986, -0.0006099945167079568, 0.09841593354940414, 0.06701108813285828, 0.008249604143202305, 0.015640491619706154, 0.10001739114522934, 0.03904111683368683, -0.11952640861272812, -0.12439772486686707, 0.08783569931983948, -0.1758975386619568, -0.07366469502449036, -0.019230414181947708, 0.11614478379487991, 0.14837205410003662, 0.06734191626310349, -0.06376906484365463, 0.10589540004730225, 0.03326011449098587, -0.04671919718384743, -0.21634353697299957, -0.18042734265327454, -0.16042804718017578, -0.08343707025051117, 0.009142784401774406, 0.0060020084492862225, -0.24611365795135498, 0.14719952642917633, 0.09900183975696564, -0.07833048701286316, -0.11057335138320923, -0.1028105616569519, -0.20283961296081543], [-0.008948341012001038, 0.09885187447071075, 0.03420652449131012, -0.01291611883789301, 0.04070834070444107, 0.09138511121273041, -0.06511277705430984, 0.17409567534923553, 0.17941665649414062, -0.18406431376934052, -0.006945711560547352, -0.03550702705979347, 0.04849972203373909, -0.0041231210343539715, -0.006441076286137104, 0.038737230002880096, -0.1145547404885292, 0.06578294187784195, -0.03902008756995201, 0.058272603899240494, 0.01438749860972166, -0.05832712724804878, 0.012346718460321426, 0.012727196328341961, 0.005901450756937265, -0.05587637051939964, -0.0496511235833168, 0.08876409381628036, 0.07784651964902878, 0.037530798465013504, -0.08101550489664078, 0.008403103798627853, 0.024070430546998978, -0.04661601409316063, -0.09457294642925262, 0.10922958701848984, -0.05609910935163498, -0.02056816592812538, -0.17925773561000824, 0.15371426939964294, 0.10083292424678802, 0.0016447827219963074, 0.019224945455789566, 0.0558873750269413, -0.1282062977552414, 0.19264300167560577, 0.04881804808974266, 0.18204326927661896, 0.2398597151041031, -0.07156110554933548, 0.049114421010017395, 0.10314007848501205, -0.13735365867614746, 